0.07491304981810287	
0.28448436780614283	
-0.264626618050654	
-0.0908160748648078	
-0.2071687803765	
0.059315840208149506	
-0.10253501407975796	
0.03412610068683053	
0.3486592279110645	
-0.09932782260712902	
0.38577363905271655	
0.3135482230206045	
0.34781047407350574	
0.1668198194500774	
-0.36005556879925393	
0.3671640256852749	
-1.2485379023939633	
0.36928325530327744	
-1.184444847736082	
-1.4654731935118	
8.938766188930884	
6.0231377047264205	
-4.687109022667052	
0.0545606708774148	
-0.8801899992837796	
13.315338231540023	
-0.02928305676398593	
9.638049119825567	
-0.20713857216596285	
1.4771046321367434	
0.4220276521462441	
-0.8733036386843399	
0.5691305970522542	
-0.731043709191151	
-0.5887412943409751	
0.5004996865023736	
9.332819492106434	
-5.844564589470027	
0.36768463983801164	
-0.5553066642892623	
16.33068729073363	
-0.1432438683197229	
8.533267878640459	
-0.029486756155520707	
0.35070859164540036	
-0.6663111955253389	
-1.754387711703366	
-2.5562972927915144	
-1.4233644144830164	
1.1657372560994932	
-9.354372371121988	
-2.8213658181153356	
-1.239976107674214	
-1.950043153069208	
-1.8391997790958063	
2.1361467748461647	
1.023798049246961	
1.310310983714941	
0.04870385906583049	
-0.11079858150081126	
1.2512405886875506	
-0.304184505555538	
2.7999817312412203	
-0.497166339358539	
2.7469919909992644	
19.789074024458586	
-17.65002513487573	
10.384199711632403	
1.8662374425416428	
-0.09130255457640732	
-8.293940244866743	
0.7113631104066553	
-11.996428655497462	
-1.0968522517137738	
-0.9228882250296796	
-4.1452745755831115	
-4.493390038124832	
-4.929805502997463	
-4.405819128614742	
-6.263281485622864	
-9.050089242966914	
-5.014202071764639	
-5.071423881412289	
-4.502508580633726	
-4.451279458867486	
-10.84479468069052	
-3.881961308700693	
-3.6461494751307684	
-4.06240363934828	
-4.152951739095263	
0.13299269316998177	
0.3490143802521428	
0.7005464139508617	
0.20669739542168433	
-1.4845087129093137	
12.821296836188953	
-17.153913856971293	
-6.532492947715793	
0.33253447478106063	
0.28995807961176945	
14.051028919832598	
0.7612779372940021	
-5.880863340236293	
-0.32633861423331006	
-0.6865583848485177	
0.5088575225420049	
============================================
