-0.24401428061621333	
-0.4186870755856269	
0.23072378364944413	
0.09476489634181351	
-0.3668150478284836	
-0.3867322495416783	
-0.17654834670128194	
-0.4968028805611815	
0.475940824925451	
0.45224818515912235	
0.3686986416537291	
-0.35869398292423493	
-0.45893605971892526	
-0.16266564211674595	
0.4335797347469338	
1.1740277513833581	
1.3104363069267009	
0.5781674017876531	
-0.10623470773350603	
0.2731197423435632	
0.3914167947447559	
-0.4643885873814767	
0.7141197602425978	
-0.20913656132512287	
0.3124165518877566	
0.4130676298442159	
0.624498593795469	
0.4974389613430458	
0.21346399771903157	
0.14257045471190913	
1.4115325648545893	
1.5188011779898054	
1.1098352168678784	
-1.0674867279089417	
0.034586148685124	
0.314722524040137	
0.12116167418755713	
0.9578118997131543	
-0.3990819467371561	
-0.15162831141500285	
0.76299787735227	
0.26484824081909014	
0.934975240672092	
0.615214777382996	
0.1240695809816622	
1.652209894228463	
1.431020603590183	
1.2440797094978686	
-1.2139828991774546	
-0.03978793389649304	
0.4824607174000242	
-0.6965765616711295	
0.8082859137641722	
0.017583268020007505	
0.21038283148475972	
1.0224133520551353	
1.2048476521661697	
0.9588359784580955	
0.8650719851749251	
-0.22639432182466962	
0.7937791676912286	
1.6851554275472858	
1.0120147333240443	
-1.0049891832278994	
0.058741306118704296	
0.3021006528134706	
-0.019712755696777613	
0.9100978612193292	
0.06971988860668399	
-0.2852845810698404	
0.4360136932797203	
0.6408457085525548	
0.6046137660448174	
0.9020281026438127	
-0.3880563776445661	
-1.2888530196208667	
-1.3134316194903668	
-1.1036432637801306	
-1.1534025865359103	
-0.8941932905195309	
-0.9496862355349025	
-0.979249387692885	
-1.2074558531737738	
-1.0797933377893127	
-1.1173774225687851	
-1.1614369656473142	
-1.1163046267674464	
-0.9838226267005402	
-1.0173268896635586	
-0.9538599932733168	
-1.7592211239778568	
-2.0769823466420587	
-1.3704525159646341	
1.0714790808453454	
-0.2416561205338053	
-0.49129520408039806	
0.2749435039592249	
-1.1896189699947726	
0.030053538900154036	
-0.1456226223851845	
-0.9119566283038775	
-1.0152217940503618	
-1.0407450698637126	
-0.9879492339963509	
0.04672798080764673	
-0.27946684459037024	
============================================
