0.1986758335743829
0.39513537160350676
-0.2923763629014883
-0.22110850198327903
0.15730315282150842
-0.4865810494881523
-0.02698910641995489
0.2542046160488336
0.2315450886323973
0.06679385784592429
0.10156029295324054
0.03251906397513382
0.4676913868077369
0.06816439624114268
-0.08701053975840545
-3.31031303837309
-2.9988794084534165
3.115779076931167
3.1955119522738658
-3.21217648745019
-2.9621303380586745
2.92932682567504
-3.3412960905738034
3.251185001871242
-2.830120708703831
3.2434224409508943
3.2862443457277246
2.92670280557489
-3.3391530240903107
-3.2449844391130256
-3.9629412267817514
-4.1612861093235125
4.097702067623985
4.071174243938272
-4.0550955551563
-4.240444379942373
4.180448841516898
-4.093302768224591
3.989102998510649
-4.09359937319249
4.290389565449332
3.979486574143964
3.900040058190852
-4.101213990311177
-4.195619446950477
-5.40743147675015
-5.2744104514885395
5.193531384170563
5.0038744436707265
-4.82507535266087
-5.222063684971308
5.019211756871635
-5.325539008767957
5.456744967198946
-5.309952220090219
5.310135294453269
5.34017264199462
4.978498241069716
-5.398905801838921
-5.525199892363958
-3.6568245299684126
-3.924771004855876
3.6202611437292047
3.670597877969996
-3.4575929655591864
-3.7327432458905734
3.386910883050769
-3.6618824981764515
3.713943523322069
-3.8600819975692566
3.958745859678668
3.5821527304813934
3.6022309301568227
-3.8140009337283676
-3.7125230920749153
-0.005205197189349359
-0.0051997218595791666
0.005242652844018628
0.005261463105079022
-0.005316200083117936
-0.005223366968055975
0.005306435807360205
-0.005198418258093535
0.005193622108505177
-0.005225776481481867
0.0051545302857267565
0.0052239062464863725
0.005321104346759787
-0.005170038071538566
-0.005160949781723208
0.12364209181513074
0.12358791348549028
-0.1232137180968637
-0.12296597064474078
0.12240361478643931
0.12337800639579156
-0.1225568448421723
0.12369360212761416
-0.12375287179812094
0.12333088335888989
-0.12405747863808436
-0.12345561028677053
-0.12233637577581485
0.12395862026381307
0.12409357382845927
-2.3849737889501044
0.1986758335743829
0.39513537160350676
-0.2923763629014883
-0.22110850198327903
0.15730315282150842
-0.4865810494881523
-0.02698910641995489
0.2542046160488336
0.2315450886323973
0.06679385784592429
0.10156029295324054
0.03251906397513382
0.4676913868077369
0.06816439624114268
-0.08701053975840545
-3.31031303837309
-2.9988794084534165
3.115779076931167
3.1955119522738658
-3.21217648745019
-2.9621303380586745
2.92932682567504
-3.3412960905738034
3.251185001871242
-2.830120708703831
3.2434224409508943
3.2862443457277246
2.92670280557489
-3.3391530240903107
-3.2449844391130256
-3.9629412267817514
-4.1612861093235125
4.097702067623985
4.071174243938272
-4.0550955551563
-4.240444379942373
4.180448841516898
-4.093302768224591
3.989102998510649
-4.09359937319249
4.290389565449332
3.979486574143964
3.900040058190852
-4.101213990311177
-4.195619446950477
-5.40743147675015
-5.2744104514885395
5.193531384170563
5.0038744436707265
-4.82507535266087
-5.222063684971308
5.019211756871635
-5.325539008767957
5.456744967198946
-5.309952220090219
5.310135294453269
5.34017264199462
4.978498241069716
-5.398905801838921
-5.525199892363958
-3.6568245299684126
-3.924771004855876
3.6202611437292047
3.670597877969996
-3.4575929655591864
-3.7327432458905734
3.386910883050769
-3.6618824981764515
3.713943523322069
-3.8600819975692566
3.958745859678668
3.5821527304813934
3.6022309301568227
-3.8140009337283676
-3.7125230920749153
-0.005205197189349359
-0.0051997218595791666
0.005242652844018628
0.005261463105079022
-0.005316200083117936
-0.005223366968055975
0.005306435807360205
-0.005198418258093535
0.005193622108505177
-0.005225776481481867
0.0051545302857267565
0.0052239062464863725
0.005321104346759787
-0.005170038071538566
-0.005160949781723208
0.12364209181513074
0.12358791348549028
-0.1232137180968637
-0.12296597064474078
0.12240361478643931
0.12337800639579156
-0.1225568448421723
0.12369360212761416
-0.12375287179812094
0.12333088335888989
-0.12405747863808436
-0.12345561028677053
-0.12233637577581485
0.12395862026381307
0.12409357382845927
-2.3849737889501044
0.18765673431967642
0.3855110351604808
-0.28857339097919754
-0.21697914331290283
0.1464068804120516
-0.4903211624738301
-0.024423188286301713
0.2431828453602667
0.23433826384256412
0.060271814239553335
0.10425445545987205
0.035986462964993644
0.46984100099382764
0.05875087586825448
-0.09364153800054013
-3.298548725758698
-2.9887997236903963
3.1118193067501907
3.1911912327977814
-3.2004991050531357
-2.9574975343299026
2.926589513998054
-3.3295977683326017
3.248101055253213
-2.823044978412067
3.2404989668242643
3.282526160509637
2.924214218801096
-3.3289447858417645
-3.237612729096878
-3.974579853039229
-4.17125822413426
4.101618510927065
4.07544761343517
-4.066647933055764
-4.245028129017497
4.183156299911676
-4.104876060606383
3.9921534612535856
-4.100599820586163
4.2932813210078
3.9831641906426736
3.9025016656256204
-4.111313409672454
-4.202912775170868
-5.4127499699863195
-5.2789663275331495
5.1953218141440844
5.005828929693825
-4.830359992244919
-5.2241503216729015
5.020448556786261
-5.330828791555117
5.458135629236039
-5.3131461099090815
5.311453664371102
5.341851979915929
4.979620149812759
-5.403516752821254
-5.5285257128795555
-3.65440548665621
-3.9226936709132345
3.619493887976917
3.669763250765736
-3.4551978730626502
-3.731777634765929
3.3863768377686667
-3.6594781565260943
3.7133372694618316
-3.858617292366396
3.9581698960086746
3.581428665795751
3.601740058501483
-3.8118944020589933
-3.7109965061126187
0.006559115425039318
0.004879962903441714
0.0012828826630436974
9.407436289962282E-4
0.006361182313937049
-5.905632392886948E-4
0.0025691241303721253
0.006499903983105303
0.0021096754904725338
0.0018499538102848578
0.002231056159098045
0.0015057210283995724
0.002832517572967217
0.0050382001770064
0.002210760234424605
0.5375462224441879
0.5451968298364861
-0.082990244934932
-0.07763070432511954
0.5364613354702656
0.5671539479384266
-0.09684544940932174
0.5378835137574114
-0.09444490376634267
0.5576445109120112
-0.09666887555395433
-0.08647813487447713
-0.09913684537270016
0.545210618981459
0.5573317971462689
-1.9253730057678071
0.18482019656968443
0.3829282198503955
-0.28791404343789856
-0.2163307192803649
0.14377672502014766
-0.4914451000095144
-0.023921933706984887
0.24036508149400343
0.2348841541738063
0.05838639029959773
0.10480568097867934
0.03660068053949741
0.4702448967550572
0.056213593511237676
-0.0955713738972835
-3.2955016888056647
-2.9860923312756675
3.1110749931273287
3.190437139991037
-3.1976448247440437
-2.9561147405428776
2.9259956429310976
-3.3265899632032476
3.247396965471435
-2.821004838525321
3.2398261163622064
3.2817740918581713
2.9236228427573456
-3.326183114556345
-3.2354719089929502
-3.9776510196343553
-4.173985556985599
4.102374050921516
4.07621442799908
-4.06952752950686
-4.246418838695086
4.183757283877653
-4.107908053551439
3.992865177120613
-4.102652840677212
4.29396134476041
3.9839263167473495
3.9030989893578396
-4.114095028941859
-4.205066859979232
-5.413762100887891
-5.27987253502324
5.195558358944396
5.00606221037642
-4.831288282107033
-5.224635710636822
5.020646128814251
-5.331824338039335
5.458376858658926
-5.313845441489288
5.3116840068221425
5.342099024786646
4.979825392319197
-5.404448347201198
-5.529263824675169
-3.6536176720321047
-3.921999893205614
3.6192616919648795
3.669520656175426
-3.4544482706562643
-3.7314379026185027
3.386201506063034
-3.65869846051458
3.7131370042126157
-3.8581042888518238
3.957979806695276
3.5812023680924225
3.6015746880555257
-3.811190709652998
-3.710459779423788
0.009606152378076037
0.007587355318170061
5.385690401783731E-4
1.8665082225058908E-4
0.00921546262303005
7.922305477408116E-4
0.001975253063418994
0.009507709112464829
0.0014055857087002777
0.0038900936970283294
0.0015582056970393284
7.53652376936169E-4
0.0022411415292162905
0.007799871462425324
0.004351580338352518
0.5518385928067624
0.5614423766570708
-0.07244022078421211
-0.06596297433848722
0.5516079765412013
0.5889810473084093
-0.090094722131647
0.5523890139232318
-0.08610717920908545
0.577046029211648
-0.08894898964709588
-0.07643031239394728
-0.09262272618313645
0.5611733527529874
0.5763236251653479
-1.8989527079528006
0.1986758335743829
0.39513537160350676
-0.2923763629014883
-0.22110850198327903
0.15730315282150842
-0.4865810494881523
-0.02698910641995489
0.2542046160488336
0.2315450886323973
0.06679385784592429
0.10156029295324054
0.03251906397513382
0.4676913868077369
0.06816439624114268
-0.08701053975840545
-3.31031303837309
-2.9988794084534165
3.115779076931167
3.1955119522738658
-3.21217648745019
-2.9621303380586745
2.92932682567504
-3.3412960905738034
3.251185001871242
-2.830120708703831
3.2434224409508943
3.2862443457277246
2.92670280557489
-3.3391530240903107
-3.2449844391130256
-3.9629412267817514
-4.1612861093235125
4.097702067623985
4.071174243938272
-4.0550955551563
-4.240444379942373
4.180448841516898
-4.093302768224591
3.989102998510649
-4.09359937319249
4.290389565449332
3.979486574143964
3.900040058190852
-4.101213990311177
-4.195619446950477
-5.40743147675015
-5.2744104514885395
5.193531384170563
5.0038744436707265
-4.82507535266087
-5.222063684971308
5.019211756871635
-5.325539008767957
5.456744967198946
-5.309952220090219
5.310135294453269
5.34017264199462
4.978498241069716
-5.398905801838921
-5.525199892363958
-3.6568245299684126
-3.924771004855876
3.6202611437292047
3.670597877969996
-3.4575929655591864
-3.7327432458905734
3.386910883050769
-3.6618824981764515
3.713943523322069
-3.8600819975692566
3.958745859678668
3.5821527304813934
3.6022309301568227
-3.8140009337283676
-3.7125230920749153
-0.005205197189349359
-0.0051997218595791666
0.005242652844018628
0.005261463105079022
-0.005316200083117936
-0.005223366968055975
0.005306435807360205
-0.005198418258093535
0.005193622108505177
-0.005225776481481867
0.0051545302857267565
0.0052239062464863725
0.005321104346759787
-0.005170038071538566
-0.005160949781723208
0.12364209181513074
0.12358791348549028
-0.1232137180968637
-0.12296597064474078
0.12240361478643931
0.12337800639579156
-0.1225568448421723
0.12369360212761416
-0.12375287179812094
0.12333088335888989
-0.12405747863808436
-0.12345561028677053
-0.12233637577581485
0.12395862026381307
0.12409357382845927
-2.3849737889501044
0.16078496194712316
0.35878313479926216
-0.28563253385378734
-0.21461429355266776
0.12101308982934088
-0.5069946166695732
-0.02048424910480738
0.2163988785254082
0.2381957620312145
0.036839396401768164
0.10828480998926855
0.03919251047259829
0.4736165897646501
0.032210155663374464
-0.11771621798382102
-3.2695937384005807
-2.9605319348450188
3.108651475379183
3.1886076502928886
-3.1731138166573447
-2.9382857481306277
2.9222987670515823
-3.300858315200125
3.2438075936864057
-2.797745831731864
3.236058705901856
3.278991314763716
2.9199037032439645
-3.300186762676784
-3.2112626746060893
-4.004142600134015
-4.200087844100508
4.104915586913841
4.078161781383138
-4.0946205838861145
-4.264571266955445
4.1875612776611995
-4.134219302230118
3.99656922630924
-4.126357850196582
4.297841908317079
3.986827016772429
3.9069207229150638
-4.1406417412998255
-4.229740734837322
-5.4165560452819275
-5.28295084897989
5.195392729944112
5.005716133941883
-4.833820028957373
-5.227304254123815
5.020937154559478
-5.334596145139033
5.458586937344315
-5.317099832888855
5.311956570037112
5.342042920371248
4.98015371034956
-5.4075925626834165
-5.532653015825997
-3.645546083982154
-3.914124771620895
3.6184262401682004
3.668840716536925
-3.4467696755140804
-3.726096025385639
3.385046445512932
-3.650679746888573
3.7120043924185957
-3.8510680118399114
3.9568000347152874
3.5802756884193396
3.6004230728701843
-3.8031885661227425
-3.703139076762293
0.03551410278316017
0.033147751748817414
-0.0018849487079635784
-0.0016428388758977712
0.033746470709726216
0.01862122295999091
-0.0017216228160977494
0.03523935711558587
-0.0021837860763318047
0.027149100490484142
-0.002209204763309014
-0.002029124717523257
-0.0014779979841649776
0.033796223341989624
0.028560814725213667
0.5690180348129096
0.5950708001802334
0.037087287395503786
0.048930476183664584
0.5850436278783276
0.6772016264083783
-0.016617185032582988
0.5725060256992133
0.006920018626239122
0.6380263176551233
-0.0025825089329573484
0.030341759928203225
-0.024302239835824285
0.5915173977614471
0.6316226399869012
-1.7589534614468856
0.1986758335743829
0.39513537160350676
-0.2923763629014883
-0.22110850198327903
0.15730315282150842
-0.4865810494881523
-0.02698910641995489
0.2542046160488336
0.2315450886323973
0.06679385784592429
0.10156029295324054
0.03251906397513382
0.4676913868077369
0.06816439624114268
-0.08701053975840545
-3.31031303837309
-2.9988794084534165
3.115779076931167
3.1955119522738658
-3.21217648745019
-2.9621303380586745
2.92932682567504
-3.3412960905738034
3.251185001871242
-2.830120708703831
3.2434224409508943
3.2862443457277246
2.92670280557489
-3.3391530240903107
-3.2449844391130256
-3.9629412267817514
-4.1612861093235125
4.097702067623985
4.071174243938272
-4.0550955551563
-4.240444379942373
4.180448841516898
-4.093302768224591
3.989102998510649
-4.09359937319249
4.290389565449332
3.979486574143964
3.900040058190852
-4.101213990311177
-4.195619446950477
-5.40743147675015
-5.2744104514885395
5.193531384170563
5.0038744436707265
-4.82507535266087
-5.222063684971308
5.019211756871635
-5.325539008767957
5.456744967198946
-5.309952220090219
5.310135294453269
5.34017264199462
4.978498241069716
-5.398905801838921
-5.525199892363958
-3.6568245299684126
-3.924771004855876
3.6202611437292047
3.670597877969996
-3.4575929655591864
-3.7327432458905734
3.386910883050769
-3.6618824981764515
3.713943523322069
-3.8600819975692566
3.958745859678668
3.5821527304813934
3.6022309301568227
-3.8140009337283676
-3.7125230920749153
-0.005205197189349359
-0.0051997218595791666
0.005242652844018628
0.005261463105079022
-0.005316200083117936
-0.005223366968055975
0.005306435807360205
-0.005198418258093535
0.005193622108505177
-0.005225776481481867
0.0051545302857267565
0.0052239062464863725
0.005321104346759787
-0.005170038071538566
-0.005160949781723208
0.12364209181513074
0.12358791348549028
-0.1232137180968637
-0.12296597064474078
0.12240361478643931
0.12337800639579156
-0.1225568448421723
0.12369360212761416
-0.12375287179812094
0.12333088335888989
-0.12405747863808436
-0.12345561028677053
-0.12233637577581485
0.12395862026381307
0.12409357382845927
-2.3849737889501044
0.1986758335743829
0.39513537160350676
-0.2923763629014883
-0.22110850198327903
0.15730315282150842
-0.4865810494881523
-0.02698910641995489
0.2542046160488336
0.2315450886323973
0.06679385784592429
0.10156029295324054
0.03251906397513382
0.4676913868077369
0.06816439624114268
-0.08701053975840545
-3.31031303837309
-2.9988794084534165
3.115779076931167
3.1955119522738658
-3.21217648745019
-2.9621303380586745
2.92932682567504
-3.3412960905738034
3.251185001871242
-2.830120708703831
3.2434224409508943
3.2862443457277246
2.92670280557489
-3.3391530240903107
-3.2449844391130256
-3.9629412267817514
-4.1612861093235125
4.097702067623985
4.071174243938272
-4.0550955551563
-4.240444379942373
4.180448841516898
-4.093302768224591
3.989102998510649
-4.09359937319249
4.290389565449332
3.979486574143964
3.900040058190852
-4.101213990311177
-4.195619446950477
-5.40743147675015
-5.2744104514885395
5.193531384170563
5.0038744436707265
-4.82507535266087
-5.222063684971308
5.019211756871635
-5.325539008767957
5.456744967198946
-5.309952220090219
5.310135294453269
5.34017264199462
4.978498241069716
-5.398905801838921
-5.525199892363958
-3.6568245299684126
-3.924771004855876
3.6202611437292047
3.670597877969996
-3.4575929655591864
-3.7327432458905734
3.386910883050769
-3.6618824981764515
3.713943523322069
-3.8600819975692566
3.958745859678668
3.5821527304813934
3.6022309301568227
-3.8140009337283676
-3.7125230920749153
-0.005205197189349359
-0.0051997218595791666
0.005242652844018628
0.005261463105079022
-0.005316200083117936
-0.005223366968055975
0.005306435807360205
-0.005198418258093535
0.005193622108505177
-0.005225776481481867
0.0051545302857267565
0.0052239062464863725
0.005321104346759787
-0.005170038071538566
-0.005160949781723208
0.12364209181513074
0.12358791348549028
-0.1232137180968637
-0.12296597064474078
0.12240361478643931
0.12337800639579156
-0.1225568448421723
0.12369360212761416
-0.12375287179812094
0.12333088335888989
-0.12405747863808436
-0.12345561028677053
-0.12233637577581485
0.12395862026381307
0.12409357382845927
-2.3849737889501044
0.1986758335743829
0.39513537160350676
-0.2923763629014883
-0.22110850198327903
0.15730315282150842
-0.4865810494881523
-0.02698910641995489
0.2542046160488336
0.2315450886323973
0.06679385784592429
0.10156029295324054
0.03251906397513382
0.4676913868077369
0.06816439624114268
-0.08701053975840545
-3.31031303837309
-2.9988794084534165
3.115779076931167
3.1955119522738658
-3.21217648745019
-2.9621303380586745
2.92932682567504
-3.3412960905738034
3.251185001871242
-2.830120708703831
3.2434224409508943
3.2862443457277246
2.92670280557489
-3.3391530240903107
-3.2449844391130256
-3.9629412267817514
-4.1612861093235125
4.097702067623985
4.071174243938272
-4.0550955551563
-4.240444379942373
4.180448841516898
-4.093302768224591
3.989102998510649
-4.09359937319249
4.290389565449332
3.979486574143964
3.900040058190852
-4.101213990311177
-4.195619446950477
-5.40743147675015
-5.2744104514885395
5.193531384170563
5.0038744436707265
-4.82507535266087
-5.222063684971308
5.019211756871635
-5.325539008767957
5.456744967198946
-5.309952220090219
5.310135294453269
5.34017264199462
4.978498241069716
-5.398905801838921
-5.525199892363958
-3.6568245299684126
-3.924771004855876
3.6202611437292047
3.670597877969996
-3.4575929655591864
-3.7327432458905734
3.386910883050769
-3.6618824981764515
3.713943523322069
-3.8600819975692566
3.958745859678668
3.5821527304813934
3.6022309301568227
-3.8140009337283676
-3.7125230920749153
-0.005205197189349359
-0.0051997218595791666
0.005242652844018628
0.005261463105079022
-0.005316200083117936
-0.005223366968055975
0.005306435807360205
-0.005198418258093535
0.005193622108505177
-0.005225776481481867
0.0051545302857267565
0.0052239062464863725
0.005321104346759787
-0.005170038071538566
-0.005160949781723208
0.12364209181513074
0.12358791348549028
-0.1232137180968637
-0.12296597064474078
0.12240361478643931
0.12337800639579156
-0.1225568448421723
0.12369360212761416
-0.12375287179812094
0.12333088335888989
-0.12405747863808436
-0.12345561028677053
-0.12233637577581485
0.12395862026381307
0.12409357382845927
-2.3849737889501044
0.1986758335743829
0.39513537160350676
-0.2923763629014883
-0.22110850198327903
0.15730315282150842
-0.4865810494881523
-0.02698910641995489
0.2542046160488336
0.2315450886323973
0.06679385784592429
0.10156029295324054
0.03251906397513382
0.4676913868077369
0.06816439624114268
-0.08701053975840545
-3.31031303837309
-2.9988794084534165
3.115779076931167
3.1955119522738658
-3.21217648745019
-2.9621303380586745
2.92932682567504
-3.3412960905738034
3.251185001871242
-2.830120708703831
3.2434224409508943
3.2862443457277246
2.92670280557489
-3.3391530240903107
-3.2449844391130256
-3.9629412267817514
-4.1612861093235125
4.097702067623985
4.071174243938272
-4.0550955551563
-4.240444379942373
4.180448841516898
-4.093302768224591
3.989102998510649
-4.09359937319249
4.290389565449332
3.979486574143964
3.900040058190852
-4.101213990311177
-4.195619446950477
-5.40743147675015
-5.2744104514885395
5.193531384170563
5.0038744436707265
-4.82507535266087
-5.222063684971308
5.019211756871635
-5.325539008767957
5.456744967198946
-5.309952220090219
5.310135294453269
5.34017264199462
4.978498241069716
-5.398905801838921
-5.525199892363958
-3.6568245299684126
-3.924771004855876
3.6202611437292047
3.670597877969996
-3.4575929655591864
-3.7327432458905734
3.386910883050769
-3.6618824981764515
3.713943523322069
-3.8600819975692566
3.958745859678668
3.5821527304813934
3.6022309301568227
-3.8140009337283676
-3.7125230920749153
-0.005205197189349359
-0.0051997218595791666
0.005242652844018628
0.005261463105079022
-0.005316200083117936
-0.005223366968055975
0.005306435807360205
-0.005198418258093535
0.005193622108505177
-0.005225776481481867
0.0051545302857267565
0.0052239062464863725
0.005321104346759787
-0.005170038071538566
-0.005160949781723208
0.12364209181513074
0.12358791348549028
-0.1232137180968637
-0.12296597064474078
0.12240361478643931
0.12337800639579156
-0.1225568448421723
0.12369360212761416
-0.12375287179812094
0.12333088335888989
-0.12405747863808436
-0.12345561028677053
-0.12233637577581485
0.12395862026381307
0.12409357382845927
-2.3849737889501044
