-0.08409364938552111
0.13258647117048683
-0.083690185824837
-0.09165182918477166
-7.839498831505587E-4
0.012302759285657605
0.1597044672977681
-0.17929874888840347
-0.06562844945577662
0.15742320141734323
0.45681950920789005
0.07528943216042794
-0.39286276103863504
0.09626032954807695
-0.18967778609010733
-1.457027626065107
-2.125693017829197
-2.0032507740690204
2.198149600933227
-1.530988396243838
2.1468993526080946
-1.7018646775636934
-2.235864330675147
-2.043379731460223
-1.6972221056700847
-2.277236546398704
-2.0396978223983115
-2.175014241554829
1.6213504252739401
2.0481959688271827
-2.350325785482006
-2.4995593328100028
-2.567295316854063
2.804226750948273
-2.0471711589336548
3.208143292825434
-2.444632635161754
-2.583729736343179
-2.5108804121437105
-2.2622034952843664
-2.8816383554932403
-2.7443944588182703
-2.5661726885132703
2.3247307154928634
2.5252563409919517
-2.920985482319376
-3.344040127183407
-2.652802137451596
3.3106898385226375
-2.843172808702073
3.8242965260730903
-2.846822740808252
-3.552147090442589
-3.302865204430019
-2.8787026079854
-3.299452917245238
-3.336737368157131
-2.897458126986571
3.340194650271049
3.643230818566266
-2.4583505082989463
-2.359466270075709
-2.234592801610351
2.3906021626278213
-2.390577917733084
2.9973227837530407
-2.580134616521576
-2.903945977558321
-2.848787357830305
-1.9593179183862517
-2.4913954435264327
-2.9464633421131987
-2.919839603496097
2.397174148844733
3.08668823859259
5.533511688904243E-4
0.0013288802315173647
5.957062794953848E-4
-0.0015679309958883663
2.3246087294165546E-4
-0.002594147789671028
7.887940390433877E-4
0.001995233819654859
0.0016123981995496632
1.800312088077109E-4
0.0017204173035161063
0.0018594687746746835
0.0014164772137349809
-9.56462353414924E-4
-0.0020552069722373613
0.1422166621823815
0.14788137433241721
0.14250409231331357
-0.14940512291738162
0.13983755542996965
-0.15573279858100264
0.14391002268566863
0.15213200759889853
0.14963806372738567
0.1395367002454852
0.15036076072483148
0.15118498976080638
0.1481799310938808
-0.14529270726431964
-0.15248242077214214
-3.204881660478263
-0.08409364938552111
0.13258647117048683
-0.083690185824837
-0.09165182918477166
-7.839498831505587E-4
0.012302759285657605
0.1597044672977681
-0.17929874888840347
-0.06562844945577662
0.15742320141734323
0.45681950920789005
0.07528943216042794
-0.39286276103863504
0.09626032954807695
-0.18967778609010733
-1.457027626065107
-2.125693017829197
-2.0032507740690204
2.198149600933227
-1.530988396243838
2.1468993526080946
-1.7018646775636934
-2.235864330675147
-2.043379731460223
-1.6972221056700847
-2.277236546398704
-2.0396978223983115
-2.175014241554829
1.6213504252739401
2.0481959688271827
-2.350325785482006
-2.4995593328100028
-2.567295316854063
2.804226750948273
-2.0471711589336548
3.208143292825434
-2.444632635161754
-2.583729736343179
-2.5108804121437105
-2.2622034952843664
-2.8816383554932403
-2.7443944588182703
-2.5661726885132703
2.3247307154928634
2.5252563409919517
-2.920985482319376
-3.344040127183407
-2.652802137451596
3.3106898385226375
-2.843172808702073
3.8242965260730903
-2.846822740808252
-3.552147090442589
-3.302865204430019
-2.8787026079854
-3.299452917245238
-3.336737368157131
-2.897458126986571
3.340194650271049
3.643230818566266
-2.4583505082989463
-2.359466270075709
-2.234592801610351
2.3906021626278213
-2.390577917733084
2.9973227837530407
-2.580134616521576
-2.903945977558321
-2.848787357830305
-1.9593179183862517
-2.4913954435264327
-2.9464633421131987
-2.919839603496097
2.397174148844733
3.08668823859259
5.533511688904243E-4
0.0013288802315173647
5.957062794953848E-4
-0.0015679309958883663
2.3246087294165546E-4
-0.002594147789671028
7.887940390433877E-4
0.001995233819654859
0.0016123981995496632
1.800312088077109E-4
0.0017204173035161063
0.0018594687746746835
0.0014164772137349809
-9.56462353414924E-4
-0.0020552069722373613
0.1422166621823815
0.14788137433241721
0.14250409231331357
-0.14940512291738162
0.13983755542996965
-0.15573279858100264
0.14391002268566863
0.15213200759889853
0.14963806372738567
0.1395367002454852
0.15036076072483148
0.15118498976080638
0.1481799310938808
-0.14529270726431964
-0.15248242077214214
-3.204881660478263
-0.08409364938552111
0.13258647117048683
-0.083690185824837
-0.09165182918477166
-7.839498831505587E-4
0.012302759285657605
0.1597044672977681
-0.17929874888840347
-0.06562844945577662
0.15742320141734323
0.45681950920789005
0.07528943216042794
-0.39286276103863504
0.09626032954807695
-0.18967778609010733
-1.457027626065107
-2.125693017829197
-2.0032507740690204
2.198149600933227
-1.530988396243838
2.1468993526080946
-1.7018646775636934
-2.235864330675147
-2.043379731460223
-1.6972221056700847
-2.277236546398704
-2.0396978223983115
-2.175014241554829
1.6213504252739401
2.0481959688271827
-2.350325785482006
-2.4995593328100028
-2.567295316854063
2.804226750948273
-2.0471711589336548
3.208143292825434
-2.444632635161754
-2.583729736343179
-2.5108804121437105
-2.2622034952843664
-2.8816383554932403
-2.7443944588182703
-2.5661726885132703
2.3247307154928634
2.5252563409919517
-2.920985482319376
-3.344040127183407
-2.652802137451596
3.3106898385226375
-2.843172808702073
3.8242965260730903
-2.846822740808252
-3.552147090442589
-3.302865204430019
-2.8787026079854
-3.299452917245238
-3.336737368157131
-2.897458126986571
3.340194650271049
3.643230818566266
-2.4583505082989463
-2.359466270075709
-2.234592801610351
2.3906021626278213
-2.390577917733084
2.9973227837530407
-2.580134616521576
-2.903945977558321
-2.848787357830305
-1.9593179183862517
-2.4913954435264327
-2.9464633421131987
-2.919839603496097
2.397174148844733
3.08668823859259
5.533511688904243E-4
0.0013288802315173647
5.957062794953848E-4
-0.0015679309958883663
2.3246087294165546E-4
-0.002594147789671028
7.887940390433877E-4
0.001995233819654859
0.0016123981995496632
1.800312088077109E-4
0.0017204173035161063
0.0018594687746746835
0.0014164772137349809
-9.56462353414924E-4
-0.0020552069722373613
0.1422166621823815
0.14788137433241721
0.14250409231331357
-0.14940512291738162
0.13983755542996965
-0.15573279858100264
0.14391002268566863
0.15213200759889853
0.14963806372738567
0.1395367002454852
0.15036076072483148
0.15118498976080638
0.1481799310938808
-0.14529270726431964
-0.15248242077214214
-3.204881660478263
-0.08409364938552111
0.13258647117048683
-0.083690185824837
-0.09165182918477166
-7.839498831505587E-4
0.012302759285657605
0.1597044672977681
-0.17929874888840347
-0.06562844945577662
0.15742320141734323
0.45681950920789005
0.07528943216042794
-0.39286276103863504
0.09626032954807695
-0.18967778609010733
-1.457027626065107
-2.125693017829197
-2.0032507740690204
2.198149600933227
-1.530988396243838
2.1468993526080946
-1.7018646775636934
-2.235864330675147
-2.043379731460223
-1.6972221056700847
-2.277236546398704
-2.0396978223983115
-2.175014241554829
1.6213504252739401
2.0481959688271827
-2.350325785482006
-2.4995593328100028
-2.567295316854063
2.804226750948273
-2.0471711589336548
3.208143292825434
-2.444632635161754
-2.583729736343179
-2.5108804121437105
-2.2622034952843664
-2.8816383554932403
-2.7443944588182703
-2.5661726885132703
2.3247307154928634
2.5252563409919517
-2.920985482319376
-3.344040127183407
-2.652802137451596
3.3106898385226375
-2.843172808702073
3.8242965260730903
-2.846822740808252
-3.552147090442589
-3.302865204430019
-2.8787026079854
-3.299452917245238
-3.336737368157131
-2.897458126986571
3.340194650271049
3.643230818566266
-2.4583505082989463
-2.359466270075709
-2.234592801610351
2.3906021626278213
-2.390577917733084
2.9973227837530407
-2.580134616521576
-2.903945977558321
-2.848787357830305
-1.9593179183862517
-2.4913954435264327
-2.9464633421131987
-2.919839603496097
2.397174148844733
3.08668823859259
5.533511688904243E-4
0.0013288802315173647
5.957062794953848E-4
-0.0015679309958883663
2.3246087294165546E-4
-0.002594147789671028
7.887940390433877E-4
0.001995233819654859
0.0016123981995496632
1.800312088077109E-4
0.0017204173035161063
0.0018594687746746835
0.0014164772137349809
-9.56462353414924E-4
-0.0020552069722373613
0.1422166621823815
0.14788137433241721
0.14250409231331357
-0.14940512291738162
0.13983755542996965
-0.15573279858100264
0.14391002268566863
0.15213200759889853
0.14963806372738567
0.1395367002454852
0.15036076072483148
0.15118498976080638
0.1481799310938808
-0.14529270726431964
-0.15248242077214214
-3.204881660478263
-0.08409364938552111
0.13258647117048683
-0.083690185824837
-0.09165182918477166
-7.839498831505587E-4
0.012302759285657605
0.1597044672977681
-0.17929874888840347
-0.06562844945577662
0.15742320141734323
0.45681950920789005
0.07528943216042794
-0.39286276103863504
0.09626032954807695
-0.18967778609010733
-1.457027626065107
-2.125693017829197
-2.0032507740690204
2.198149600933227
-1.530988396243838
2.1468993526080946
-1.7018646775636934
-2.235864330675147
-2.043379731460223
-1.6972221056700847
-2.277236546398704
-2.0396978223983115
-2.175014241554829
1.6213504252739401
2.0481959688271827
-2.350325785482006
-2.4995593328100028
-2.567295316854063
2.804226750948273
-2.0471711589336548
3.208143292825434
-2.444632635161754
-2.583729736343179
-2.5108804121437105
-2.2622034952843664
-2.8816383554932403
-2.7443944588182703
-2.5661726885132703
2.3247307154928634
2.5252563409919517
-2.920985482319376
-3.344040127183407
-2.652802137451596
3.3106898385226375
-2.843172808702073
3.8242965260730903
-2.846822740808252
-3.552147090442589
-3.302865204430019
-2.8787026079854
-3.299452917245238
-3.336737368157131
-2.897458126986571
3.340194650271049
3.643230818566266
-2.4583505082989463
-2.359466270075709
-2.234592801610351
2.3906021626278213
-2.390577917733084
2.9973227837530407
-2.580134616521576
-2.903945977558321
-2.848787357830305
-1.9593179183862517
-2.4913954435264327
-2.9464633421131987
-2.919839603496097
2.397174148844733
3.08668823859259
5.533511688904243E-4
0.0013288802315173647
5.957062794953848E-4
-0.0015679309958883663
2.3246087294165546E-4
-0.002594147789671028
7.887940390433877E-4
0.001995233819654859
0.0016123981995496632
1.800312088077109E-4
0.0017204173035161063
0.0018594687746746835
0.0014164772137349809
-9.56462353414924E-4
-0.0020552069722373613
0.1422166621823815
0.14788137433241721
0.14250409231331357
-0.14940512291738162
0.13983755542996965
-0.15573279858100264
0.14391002268566863
0.15213200759889853
0.14963806372738567
0.1395367002454852
0.15036076072483148
0.15118498976080638
0.1481799310938808
-0.14529270726431964
-0.15248242077214214
-3.204881660478263
-0.08409364938552111
0.13258647117048683
-0.083690185824837
-0.09165182918477166
-7.839498831505587E-4
0.012302759285657605
0.1597044672977681
-0.17929874888840347
-0.06562844945577662
0.15742320141734323
0.45681950920789005
0.07528943216042794
-0.39286276103863504
0.09626032954807695
-0.18967778609010733
-1.457027626065107
-2.125693017829197
-2.0032507740690204
2.198149600933227
-1.530988396243838
2.1468993526080946
-1.7018646775636934
-2.235864330675147
-2.043379731460223
-1.6972221056700847
-2.277236546398704
-2.0396978223983115
-2.175014241554829
1.6213504252739401
2.0481959688271827
-2.350325785482006
-2.4995593328100028
-2.567295316854063
2.804226750948273
-2.0471711589336548
3.208143292825434
-2.444632635161754
-2.583729736343179
-2.5108804121437105
-2.2622034952843664
-2.8816383554932403
-2.7443944588182703
-2.5661726885132703
2.3247307154928634
2.5252563409919517
-2.920985482319376
-3.344040127183407
-2.652802137451596
3.3106898385226375
-2.843172808702073
3.8242965260730903
-2.846822740808252
-3.552147090442589
-3.302865204430019
-2.8787026079854
-3.299452917245238
-3.336737368157131
-2.897458126986571
3.340194650271049
3.643230818566266
-2.4583505082989463
-2.359466270075709
-2.234592801610351
2.3906021626278213
-2.390577917733084
2.9973227837530407
-2.580134616521576
-2.903945977558321
-2.848787357830305
-1.9593179183862517
-2.4913954435264327
-2.9464633421131987
-2.919839603496097
2.397174148844733
3.08668823859259
5.533511688904243E-4
0.0013288802315173647
5.957062794953848E-4
-0.0015679309958883663
2.3246087294165546E-4
-0.002594147789671028
7.887940390433877E-4
0.001995233819654859
0.0016123981995496632
1.800312088077109E-4
0.0017204173035161063
0.0018594687746746835
0.0014164772137349809
-9.56462353414924E-4
-0.0020552069722373613
0.1422166621823815
0.14788137433241721
0.14250409231331357
-0.14940512291738162
0.13983755542996965
-0.15573279858100264
0.14391002268566863
0.15213200759889853
0.14963806372738567
0.1395367002454852
0.15036076072483148
0.15118498976080638
0.1481799310938808
-0.14529270726431964
-0.15248242077214214
-3.204881660478263
-0.08409364938552111
0.13258647117048683
-0.083690185824837
-0.09165182918477166
-7.839498831505587E-4
0.012302759285657605
0.1597044672977681
-0.17929874888840347
-0.06562844945577662
0.15742320141734323
0.45681950920789005
0.07528943216042794
-0.39286276103863504
0.09626032954807695
-0.18967778609010733
-1.457027626065107
-2.125693017829197
-2.0032507740690204
2.198149600933227
-1.530988396243838
2.1468993526080946
-1.7018646775636934
-2.235864330675147
-2.043379731460223
-1.6972221056700847
-2.277236546398704
-2.0396978223983115
-2.175014241554829
1.6213504252739401
2.0481959688271827
-2.350325785482006
-2.4995593328100028
-2.567295316854063
2.804226750948273
-2.0471711589336548
3.208143292825434
-2.444632635161754
-2.583729736343179
-2.5108804121437105
-2.2622034952843664
-2.8816383554932403
-2.7443944588182703
-2.5661726885132703
2.3247307154928634
2.5252563409919517
-2.920985482319376
-3.344040127183407
-2.652802137451596
3.3106898385226375
-2.843172808702073
3.8242965260730903
-2.846822740808252
-3.552147090442589
-3.302865204430019
-2.8787026079854
-3.299452917245238
-3.336737368157131
-2.897458126986571
3.340194650271049
3.643230818566266
-2.4583505082989463
-2.359466270075709
-2.234592801610351
2.3906021626278213
-2.390577917733084
2.9973227837530407
-2.580134616521576
-2.903945977558321
-2.848787357830305
-1.9593179183862517
-2.4913954435264327
-2.9464633421131987
-2.919839603496097
2.397174148844733
3.08668823859259
5.533511688904243E-4
0.0013288802315173647
5.957062794953848E-4
-0.0015679309958883663
2.3246087294165546E-4
-0.002594147789671028
7.887940390433877E-4
0.001995233819654859
0.0016123981995496632
1.800312088077109E-4
0.0017204173035161063
0.0018594687746746835
0.0014164772137349809
-9.56462353414924E-4
-0.0020552069722373613
0.1422166621823815
0.14788137433241721
0.14250409231331357
-0.14940512291738162
0.13983755542996965
-0.15573279858100264
0.14391002268566863
0.15213200759889853
0.14963806372738567
0.1395367002454852
0.15036076072483148
0.15118498976080638
0.1481799310938808
-0.14529270726431964
-0.15248242077214214
-3.204881660478263
-0.08409364938552111
0.13258647117048683
-0.083690185824837
-0.09165182918477166
-7.839498831505587E-4
0.012302759285657605
0.1597044672977681
-0.17929874888840347
-0.06562844945577662
0.15742320141734323
0.45681950920789005
0.07528943216042794
-0.39286276103863504
0.09626032954807695
-0.18967778609010733
-1.457027626065107
-2.125693017829197
-2.0032507740690204
2.198149600933227
-1.530988396243838
2.1468993526080946
-1.7018646775636934
-2.235864330675147
-2.043379731460223
-1.6972221056700847
-2.277236546398704
-2.0396978223983115
-2.175014241554829
1.6213504252739401
2.0481959688271827
-2.350325785482006
-2.4995593328100028
-2.567295316854063
2.804226750948273
-2.0471711589336548
3.208143292825434
-2.444632635161754
-2.583729736343179
-2.5108804121437105
-2.2622034952843664
-2.8816383554932403
-2.7443944588182703
-2.5661726885132703
2.3247307154928634
2.5252563409919517
-2.920985482319376
-3.344040127183407
-2.652802137451596
3.3106898385226375
-2.843172808702073
3.8242965260730903
-2.846822740808252
-3.552147090442589
-3.302865204430019
-2.8787026079854
-3.299452917245238
-3.336737368157131
-2.897458126986571
3.340194650271049
3.643230818566266
-2.4583505082989463
-2.359466270075709
-2.234592801610351
2.3906021626278213
-2.390577917733084
2.9973227837530407
-2.580134616521576
-2.903945977558321
-2.848787357830305
-1.9593179183862517
-2.4913954435264327
-2.9464633421131987
-2.919839603496097
2.397174148844733
3.08668823859259
5.533511688904243E-4
0.0013288802315173647
5.957062794953848E-4
-0.0015679309958883663
2.3246087294165546E-4
-0.002594147789671028
7.887940390433877E-4
0.001995233819654859
0.0016123981995496632
1.800312088077109E-4
0.0017204173035161063
0.0018594687746746835
0.0014164772137349809
-9.56462353414924E-4
-0.0020552069722373613
0.1422166621823815
0.14788137433241721
0.14250409231331357
-0.14940512291738162
0.13983755542996965
-0.15573279858100264
0.14391002268566863
0.15213200759889853
0.14963806372738567
0.1395367002454852
0.15036076072483148
0.15118498976080638
0.1481799310938808
-0.14529270726431964
-0.15248242077214214
-3.204881660478263
-0.08409364938552111
0.13258647117048683
-0.083690185824837
-0.09165182918477166
-7.839498831505587E-4
0.012302759285657605
0.1597044672977681
-0.17929874888840347
-0.06562844945577662
0.15742320141734323
0.45681950920789005
0.07528943216042794
-0.39286276103863504
0.09626032954807695
-0.18967778609010733
-1.457027626065107
-2.125693017829197
-2.0032507740690204
2.198149600933227
-1.530988396243838
2.1468993526080946
-1.7018646775636934
-2.235864330675147
-2.043379731460223
-1.6972221056700847
-2.277236546398704
-2.0396978223983115
-2.175014241554829
1.6213504252739401
2.0481959688271827
-2.350325785482006
-2.4995593328100028
-2.567295316854063
2.804226750948273
-2.0471711589336548
3.208143292825434
-2.444632635161754
-2.583729736343179
-2.5108804121437105
-2.2622034952843664
-2.8816383554932403
-2.7443944588182703
-2.5661726885132703
2.3247307154928634
2.5252563409919517
-2.920985482319376
-3.344040127183407
-2.652802137451596
3.3106898385226375
-2.843172808702073
3.8242965260730903
-2.846822740808252
-3.552147090442589
-3.302865204430019
-2.8787026079854
-3.299452917245238
-3.336737368157131
-2.897458126986571
3.340194650271049
3.643230818566266
-2.4583505082989463
-2.359466270075709
-2.234592801610351
2.3906021626278213
-2.390577917733084
2.9973227837530407
-2.580134616521576
-2.903945977558321
-2.848787357830305
-1.9593179183862517
-2.4913954435264327
-2.9464633421131987
-2.919839603496097
2.397174148844733
3.08668823859259
5.533511688904243E-4
0.0013288802315173647
5.957062794953848E-4
-0.0015679309958883663
2.3246087294165546E-4
-0.002594147789671028
7.887940390433877E-4
0.001995233819654859
0.0016123981995496632
1.800312088077109E-4
0.0017204173035161063
0.0018594687746746835
0.0014164772137349809
-9.56462353414924E-4
-0.0020552069722373613
0.1422166621823815
0.14788137433241721
0.14250409231331357
-0.14940512291738162
0.13983755542996965
-0.15573279858100264
0.14391002268566863
0.15213200759889853
0.14963806372738567
0.1395367002454852
0.15036076072483148
0.15118498976080638
0.1481799310938808
-0.14529270726431964
-0.15248242077214214
-3.204881660478263
-0.08409364938552111
0.13258647117048683
-0.083690185824837
-0.09165182918477166
-7.839498831505587E-4
0.012302759285657605
0.1597044672977681
-0.17929874888840347
-0.06562844945577662
0.15742320141734323
0.45681950920789005
0.07528943216042794
-0.39286276103863504
0.09626032954807695
-0.18967778609010733
-1.457027626065107
-2.125693017829197
-2.0032507740690204
2.198149600933227
-1.530988396243838
2.1468993526080946
-1.7018646775636934
-2.235864330675147
-2.043379731460223
-1.6972221056700847
-2.277236546398704
-2.0396978223983115
-2.175014241554829
1.6213504252739401
2.0481959688271827
-2.350325785482006
-2.4995593328100028
-2.567295316854063
2.804226750948273
-2.0471711589336548
3.208143292825434
-2.444632635161754
-2.583729736343179
-2.5108804121437105
-2.2622034952843664
-2.8816383554932403
-2.7443944588182703
-2.5661726885132703
2.3247307154928634
2.5252563409919517
-2.920985482319376
-3.344040127183407
-2.652802137451596
3.3106898385226375
-2.843172808702073
3.8242965260730903
-2.846822740808252
-3.552147090442589
-3.302865204430019
-2.8787026079854
-3.299452917245238
-3.336737368157131
-2.897458126986571
3.340194650271049
3.643230818566266
-2.4583505082989463
-2.359466270075709
-2.234592801610351
2.3906021626278213
-2.390577917733084
2.9973227837530407
-2.580134616521576
-2.903945977558321
-2.848787357830305
-1.9593179183862517
-2.4913954435264327
-2.9464633421131987
-2.919839603496097
2.397174148844733
3.08668823859259
5.533511688904243E-4
0.0013288802315173647
5.957062794953848E-4
-0.0015679309958883663
2.3246087294165546E-4
-0.002594147789671028
7.887940390433877E-4
0.001995233819654859
0.0016123981995496632
1.800312088077109E-4
0.0017204173035161063
0.0018594687746746835
0.0014164772137349809
-9.56462353414924E-4
-0.0020552069722373613
0.1422166621823815
0.14788137433241721
0.14250409231331357
-0.14940512291738162
0.13983755542996965
-0.15573279858100264
0.14391002268566863
0.15213200759889853
0.14963806372738567
0.1395367002454852
0.15036076072483148
0.15118498976080638
0.1481799310938808
-0.14529270726431964
-0.15248242077214214
-3.204881660478263
