0.39837276755646556
-0.4784945715625757
-0.4259559260032669
0.4928746888670924
-0.33010861286269144
-0.3396832517013882
-0.2819662382284601
0.3826788241579983
-0.31887649813011115
-0.07896715638368165
-0.09343699235435975
0.45593708067419114
-0.29498278338288886
0.3210821993826172
0.31201183796770193
0.9453472642829522
2.2371340508323123
5.216479650549033
0.5410434873348328
10.86415839807445
5.438951556121478
-4.271840686975062
-0.0016150686815325857
-0.34376714567533684
4.484212697907942
5.3020799318407095
-0.9135523887855413
-0.3485572574743128
6.156222762918543
-2.3332611113765567
1.190595379777702
-0.9887850894801752
-3.733940336732491
-1.0921562553003075
-5.36122816631999
-0.3963560492668063
0.22795197697252767
0.8369813413277045
0.23594410834291774
-0.5050056426328903
-0.32528255320022736
-0.006152177278497054
-1.9844793074601694
-6.367074543462824
0.9280299524823005
-16.43001088588293
-5.819314997372874
-14.287891942873255
-4.635461003092453
6.299865470145325
-8.885384165284778
9.831046765229477
4.236146841410954
-2.226004150335151
-7.960927235542194
-8.355411166566089
-3.505673530336006
-17.554705726019332
26.972262777398793
5.594311080227724
-13.384539174138398
-9.34895452816176
-7.301001184594681
-8.556323438447967
29.902884631701117
-12.14204402604208
10.93838484880815
8.552944951140647
-5.575978996645372
-10.835213803371195
-11.395577994301712
-9.221268972516418
-16.069858548959125
-31.56774409528611
8.755223158745968
12.781769010195978
4.978739631677416
-6.0585357656381005
4.253603743779699
-6.417730507400056
6.493203540708247
-6.38100400354305
-3.7946437984965606
1.8167654660417343
5.927540042003558
6.132990500952684
2.8268449122945003
5.937013617811851
-0.14225306529958923
-4.731310919541348
-7.142326863333219
-2.5404711621129064
-9.215847902377236
-1.8832408399344098
10.975370905504217
-4.17954768129678
4.17768603001816
1.6788002043631542
-0.825160059697872
-3.850134369198869
-4.017331956155966
-1.4574161677798516
-1.9668464633714136
-17.55900195884775
2.489444867130147
4.114391587866855
0.3983721678969758
-0.4789766460001592
-0.4259560231601863
0.49281355977735825
-0.3301086128618509
-0.34011099627911134
-0.28189140061313284
0.3827323133604788
-0.31892279771158105
-0.0794056952151151
-0.09393781048097506
0.45593584105606844
-0.29498280477817285
0.31997746693938306
0.3126311875370352
0.9453479325120093
2.237626677727195
5.216479749763339
0.5411140834032716
10.864158398075284
5.439391499292834
-4.271923045539588
-0.0016699124852203257
-0.3437194884484212
4.484672296990158
5.302604134294643
-0.9135509714838291
-0.34855727866331154
6.157360199833108
-2.333899472432094
1.1905947125560057
-0.9892708122271674
-3.733940434786047
-1.09222588073749
-5.361228166319159
-0.3967898080980832
0.22803318367903844
0.8370354416832472
0.23589711326578255
-0.5054587826086385
-0.3257993864112678
-0.00615357748174627
-1.9844793286372087
-6.368195997403574
0.9286593578225179
-16.430010395579146
-5.818954298804503
-14.287891870221827
-4.6354093085181285
6.299865470145655
-8.885062094812122
9.830986475774116
4.236106678168215
-2.2259692492134895
-7.960590760863348
-8.355027402512764
-3.5056724920423146
-17.55470573444157
26.973094752161536
5.593843670610448
-13.384538595103717
-9.348533277733484
-7.301001099548699
-8.556263054055718
29.902884631700363
-12.141667843288449
10.938314421120257
8.552898030888764
-5.5759382391838646
-10.834820811844308
-11.395129764136763
-9.221267758076173
-16.069858529024724
-31.566771508188154
8.754677297631918
12.781769686918564
4.979232281521886
-6.058535666186998
4.2536743621800355
-6.417730507400898
6.4936434849675315
-6.381086368214301
-3.794698670384941
1.8168131313983615
5.92799964398718
6.133514704389732
2.826846332463186
5.937013639210281
-0.14111562838207203
-4.731949301202061
-7.142327005451632
-2.540670425580543
-9.215847913168854
-1.883278540828425
10.967866602699376
-4.179654474883551
4.170201512827784
1.671328804720931
-0.8252182776558327
-3.8502557077359
-4.0174647986248
-1.4574171423772968
-1.9668464946891668
-17.566440861864027
2.482206872046753
4.10688728506197
0.3983727679707909
-0.47849457154410646
-0.42595592600326015
0.49287468889417463
-0.3301086128626951
-0.3396832517010935
-0.2819662382295639
0.3826788241147647
-0.31887649811318486
-0.07896715638267005
-0.09343699235405412
0.4559370806787395
-0.29498278337699424
0.3210821993826172
0.31201183795080056
0.9453472646972776
2.237134050850782
5.216479650549033
0.5410434873619147
10.86415839807445
5.438951556121771
-4.271840686976165
-0.001615068724766351
-0.34376714565841054
4.484212697908951
5.302079931841014
-0.9135523887809934
-0.3485572574684182
6.156222762918543
-2.3332611113934583
1.1905953801930647
-0.9887850894616603
-3.733940336732487
-1.0921562552731596
-5.36122816631999
-0.39635604926651075
0.22795197697142094
0.8369813412843639
0.23594410835988608
-0.505005642631876
-0.3252825531999209
-0.006152177273937535
-1.9844793074542613
-6.367074543462824
0.9280299524653571
-16.43001088586808
-5.819314997372295
-14.287891942873255
-4.635461003091673
6.299865470145325
-8.885384165284778
9.83104676522943
4.236146841409777
-2.2260041503347807
-7.960927235542159
-8.355411166566089
-3.505673530335885
-17.5547057260191
26.972262777398793
5.5943110802272
-13.384539174491554
-9.348954528177483
-7.301001184594681
-8.556323438471027
29.902884631701117
-12.142044026042326
10.938384848809084
8.552944951177482
-5.5759789966598134
-10.835213803372051
-11.395577994301973
-9.221268972520283
-16.069858548964138
-31.56774409528611
8.755223158760357
12.78176900978165
4.9787396316589465
-6.0585357656381005
4.2536037437526195
-6.417730507400056
6.493203540707954
-6.381004003541947
-3.7946437984533268
1.8167654660248072
5.9275400420025495
6.1329905009523795
2.826844912289952
5.937013617805954
-0.1422530652995824
-4.731310919524445
-7.142326863239532
-2.540471162105403
-9.215847902377236
-1.8832408399191571
10.97537090579415
-4.1795476812966585
4.177686030307856
1.6788002046242607
-0.8251600596755865
-3.8501343691986154
-4.017331956155845
-1.4574161677766897
-1.9668464633683886
-17.55900195884775
2.4894448674131073
4.11439158815679
0.3983727679707909
-0.47849457154410646
-0.42595592600326015
0.49287468889417463
-0.3301086128626951
-0.3396832517010935
-0.2819662382295639
0.3826788241147647
-0.31887649811318486
-0.07896715638267005
-0.09343699235405412
0.4559370806787395
-0.29498278337699424
0.3210821993826172
0.31201183795080056
0.9453472646972776
2.237134050850782
5.216479650549033
0.5410434873619147
10.86415839807445
5.438951556121771
-4.271840686976165
-0.001615068724766351
-0.34376714565841054
4.484212697908951
5.302079931841014
-0.9135523887809934
-0.3485572574684182
6.156222762918543
-2.3332611113934583
1.1905953801930647
-0.9887850894616603
-3.733940336732487
-1.0921562552731596
-5.36122816631999
-0.39635604926651075
0.22795197697142094
0.8369813412843639
0.23594410835988608
-0.505005642631876
-0.3252825531999209
-0.006152177273937535
-1.9844793074542613
-6.367074543462824
0.9280299524653571
-16.43001088586808
-5.819314997372295
-14.287891942873255
-4.635461003091673
6.299865470145325
-8.885384165284778
9.83104676522943
4.236146841409777
-2.2260041503347807
-7.960927235542159
-8.355411166566089
-3.505673530335885
-17.5547057260191
26.972262777398793
5.5943110802272
-13.384539174491554
-9.348954528177483
-7.301001184594681
-8.556323438471027
29.902884631701117
-12.142044026042326
10.938384848809084
8.552944951177482
-5.5759789966598134
-10.835213803372051
-11.395577994301973
-9.221268972520283
-16.069858548964138
-31.56774409528611
8.755223158760357
12.78176900978165
4.9787396316589465
-6.0585357656381005
4.2536037437526195
-6.417730507400056
6.493203540707954
-6.381004003541947
-3.7946437984533268
1.8167654660248072
5.9275400420025495
6.1329905009523795
2.826844912289952
5.937013617805954
-0.1422530652995824
-4.731310919524445
-7.142326863239532
-2.540471162105403
-9.215847902377236
-1.8832408399191571
10.97537090579415
-4.1795476812966585
4.177686030307856
1.6788002046242607
-0.8251600596755865
-3.8501343691986154
-4.017331956155845
-1.4574161677766897
-1.9668464633683886
-17.55900195884775
2.4894448674131073
4.11439158815679
0.39837274866092487
-0.47849470339744243
-0.4259559281526413
0.49287456912409533
-0.33010861284762194
-0.3396832598812165
-0.2819661921234938
0.38267896593935
-0.31887653863380094
-0.078967176803423
-0.09343699950396513
0.45593706449527366
-0.294982911748799
0.3210821993826172
0.31201195604929366
0.9453472453874115
2.237133918997447
5.216479648399652
0.5410433675918355
10.864158398089524
5.438951547941651
-4.27184064087009
-0.0016149269001810016
-0.34376718617902663
4.484212677488198
5.302079924691105
-0.9135524049644592
-0.34855738584022294
6.156222762918543
-2.3332609932949655
1.190595361094178
-0.9887852198615354
-3.7339403388584373
-1.0921563737235445
-5.361228166305085
-0.3963560573562579
0.2279520225695438
0.8369814815479321
0.23594406828550082
-0.5050056628272123
-0.32528256027087166
-0.006152193278310422
-1.984479434423383
-6.367074543462824
0.9280300692624005
-16.43001089431677
-5.819315055626997
-14.28789194382797
-4.635461055983814
6.299865470151973
-8.885384168904016
9.831046785641032
4.236146904023313
-2.226004168220282
-7.960927244574971
-8.355411169729127
-3.5056735374793115
-17.55470578246293
26.972262777398793
5.594311132407193
-13.384539156437057
-9.348954407729831
-7.30100118263003
-8.556323328909176
29.902884631687645
-12.14204401861211
10.938384806848811
8.552944821210525
-5.575978959536013
-10.835213784794666
-11.39557798780257
-9.221268957773189
-16.069858429476803
-31.56774409528611
8.75522305085436
12.781769029091508
4.978739763512282
-6.058535763488719
4.253603863522699
-6.417730507415129
6.493203548888075
-6.381004049648022
-3.794643940277912
1.8167655065454225
5.927540062423303
6.132990508102289
2.8268449284734185
5.937013746177757
-0.14225306529958903
-4.7313110376229375
-7.14232729386411
-2.540471223237025
-9.21584790261061
-1.8832409185501469
10.975370472445118
-4.179547683264155
4.17768560832986
1.6787998892296412
-0.8251601164019914
-3.850134374577565
-4.0173319579440046
-1.4574161792083167
-1.9668468106966255
-17.55900195884775
2.489444488882813
4.114391154806399
0.3983727361047869
-0.47903202767193037
-0.4274467567973733
0.4924608956431856
-0.33010851680541436
-0.3401213584507452
-0.28107714157839686
0.3830222836482859
-0.31901360696756115
-0.0795800186401113
-0.09377190291416833
0.4558398468126819
-0.294983013779668
0.3210821993826172
0.3125580858454356
0.9453472328312736
2.236596594722958
5.21498881975492
0.5406296941109258
10.86415849413173
5.4385134493721194
-4.270951590324998
-0.0012716091912452088
-0.34390425451278683
4.48359983565151
5.3017450212809
-0.913649622647051
-0.348557487871092
6.156222762918543
-2.3327148634988237
1.1905953483182021
-0.989322641947592
-3.7354314099529127
-1.0925701218627242
-5.36122807024956
-0.3967942250291609
0.22884123302949322
0.8373248626575254
0.2358069761279726
-0.5056186047556219
-0.3256175164647581
-0.006249426933674403
-1.984479537926198
-6.367074543462824
0.9285762972051218
-16.430010914620883
-5.819803878589002
-14.289249089223155
-4.635837431819343
6.299865557683163
-8.885783071070067
9.831855524255946
4.236459246138362
-2.226128915917347
-7.961485125392357
-8.35571611187734
-3.5057620428009106
-17.554705933505033
26.972262777398793
5.594808004225269
-13.384539143627029
-9.348434935772746
-7.299561364957236
-8.555923451570637
29.902884539091012
-12.141621055003132
10.937525277770378
8.552612894619575
-5.575846519333668
-10.834621909839564
-11.395254657722392
-9.221175071099449
-16.069858325723864
-31.56774409528611
8.75469513172142
12.781769041647653
4.97927708778677
-6.057044934843987
4.254017537003608
-6.417730603457335
6.493641647457606
-6.381893100193114
-3.7949872579868478
1.8169025748791836
5.928152904259991
6.1333254115124936
2.826942146156009
5.937013848208629
-0.14225306529958598
-4.731857167419079
-7.143223163273082
-2.5410218115937333
-9.216060945413556
-1.8837466250336992
10.97447461005139
-4.1796693019907805
4.177331624060937
1.6784822933649546
-0.8253806113552529
-3.850342420909112
-4.017425184286519
-1.4574888253606617
-1.967742650649088
-17.55900195884775
2.4890557208975634
4.113495283661701
-0.2478784702100627
-0.4876887717371261
0.25280723198023014
0.15108796169142102
0.23904116319523117
-0.011312264655930604
0.2985809268340982
-0.38079496728392304
-0.10515607206713518
0.29126871823493994
-0.24413301394208842
0.35867761924721087
0.4881266996449416
0.45366539135524264
0.21609864576661508
9.330087470633435
-9.145131645164918
9.181523288390315
9.095847230118073
9.308747486979481
9.296119886413997
-9.149318717257687
9.216755531564033
9.257230720711377
9.219572483273014
-9.28373046286513
9.148071947259384
9.191914081565876
-14.928554644047232
9.275202120730668
0.9876225544279122
-0.9880506697494368
0.987963566123349
0.9881709424854958
0.9876701285886771
0.9876984990918012
-0.9880405747077624
0.9878805964027769
0.9877869057027344
0.9878740198108485
-0.9877264938948632
0.9880435786730862
0.9879389583165739
-49.19112088050016
0.9877458564701299
-0.5687160884242498
0.568652503915724
-0.5686655606278286
-0.5686343729373283
-0.5687090951043992
-0.568704916147699
0.5686540203240177
-0.5686779402917918
-0.5686918527949877
-0.5686789191825825
0.5687007862576594
-0.568653569176047
-0.5686692381067365
12.833631670769332
-0.5686979261702096
0.8119189845041885
-0.8112771636317191
0.8114081969301175
0.8110958502744673
0.8118479344194837
0.8118055321204992
-0.8112923618712004
0.811532796561118
0.8116732459748512
0.8115426640171857
-0.811763667771743
0.8112878396817697
0.8114451734702249
-15.760672083309387
0.8117346986197338
0.07010528450227639
-0.07004055215924523
0.07005376345215249
0.07002227514995893
0.07009811593367954
0.07009383808461635
-0.0700420843901256
0.07006632816379164
0.0700804936123231
0.07006732329158828
-0.07008961473766182
0.07004162847637173
0.0700574919795699
-0.49445242701671777
0.07008669241391079
-0.07504467862658343
0.07497458620237822
-0.07498889135586052
-0.0749547959765855
-0.07503691642298557
-0.07503228432770666
0.07497624529574175
-0.07500249643312203
-0.07501783483603394
-0.0750035739597651
0.07502771125219333
-0.07497575163412123
-0.07499292860348541
0.3932939420530049
-0.07502454693807091
-1.2455547758256058
-0.027694483067882716
0.3856645325934655
0.49469020443652567
-0.4396884550860251
0.4623935493641486
-0.18226249818363527
0.21804042153020622
-0.4893071067422008
0.3351985411317685
-0.032356186435205235
0.005357275547766022
-0.058020452359657755
-0.28052582436071166
-0.3176779358687153
-0.06391262695995281
-4.393292473129277
-0.02518423815287162
-4.354149972422693
3.844055707438125
-11.956227271980644
-5.455813937783584
3.5544200656688005
-2.1896608242830795
3.7616741933698616
-4.7661340214840715
-3.8787554408243694
-4.112616018396768
7.8520891640566335
-2.195678840622842
-5.891771676683146
0.43221942101572675
-0.7193128765859165
-2.942185822646241
0.6249179948442924
-9.754370103979765
11.50705900887281
0.7310808321439203
-0.46572432178452583
2.316513331373459
0.25180761615443753
-0.9660234291241641
-0.5114386228800479
10.814554419475966
0.9013711667433709
13.420143156883825
0.0014004793137699881
0.5312793810749189
2.7147172516374756
-0.7760418151274333
17.241943150241983
-3.8457170233299385
-0.7226583476873887
0.4828864209331542
-2.1087912853118116
0.18836539336742134
-13.658024632864887
0.7461342600467944
-9.309983942908431
-0.5364948501061566
-4.998533297592536
-6.443836136586318
0.9440033963585903
-4.8807402281179835
5.790907554625124
-21.557612961212612
-9.477084417889909
3.5661333013837537
-3.305018796862765
4.242550690198327
-6.871805360570517
32.31268767204604
-6.55566024305106
13.897814715836796
-4.3215129653733335
-10.420343631918675
-0.014027547613041091
3.735916772295676E-5
-0.022028775402443218
0.015819531466276078
5.482032240932517
-0.14715559133344472
0.01177572327982635
-0.009765673737238554
0.018031621057679043
-0.01571678510816226
-9.578904724582848
-0.016878182056980173
0.03621198508506117
-0.007236722299201393
-0.1641645515820214
0.07588845528887049
-0.02830451253672101
0.1363950375601128
-0.13747321692035766
17.15300843710073
0.5246007121805372
-0.08940977277542389
0.03780319776945999
-0.14207443234468092
0.08543004709192066
11.11157716543633
0.09760718915160982
-0.610669154178328
0.035870621393049223
0.5769926093567004
-9.092001572454572
0.1986758335743829
0.39513537160350676
-0.2923763629014883
-0.22110850198327903
0.15730315282150842
-0.4865810494881523
-0.02698910641995489
0.2542046160488336
0.2315450886323973
0.06679385784592429
0.10156029295324054
0.03251906397513382
0.4676913868077369
0.06816439624114268
-0.08701053975840545
-3.31031303837309
-2.9988794084534165
3.115779076931167
3.1955119522738658
-3.21217648745019
-2.9621303380586745
2.92932682567504
-3.3412960905738034
3.251185001871242
-2.830120708703831
3.2434224409508943
3.2862443457277246
2.92670280557489
-3.3391530240903107
-3.2449844391130256
-3.9629412267817514
-4.1612861093235125
4.097702067623985
4.071174243938272
-4.0550955551563
-4.240444379942373
4.180448841516898
-4.093302768224591
3.989102998510649
-4.09359937319249
4.290389565449332
3.979486574143964
3.900040058190852
-4.101213990311177
-4.195619446950477
-5.40743147675015
-5.2744104514885395
5.193531384170563
5.0038744436707265
-4.82507535266087
-5.222063684971308
5.019211756871635
-5.325539008767957
5.456744967198946
-5.309952220090219
5.310135294453269
5.34017264199462
4.978498241069716
-5.398905801838921
-5.525199892363958
-3.6568245299684126
-3.924771004855876
3.6202611437292047
3.670597877969996
-3.4575929655591864
-3.7327432458905734
3.386910883050769
-3.6618824981764515
3.713943523322069
-3.8600819975692566
3.958745859678668
3.5821527304813934
3.6022309301568227
-3.8140009337283676
-3.7125230920749153
-0.005205197189349359
-0.0051997218595791666
0.005242652844018628
0.005261463105079022
-0.005316200083117936
-0.005223366968055975
0.005306435807360205
-0.005198418258093535
0.005193622108505177
-0.005225776481481867
0.0051545302857267565
0.0052239062464863725
0.005321104346759787
-0.005170038071538566
-0.005160949781723208
0.12364209181513074
0.12358791348549028
-0.1232137180968637
-0.12296597064474078
0.12240361478643931
0.12337800639579156
-0.1225568448421723
0.12369360212761416
-0.12375287179812094
0.12333088335888989
-0.12405747863808436
-0.12345561028677053
-0.12233637577581485
0.12395862026381307
0.12409357382845927
-2.3849737889501044
-0.08409364938552111
0.13258647117048683
-0.083690185824837
-0.09165182918477166
-7.839498831505587E-4
0.012302759285657605
0.1597044672977681
-0.17929874888840347
-0.06562844945577662
0.15742320141734323
0.45681950920789005
0.07528943216042794
-0.39286276103863504
0.09626032954807695
-0.18967778609010733
-1.457027626065107
-2.125693017829197
-2.0032507740690204
2.198149600933227
-1.530988396243838
2.1468993526080946
-1.7018646775636934
-2.235864330675147
-2.043379731460223
-1.6972221056700847
-2.277236546398704
-2.0396978223983115
-2.175014241554829
1.6213504252739401
2.0481959688271827
-2.350325785482006
-2.4995593328100028
-2.567295316854063
2.804226750948273
-2.0471711589336548
3.208143292825434
-2.444632635161754
-2.583729736343179
-2.5108804121437105
-2.2622034952843664
-2.8816383554932403
-2.7443944588182703
-2.5661726885132703
2.3247307154928634
2.5252563409919517
-2.920985482319376
-3.344040127183407
-2.652802137451596
3.3106898385226375
-2.843172808702073
3.8242965260730903
-2.846822740808252
-3.552147090442589
-3.302865204430019
-2.8787026079854
-3.299452917245238
-3.336737368157131
-2.897458126986571
3.340194650271049
3.643230818566266
-2.4583505082989463
-2.359466270075709
-2.234592801610351
2.3906021626278213
-2.390577917733084
2.9973227837530407
-2.580134616521576
-2.903945977558321
-2.848787357830305
-1.9593179183862517
-2.4913954435264327
-2.9464633421131987
-2.919839603496097
2.397174148844733
3.08668823859259
5.533511688904243E-4
0.0013288802315173647
5.957062794953848E-4
-0.0015679309958883663
2.3246087294165546E-4
-0.002594147789671028
7.887940390433877E-4
0.001995233819654859
0.0016123981995496632
1.800312088077109E-4
0.0017204173035161063
0.0018594687746746835
0.0014164772137349809
-9.56462353414924E-4
-0.0020552069722373613
0.1422166621823815
0.14788137433241721
0.14250409231331357
-0.14940512291738162
0.13983755542996965
-0.15573279858100264
0.14391002268566863
0.15213200759889853
0.14963806372738567
0.1395367002454852
0.15036076072483148
0.15118498976080638
0.1481799310938808
-0.14529270726431964
-0.15248242077214214
-3.204881660478263
0.39837276377787556
-0.4784945722926708
-0.4259559260069526
0.4928746880322021
-0.3301086128626778
-0.33968325172236363
-0.2819662381122794
0.38267882533514164
-0.31887649851023014
-0.07896715644792224
-0.0934369923747419
0.4559370805765758
-0.2949827852535176
0.3210821993826172
0.3120118386401008
0.9453472605043621
2.2371340501022177
5.216479650545341
0.5410434864999422
10.864158398074473
5.4389515561005
-4.27184068685888
-0.0016150675043894677
-0.34376714605545583
4.4842126978437
5.302079931820327
-0.9135523888831572
-0.3485572593449416
6.156222762918543
-2.333261110704158
1.190595375974933
-0.9887850902146844
-3.733940336736202
-1.0921562561402682
-5.361228166319975
-0.3963560492879076
0.2279519770894053
0.8369813425120131
0.23594410796047327
-0.505005642697517
-0.32528255322073196
-0.006152177376709148
-1.9844793093419872
-6.367074543462824
0.9280299531587652
-16.430010887083785
-5.81931499760332
-14.287891942874412
-4.635461003356818
6.299865470145326
-8.885384165291393
9.831046765265958
4.236146841784402
-2.2260041504561667
-7.960927235562416
-8.355411166572518
-3.5056735303672952
-17.554705726605402
26.972262777398793
5.594311080439812
-13.384539170419783
-9.348954527456852
-7.301001184591129
-8.556323437640804
29.902884631701117
-12.14204402602188
10.93838484869631
8.552944950001649
-5.575978996276994
-10.835213803309289
-11.395577994282085
-9.22126897242192
-16.06985854715984
-31.56774409528611
8.755223158096678
12.781769013974564
4.9787396324075095
-6.058535765634408
4.253603744614595
-6.417730507400071
6.493203540729225
-6.381004003659232
-3.7946437996737044
1.8167654664218524
5.9275400420678
6.132990500973067
2.8268449123921147
5.937013619682477
-0.14225306529958817
-4.731310920213745
-7.142326869193077
-2.5404711624152823
-9.215847902377627
-1.8832408404153405
10.97537089914739
-4.179547681301756
4.177686023689302
1.6788001988128447
-0.8251600601984534
-3.850134369215613
-4.0173319561609935
-1.4574161678475728
-1.9668464645866761
-17.55900195884775
2.4894448610565214
4.114391581510027
-0.2478784702100627
-0.4876887717371261
0.25280723198023014
0.15108796169142102
0.23904116319523117
-0.011312264655930604
0.2985809268340982
-0.38079496728392304
-0.10515607206713518
0.29126871823493994
-0.24413301394208842
0.35867761924721087
0.4881266996449416
0.45366539135524264
0.21609864576661508
9.330087470633435
-9.145131645164918
9.181523288390315
9.095847230118073
9.308747486979481
9.296119886413997
-9.149318717257687
9.216755531564033
9.257230720711377
9.219572483273014
-9.28373046286513
9.148071947259384
9.191914081565876
-14.928554644047232
9.275202120730668
0.9876225544279122
-0.9880506697494368
0.987963566123349
0.9881709424854958
0.9876701285886771
0.9876984990918012
-0.9880405747077624
0.9878805964027769
0.9877869057027344
0.9878740198108485
-0.9877264938948632
0.9880435786730862
0.9879389583165739
-49.19112088050016
0.9877458564701299
-0.5687160884242498
0.568652503915724
-0.5686655606278286
-0.5686343729373283
-0.5687090951043992
-0.568704916147699
0.5686540203240177
-0.5686779402917918
-0.5686918527949877
-0.5686789191825825
0.5687007862576594
-0.568653569176047
-0.5686692381067365
12.833631670769332
-0.5686979261702096
0.8119189845041885
-0.8112771636317191
0.8114081969301175
0.8110958502744673
0.8118479344194837
0.8118055321204992
-0.8112923618712004
0.811532796561118
0.8116732459748512
0.8115426640171857
-0.811763667771743
0.8112878396817697
0.8114451734702249
-15.760672083309387
0.8117346986197338
0.07010528450227639
-0.07004055215924523
0.07005376345215249
0.07002227514995893
0.07009811593367954
0.07009383808461635
-0.0700420843901256
0.07006632816379164
0.0700804936123231
0.07006732329158828
-0.07008961473766182
0.07004162847637173
0.0700574919795699
-0.49445242701671777
0.07008669241391079
-0.07504467862658343
0.07497458620237822
-0.07498889135586052
-0.0749547959765855
-0.07503691642298557
-0.07503228432770666
0.07497624529574175
-0.07500249643312203
-0.07501783483603394
-0.0750035739597651
0.07502771125219333
-0.07497575163412123
-0.07499292860348541
0.3932939420530049
-0.07502454693807091
-1.2455547758256058
-0.028539641172086537
0.3857729180508639
0.49312881961306243
-0.4385980655806965
0.45328050981953844
-0.18224904390486452
0.21870969629221995
-0.48991614681275303
0.3362269694740771
-0.033317035294817506
0.0053664128827146254
-0.05904598092202368
-0.27462341630272497
-0.3180603769943758
-0.06389926295626892
-4.394137631272296
-0.02507585324216954
-4.355711357300553
3.845146096997881
-11.965340311523999
-5.455800510044557
3.5550893408564073
-2.1902698665234053
3.7627026220095225
-4.76709487036511
-3.878746303542171
-4.113641547005956
7.85799157211456
-2.1960612827880848
-5.891758335066799
0.43137816535309714
-0.7192050758293609
-2.943740726437286
0.6260032012653964
-9.763433085654468
11.507072641143859
0.7317473108511146
-0.4663308292285943
2.3175375492360293
0.2508512106055395
-0.966014483912112
-0.51245938383111
10.820428329994963
0.9009904611558681
13.420156674205387
6.176696347851854E-4
0.5313796616405702
2.713272539044579
-0.7750318132908031
17.233505651049924
-3.84571573898014
-0.7220391211489151
0.48232274003604303
-2.1078399470819056
0.18747541480620888
-13.658019727790924
0.7451843583328874
-9.304514082334157
-0.5368491611821039
-4.998531469528461
-6.443228327674016
0.9439287969712052
-4.879584018966547
5.790128186842347
-21.55132105718495
-9.477074655991144
3.565637729542093
-3.3045683152235426
4.2417854848644305
-6.871114709578618
32.31268915107246
-6.55492399989947
13.893628414823647
-4.321236242346943
-10.42033485008414
-0.013182389470025363
-7.102574297914456E-5
-0.02046739052458468
0.014729141906522964
5.491145280475869
-0.1471690190724695
0.011106448092224679
-0.00915663149692216
0.01700319241801819
-0.014755936227124705
-9.578913861865031
-0.015852653447781757
0.030309577027135763
-0.006854280133963895
-0.16417789319837756
0.09102324469129584
7.90351230292059E-4
0.16660537794096753
-0.10480049149485343
17.15338745418957
0.5245602434473732
-0.07870769336632842
0.06363437397689181
-0.13225425672046473
0.10131493065568943
11.157507192176704
0.11193317723602403
-0.5840258400186684
0.04778080109385157
0.5769733396774749
-9.04623388801062
0.1986758335743829
0.39513537160350676
-0.2923763629014883
-0.22110850198327903
0.15730315282150842
-0.4865810494881523
-0.02698910641995489
0.2542046160488336
0.2315450886323973
0.06679385784592429
0.10156029295324054
0.03251906397513382
0.4676913868077369
0.06816439624114268
-0.08701053975840545
-3.31031303837309
-2.9988794084534165
3.115779076931167
3.1955119522738658
-3.21217648745019
-2.9621303380586745
2.92932682567504
-3.3412960905738034
3.251185001871242
-2.830120708703831
3.2434224409508943
3.2862443457277246
2.92670280557489
-3.3391530240903107
-3.2449844391130256
-3.9629412267817514
-4.1612861093235125
4.097702067623985
4.071174243938272
-4.0550955551563
-4.240444379942373
4.180448841516898
-4.093302768224591
3.989102998510649
-4.09359937319249
4.290389565449332
3.979486574143964
3.900040058190852
-4.101213990311177
-4.195619446950477
-5.40743147675015
-5.2744104514885395
5.193531384170563
5.0038744436707265
-4.82507535266087
-5.222063684971308
5.019211756871635
-5.325539008767957
5.456744967198946
-5.309952220090219
5.310135294453269
5.34017264199462
4.978498241069716
-5.398905801838921
-5.525199892363958
-3.6568245299684126
-3.924771004855876
3.6202611437292047
3.670597877969996
-3.4575929655591864
-3.7327432458905734
3.386910883050769
-3.6618824981764515
3.713943523322069
-3.8600819975692566
3.958745859678668
3.5821527304813934
3.6022309301568227
-3.8140009337283676
-3.7125230920749153
-0.005205197189349359
-0.0051997218595791666
0.005242652844018628
0.005261463105079022
-0.005316200083117936
-0.005223366968055975
0.005306435807360205
-0.005198418258093535
0.005193622108505177
-0.005225776481481867
0.0051545302857267565
0.0052239062464863725
0.005321104346759787
-0.005170038071538566
-0.005160949781723208
0.12364209181513074
0.12358791348549028
-0.1232137180968637
-0.12296597064474078
0.12240361478643931
0.12337800639579156
-0.1225568448421723
0.12369360212761416
-0.12375287179812094
0.12333088335888989
-0.12405747863808436
-0.12345561028677053
-0.12233637577581485
0.12395862026381307
0.12409357382845927
-2.3849737889501044
-0.08409364938552111
0.13258647117048683
-0.083690185824837
-0.09165182918477166
-7.839498831505587E-4
0.012302759285657605
0.1597044672977681
-0.17929874888840347
-0.06562844945577662
0.15742320141734323
0.45681950920789005
0.07528943216042794
-0.39286276103863504
0.09626032954807695
-0.18967778609010733
-1.457027626065107
-2.125693017829197
-2.0032507740690204
2.198149600933227
-1.530988396243838
2.1468993526080946
-1.7018646775636934
-2.235864330675147
-2.043379731460223
-1.6972221056700847
-2.277236546398704
-2.0396978223983115
-2.175014241554829
1.6213504252739401
2.0481959688271827
-2.350325785482006
-2.4995593328100028
-2.567295316854063
2.804226750948273
-2.0471711589336548
3.208143292825434
-2.444632635161754
-2.583729736343179
-2.5108804121437105
-2.2622034952843664
-2.8816383554932403
-2.7443944588182703
-2.5661726885132703
2.3247307154928634
2.5252563409919517
-2.920985482319376
-3.344040127183407
-2.652802137451596
3.3106898385226375
-2.843172808702073
3.8242965260730903
-2.846822740808252
-3.552147090442589
-3.302865204430019
-2.8787026079854
-3.299452917245238
-3.336737368157131
-2.897458126986571
3.340194650271049
3.643230818566266
-2.4583505082989463
-2.359466270075709
-2.234592801610351
2.3906021626278213
-2.390577917733084
2.9973227837530407
-2.580134616521576
-2.903945977558321
-2.848787357830305
-1.9593179183862517
-2.4913954435264327
-2.9464633421131987
-2.919839603496097
2.397174148844733
3.08668823859259
5.533511688904243E-4
0.0013288802315173647
5.957062794953848E-4
-0.0015679309958883663
2.3246087294165546E-4
-0.002594147789671028
7.887940390433877E-4
0.001995233819654859
0.0016123981995496632
1.800312088077109E-4
0.0017204173035161063
0.0018594687746746835
0.0014164772137349809
-9.56462353414924E-4
-0.0020552069722373613
0.1422166621823815
0.14788137433241721
0.14250409231331357
-0.14940512291738162
0.13983755542996965
-0.15573279858100264
0.14391002268566863
0.15213200759889853
0.14963806372738567
0.1395367002454852
0.15036076072483148
0.15118498976080638
0.1481799310938808
-0.14529270726431964
-0.15248242077214214
-3.204881660478263
0.39837263474322226
-0.4795118836899724
-0.42816450368470443
0.49197997007356464
-0.3301083878742489
-0.3407102451750975
-0.28004961161961034
0.3832926229433454
-0.31920087575450284
-0.08026333584692681
-0.09416809547885523
0.4557385646577075
-0.2949834651135515
0.3210821993826172
0.31308318830097753
0.9453471099610129
2.235554968811009
5.213879308342698
0.5399279498747177
10.86416138539806
5.437593915986537
-4.269217937891237
-6.386388590185568E-4
-0.344209425577662
4.48226613876475
5.300986045730429
-0.9140203597261074
-0.3485584525136858
6.156222762918543
-2.33163805805148
1.1905952252651926
-0.9903653914314641
-3.736542072299895
-1.0932726831112163
-5.361225176039042
-0.39771470632745026
0.23057684475397094
0.8379585079547892
0.23550147151062858
-0.5069536536766026
-0.3263772392304971
-0.006620511339627298
-1.9844805038181785
-6.367074543462824
0.9296542641690205
-16.43001100903074
-5.820598000464464
-14.290047800490402
-4.636370633642187
6.299867824312046
-8.886491986293583
9.833179361698086
4.236940678246628
-2.2263636802968203
-7.962511517971967
-8.35630215333075
-3.5060507234631015
-17.554706675680013
26.972262777398793
5.595630161608996
-13.384539037793434
-9.347557680894255
-7.298672700427456
-8.555332758561516
29.902882065759236
-12.140841845173505
10.93606219584701
8.552080878383972
-5.575587710424455
-10.83349345494687
-11.394611388056042
-9.220858986844894
-16.06985749751311
-31.56774409528611
8.753787331536778
12.781769164517915
4.9803187136987175
-6.055935423431766
4.254719281239819
-6.417733494723665
6.4945611808431885
-6.383626752626875
-3.7956202283190748
1.8172077459440583
5.929486601146751
6.134084387062964
2.827312883235066
5.937014812851223
-0.14225306529958856
-4.732933972866423
-7.145040183753676
-2.5421637441360923
-9.216178405317127
-1.8850141240296223
10.972657835882766
-4.179927961016468
4.176631467219569
1.6779336015931692
-0.8259035780086227
-3.85081123402323
-4.0176398965296185
-1.4578064406196467
-1.9695591980084597
-17.55900195884775
2.4883153316663256
4.1116782459805705
-0.2478784702100627
-0.4876887717371261
0.25280723198023014
0.15108796169142102
0.23904116319523117
-0.011312264655930604
0.2985809268340982
-0.38079496728392304
-0.10515607206713518
0.29126871823493994
-0.24413301394208842
0.35867761924721087
0.4881266996449416
0.45366539135524264
0.21609864576661508
9.330087470633435
-9.145131645164918
9.181523288390315
9.095847230118073
9.308747486979481
9.296119886413997
-9.149318717257687
9.216755531564033
9.257230720711377
9.219572483273014
-9.28373046286513
9.148071947259384
9.191914081565876
-14.928554644047232
9.275202120730668
0.9876225544279122
-0.9880506697494368
0.987963566123349
0.9881709424854958
0.9876701285886771
0.9876984990918012
-0.9880405747077624
0.9878805964027769
0.9877869057027344
0.9878740198108485
-0.9877264938948632
0.9880435786730862
0.9879389583165739
-49.19112088050016
0.9877458564701299
-0.5687160884242498
0.568652503915724
-0.5686655606278286
-0.5686343729373283
-0.5687090951043992
-0.568704916147699
0.5686540203240177
-0.5686779402917918
-0.5686918527949877
-0.5686789191825825
0.5687007862576594
-0.568653569176047
-0.5686692381067365
12.833631670769332
-0.5686979261702096
0.8119189845041885
-0.8112771636317191
0.8114081969301175
0.8110958502744673
0.8118479344194837
0.8118055321204992
-0.8112923618712004
0.811532796561118
0.8116732459748512
0.8115426640171857
-0.811763667771743
0.8112878396817697
0.8114451734702249
-15.760672083309387
0.8117346986197338
0.07010528450227639
-0.07004055215924523
0.07005376345215249
0.07002227514995893
0.07009811593367954
0.07009383808461635
-0.0700420843901256
0.07006632816379164
0.0700804936123231
0.07006732329158828
-0.07008961473766182
0.07004162847637173
0.0700574919795699
-0.49445242701671777
0.07008669241391079
-0.07504467862658343
0.07497458620237822
-0.07498889135586052
-0.0749547959765855
-0.07503691642298557
-0.07503228432770666
0.07497624529574175
-0.07500249643312203
-0.07501783483603394
-0.0750035739597651
0.07502771125219333
-0.07497575163412123
-0.07499292860348541
0.3932939420530049
-0.07502454693807091
-1.2455547758256058
-0.028102135285202615
0.38574108594121653
0.4940056097309433
-0.43912777895255267
0.4611070347948056
-0.18226244153764415
0.2183415154193877
-0.4895581944783256
0.33567471821873646
-0.03281851294650283
0.0053582699383658405
-0.058512983436031486
-0.2777509458262745
-0.317859518812196
-0.06391172628038262
-4.393694772663117
-0.025108272690456644
-4.354830820292025
3.844608750273107
-11.956996391195723
-5.4558138954442885
3.554716951357655
-2.18990871043818
3.762143516549335
-4.766590272983176
-3.8787544464865187
-4.113102000060293
7.854840713460502
-2.195858684308727
-5.891770793393791
0.43182017351959695
-0.7192375179136219
-2.942861778696551
0.6254667536129338
-9.755101641433098
11.507059092605047
0.7313755011845754
-0.465970349385575
2.316979376860085
0.2513548506937915
-0.9660224137767335
-0.5119208458776962
10.817282130744893
0.9011926509084834
13.420144071646318
0.0010044757060769822
0.5313521081469166
2.7140379411370805
-0.7755001834112264
17.240867202053362
-3.8457183739693135
-0.7223620097542683
0.4826371863438572
-2.1083252780755455
0.18791598276344673
-13.658023905976457
0.745655347837107
-9.307243215478765
-0.5366719668513934
-4.99853377756822
-6.44355982256503
0.9439523302122214
-4.880259741793133
5.790529150998762
-21.557059581867705
-9.477082606668139
3.565923513199143
-3.3048441743946593
4.242215516362492
-6.871492624334893
32.312687912764446
-6.55532755691155
13.896009762546324
-4.321388319533787
-10.420342537842865
-0.013625248079206082
-3.8606294692051234E-5
-0.021347927533111915
0.01526648863129539
5.482801360147588
-0.14715563367273862
0.011478837590976393
-0.009517787582139323
0.017562297878203643
-0.015260533609054518
-9.57890571892069
-0.016392200393458102
0.03346043568118779
-0.007056878613316724
-0.16416543487137814
0.0837884620196926
-0.015508002155318803
0.1499163574004106
-0.12332402498089594
17.153048474180938
0.5246308650697198
-0.08482296301282807
0.04994511471052951
-0.13759049473552767
0.09371053971093449
11.132275779810676
0.10491936006455192
-0.598199606303767
0.042046466951427774
0.5770238700313552
-9.071289108585976
0.1986758335743829
0.39513537160350676
-0.2923763629014883
-0.22110850198327903
0.15730315282150842
-0.4865810494881523
-0.02698910641995489
0.2542046160488336
0.2315450886323973
0.06679385784592429
0.10156029295324054
0.03251906397513382
0.4676913868077369
0.06816439624114268
-0.08701053975840545
-3.31031303837309
-2.9988794084534165
3.115779076931167
3.1955119522738658
-3.21217648745019
-2.9621303380586745
2.92932682567504
-3.3412960905738034
3.251185001871242
-2.830120708703831
3.2434224409508943
3.2862443457277246
2.92670280557489
-3.3391530240903107
-3.2449844391130256
-3.9629412267817514
-4.1612861093235125
4.097702067623985
4.071174243938272
-4.0550955551563
-4.240444379942373
4.180448841516898
-4.093302768224591
3.989102998510649
-4.09359937319249
4.290389565449332
3.979486574143964
3.900040058190852
-4.101213990311177
-4.195619446950477
-5.40743147675015
-5.2744104514885395
5.193531384170563
5.0038744436707265
-4.82507535266087
-5.222063684971308
5.019211756871635
-5.325539008767957
5.456744967198946
-5.309952220090219
5.310135294453269
5.34017264199462
4.978498241069716
-5.398905801838921
-5.525199892363958
-3.6568245299684126
-3.924771004855876
3.6202611437292047
3.670597877969996
-3.4575929655591864
-3.7327432458905734
3.386910883050769
-3.6618824981764515
3.713943523322069
-3.8600819975692566
3.958745859678668
3.5821527304813934
3.6022309301568227
-3.8140009337283676
-3.7125230920749153
-0.005205197189349359
-0.0051997218595791666
0.005242652844018628
0.005261463105079022
-0.005316200083117936
-0.005223366968055975
0.005306435807360205
-0.005198418258093535
0.005193622108505177
-0.005225776481481867
0.0051545302857267565
0.0052239062464863725
0.005321104346759787
-0.005170038071538566
-0.005160949781723208
0.12364209181513074
0.12358791348549028
-0.1232137180968637
-0.12296597064474078
0.12240361478643931
0.12337800639579156
-0.1225568448421723
0.12369360212761416
-0.12375287179812094
0.12333088335888989
-0.12405747863808436
-0.12345561028677053
-0.12233637577581485
0.12395862026381307
0.12409357382845927
-2.3849737889501044
-0.08409364938552111
0.13258647117048683
-0.083690185824837
-0.09165182918477166
-7.839498831505587E-4
0.012302759285657605
0.1597044672977681
-0.17929874888840347
-0.06562844945577662
0.15742320141734323
0.45681950920789005
0.07528943216042794
-0.39286276103863504
0.09626032954807695
-0.18967778609010733
-1.457027626065107
-2.125693017829197
-2.0032507740690204
2.198149600933227
-1.530988396243838
2.1468993526080946
-1.7018646775636934
-2.235864330675147
-2.043379731460223
-1.6972221056700847
-2.277236546398704
-2.0396978223983115
-2.175014241554829
1.6213504252739401
2.0481959688271827
-2.350325785482006
-2.4995593328100028
-2.567295316854063
2.804226750948273
-2.0471711589336548
3.208143292825434
-2.444632635161754
-2.583729736343179
-2.5108804121437105
-2.2622034952843664
-2.8816383554932403
-2.7443944588182703
-2.5661726885132703
2.3247307154928634
2.5252563409919517
-2.920985482319376
-3.344040127183407
-2.652802137451596
3.3106898385226375
-2.843172808702073
3.8242965260730903
-2.846822740808252
-3.552147090442589
-3.302865204430019
-2.8787026079854
-3.299452917245238
-3.336737368157131
-2.897458126986571
3.340194650271049
3.643230818566266
-2.4583505082989463
-2.359466270075709
-2.234592801610351
2.3906021626278213
-2.390577917733084
2.9973227837530407
-2.580134616521576
-2.903945977558321
-2.848787357830305
-1.9593179183862517
-2.4913954435264327
-2.9464633421131987
-2.919839603496097
2.397174148844733
3.08668823859259
5.533511688904243E-4
0.0013288802315173647
5.957062794953848E-4
-0.0015679309958883663
2.3246087294165546E-4
-0.002594147789671028
7.887940390433877E-4
0.001995233819654859
0.0016123981995496632
1.800312088077109E-4
0.0017204173035161063
0.0018594687746746835
0.0014164772137349809
-9.56462353414924E-4
-0.0020552069722373613
0.1422166621823815
0.14788137433241721
0.14250409231331357
-0.14940512291738162
0.13983755542996965
-0.15573279858100264
0.14391002268566863
0.15213200759889853
0.14963806372738567
0.1395367002454852
0.15036076072483148
0.15118498976080638
0.1481799310938808
-0.14529270726431964
-0.15248242077214214
-3.204881660478263
0.3983727668902918
-0.47849457461026285
-0.42595592604170934
0.49287468593673744
-0.33010861286251264
-0.33968325185073417
-0.28196623736420795
0.3826788278267775
-0.3188764991816402
-0.07896715678029284
-0.09343699248900335
0.4559370803110066
-0.2949827888422424
0.3210821993826172
0.3120118407109733
0.9453472636167785
2.2371340477846258
5.216479650510584
0.5410434844044775
10.864158398074633
5.438951555972131
-4.271840686110808
-0.0016150650127535907
-0.34376714672686587
4.484212697511328
5.302079931706065
-0.9135523891487263
-0.34855726293366635
6.156222762918543
-2.3332611086332853
1.1905953791220716
-0.9887850924995942
-3.7339403367705826
-1.0921562582034454
-5.36122816631981
-0.39635604941476127
0.22795197782876322
0.836981344962393
0.23594410730120274
-0.505005643025815
-0.3252825533336182
-0.0061521776382741904
-1.9844793128705527
-6.367074543462824
0.9280299552001404
-16.43001088631992
-5.8193149986514925
-14.287891942889297
-4.635461004325714
6.299865470145401
-8.885384165347167
9.83104676559031
4.236146842958959
-2.2260041507807102
-7.960927235707975
-8.35541116662236
-3.505673530489266
-17.55470572830293
26.972262777398793
5.594311081378786
-13.38453917346132
-9.348954525305288
-7.301001184558635
-8.556323435697776
29.90288463170095
-12.142044025902681
10.938384848000469
8.552944947692712
-5.575978995656367
-10.835213803000562
-11.395577994175964
-9.221268972176283
-16.06985854378905
-31.56774409528611
8.755223156174102
12.781769010862147
4.978739634725103
-6.058535765599651
4.253603746710057
-6.417730507400238
6.4932035408575945
-6.381004004407304
-3.79464380216534
1.8167654670932623
5.927540042400173
6.1329905010873285
2.826844912657685
5.937013623271203
-0.1422530652995852
-4.731310922284617
-7.142326876153461
-2.5404711634603663
-9.215847902381416
-1.8832408417597015
10.9753708927269
-4.179547681332573
4.177686017451421
1.6788001944153532
-0.8251600611371774
-3.850134369302793
-4.0173319561895315
-1.4574161680344209
-1.9668464720873473
-17.55900195884775
2.489444855575972
4.114391575089532
0.39836753700934463
-0.4785030263578091
-0.42595624362233425
0.4928733004967015
-0.3301086128626951
-0.33969698806245086
-0.2819537720896304
0.382679800839959
-0.31887679271560726
-0.07898053304676865
-0.09345040602107395
0.4559370633726862
-0.29498278533486855
0.32108212210891984
0.3120203651113054
0.9453527482609317
2.237142642844282
5.216479971489883
0.541044952998826
10.86415839807445
5.438965646625577
-4.27185350561852
-0.001616057015729154
-0.3437668471919257
4.484226403761457
5.30209368452303
-0.9135523704066748
-0.3485572554841333
6.156222843784051
-2.3332698130507263
1.1905898330427798
-0.9887937812070822
-3.7339406613929396
-1.092157737945016
-5.36122816631999
-0.39637030340395246
0.22796494437248935
0.8369823410973504
0.23594380639789528
-0.5050195076204053
-0.3252964655851831
-0.006152195867474946
-1.984479309461724
-6.367074625268442
0.9280387551524927
-16.430009636759713
-5.819313032872388
-14.287891869752979
-4.635460668260528
6.299865470145325
-8.885380940226511
9.831043836876495
4.236146615601201
-2.226004082097857
-7.960924100190285
-8.355408019176002
-3.5056735261360985
-17.55470572556731
26.97226279625062
5.594309090312967
-13.384534588394526
-9.348947342436553
-7.301000916182677
-8.556322212693713
29.902884631701117
-12.142032241751325
10.938374128211997
8.552944124597522
-5.575978747017961
-10.835202340775663
-11.39556649254097
-9.221268957148371
-16.069858547304488
-31.56774402765596
8.755215881304936
12.78177449338849
4.978748223665946
-6.058535444697251
4.253605209417387
-6.417730507400056
6.493217631211846
-6.38101682218455
-3.7946447867969044
1.8167657645221278
5.927553747855461
6.133004253634514
2.8268449306701964
5.937013619790434
-0.14225298443408257
-4.731319621194658
-7.14232767873956
-2.5404766825611373
-9.215847937288848
-1.8832416672386647
10.975356598358431
-4.17955650706538
4.1776761992311355
1.6787865124905146
-0.8251604310906167
-3.8501419396736245
-4.017340566232347
-1.4574161803996668
-1.9668464643774668
-17.559001963456247
2.489436671727763
4.114377280721118
0.3983727672754666
-0.4784945715711258
-0.42595592600327353
0.49287468885442653
-0.3301086128626912
-0.33968325170151437
-0.28196623822790023
0.38267882417836113
-0.3188764981384093
-0.07896715638414072
-0.09343699235449456
0.455937080672423
-0.2949827833861873
0.3210821993826172
0.31201183797577675
0.9453472640019532
2.237134050823763
5.216479650549032
0.5410434873221663
10.86415839807445
5.438951556121349
-4.2718406869745005
-0.0016150686611700149
-0.343767145683635
4.4842126979074814
5.302079931840575
-0.9135523887873095
-0.34855725747761124
6.156222762918543
-2.3332611113684814
1.1905953794913893
-0.9887850894889213
-3.733940336732502
-1.092156255313262
-5.36122816631999
-0.39635604926693546
0.22795197697309955
0.8369813413485268
0.23594410833443663
-0.5050056426333603
-0.32528255320036514
-0.006152177280309614
-1.9844793074635385
-6.367074543462824
0.9280299524905566
-16.430010885911848
-5.8193149973737075
-14.287891942873255
-4.635461003093678
6.299865470145325
-8.885384165284785
9.831046765229543
4.236146841412934
-2.226004150336015
-7.960927235542247
-8.3554111665661
-3.5056735303361743
-17.554705726019723
26.972262777398793
5.594311080228511
-13.38453917387368
-9.348954528153758
-7.301001184594681
-8.556323438436124
29.902884631701117
-12.142044026041956
10.938384848807608
8.552944951121635
-5.575978996637618
-10.835213803370761
-11.395577994301586
-9.22126897251476
-16.069858548956024
-31.56774409528611
8.755223158738396
12.781769010476973
4.978739631685965
-6.0585357656381
4.253603743792369
-6.417730507400056
6.493203540708376
-6.3810040035436115
-3.794643798516922
1.8167654660500314
5.927540042004019
6.132990500952818
2.826844912296268
5.937013617815148
-0.14225306529958923
-4.731310919549421
-7.142326863394108
-2.5404711621163045
-9.215847902377236
-1.8832408399414
10.975370905328868
-4.179547681296778
4.177686029842948
1.6788002042008543
-0.825160059708567
-3.850134369198969
-4.017331956155964
-1.457416167781061
-1.9668464633731235
-17.55900195884775
2.4894448669580984
4.114391587691499
0.39837274784255455
-0.47849536201323545
-0.4259559780368488
0.4928740593400798
-0.3301086126760965
-0.3396833494305297
-0.28196569495378054
0.3826794721709024
-0.31887669078416336
-0.07896736652505662
-0.09343707235529082
0.45593698143987704
-0.29498291730678605
0.3210821993826172
0.31201255613348117
0.9453472445690413
2.237133260381653
5.216479598515444
0.5410428578078197
10.864158398261047
5.438951458392337
-4.2718401437003815
-0.0016144206686287527
-0.34376733832938905
4.484212487766564
5.302079851839778
-0.913552488019856
-0.34855739139821
6.156222762918543
-2.333260393210777
1.1905953603249544
-0.9887858689687239
-3.733940388062606
-1.092156876109252
-5.361228166136125
-0.3963561456305861
0.22795251270822983
0.8369819804008954
0.23594391835833078
-0.5050058498436731
-0.3252826320842965
-0.006152275121926811
-1.984479439638727
-6.367074543462824
0.9280306606875471
-16.43001089511443
-5.81931543765633
-14.28789197338137
-4.635461352355707
6.299865470244683
-8.885384220268051
9.83104707297527
4.2361471999579665
-2.2260042566076597
-7.960927353660369
-8.355411211556154
-3.505673585027236
-17.55470578984393
26.972262777398793
5.594311480377861
-13.384539155812964
-9.348953814554703
-7.301001136800121
-8.55632286991014
29.9028846315381
-12.142043938047504
10.938384357689975
8.552944364913277
-5.575978822776202
-10.835213614012114
-11.395577922246439
-9.221268883490477
-16.069858425585718
-31.56774409528611
8.755222510395562
12.78176902990989
4.978740422128076
-6.0585357136045115
4.253604373306715
-6.417730507586657
6.493203638437389
-6.3810045468177305
-3.7946444465094658
1.8167656586957854
5.9275402521449365
6.132990580953615
2.8268450115288135
5.937013751735746
-0.1422530652995891
-4.731311637707124
-7.142328509338125
-2.540471591838091
-9.215847908048643
-1.8832413210250913
10.975369256867962
-4.179547705060455
4.177684525339815
1.678799213079804
-0.8251603432125689
-3.8501344259221666
-4.0173319763431135
-1.4574162392153538
-1.966848025702141
-17.55900195884775
2.4894436004273706
4.114389939213601
-0.2478784702100627
-0.4876887717371261
0.25280723198023014
0.15108796169142102
0.23904116319523117
-0.011312264655930604
0.2985809268340982
-0.38079496728392304
-0.10515607206713518
0.29126871823493994
-0.24413301394208842
0.35867761924721087
0.4881266996449416
0.45366539135524264
0.21609864576661508
9.330087470633435
-9.145131645164918
9.181523288390315
9.095847230118073
9.308747486979481
9.296119886413997
-9.149318717257687
9.216755531564033
9.257230720711377
9.219572483273014
-9.28373046286513
9.148071947259384
9.191914081565876
-14.928554644047232
9.275202120730668
0.9876225544279122
-0.9880506697494368
0.987963566123349
0.9881709424854958
0.9876701285886771
0.9876984990918012
-0.9880405747077624
0.9878805964027769
0.9877869057027344
0.9878740198108485
-0.9877264938948632
0.9880435786730862
0.9879389583165739
-49.19112088050016
0.9877458564701299
-0.5687160884242498
0.568652503915724
-0.5686655606278286
-0.5686343729373283
-0.5687090951043992
-0.568704916147699
0.5686540203240177
-0.5686779402917918
-0.5686918527949877
-0.5686789191825825
0.5687007862576594
-0.568653569176047
-0.5686692381067365
12.833631670769332
-0.5686979261702096
0.8119189845041885
-0.8112771636317191
0.8114081969301175
0.8110958502744673
0.8118479344194837
0.8118055321204992
-0.8112923618712004
0.811532796561118
0.8116732459748512
0.8115426640171857
-0.811763667771743
0.8112878396817697
0.8114451734702249
-15.760672083309387
0.8117346986197338
0.07010528450227639
-0.07004055215924523
0.07005376345215249
0.07002227514995893
0.07009811593367954
0.07009383808461635
-0.0700420843901256
0.07006632816379164
0.0700804936123231
0.07006732329158828
-0.07008961473766182
0.07004162847637173
0.0700574919795699
-0.49445242701671777
0.07008669241391079
-0.07504467862658343
0.07497458620237822
-0.07498889135586052
-0.0749547959765855
-0.07503691642298557
-0.07503228432770666
0.07497624529574175
-0.07500249643312203
-0.07501783483603394
-0.0750035739597651
0.07502771125219333
-0.07497575163412123
-0.07499292860348541
0.3932939420530049
-0.07502454693807091
-1.2455547758256058
-0.02853953148303364
0.38577292632983284
0.4931288256257712
-0.4385981770788496
0.4532807334485973
-0.18225655443919692
0.21870964477005767
-0.4899159895974725
0.33622696062928686
-0.03331696484417899
0.005369582189299244
-0.05904591634147739
-0.27462341924746564
-0.31805990403952566
-0.06390646262773385
-4.394137521567727
-0.025075844706084618
-4.355711351277201
3.8451459854814574
-11.96534008789616
-5.455807991206545
3.5550892891608314
-2.190269708336175
3.76270261308991
-4.767094799907429
-3.8787431342355725
-4.1136414824114285
7.857991569169879
-2.1960608092142047
-5.891765502636267
0.4313782757834646
-0.719205067698857
-2.943740720375787
0.6260030890092376
-9.763432865946605
11.50706494811452
0.7317472590519307
-0.46633067086167723
2.317537540285686
0.2508512815437101
-0.9660110338800028
-0.5124593187825033
10.820428327102395
0.9009909364811939
13.420149307004039
6.176620744413278E-4
0.5313796595740501
2.7132725342277166
-0.775031798029527
17.23350575167466
-3.845717707833924
-0.7220391107145028
0.48232271076719035
-2.1078399423357546
0.18747541003192883
-13.658025323210923
0.7451843514012308
-9.304514083656754
-0.5368492067325615
-4.998532422394275
-6.443228327920386
0.9439287929013306
-4.879584021548399
5.790128189081892
-21.551321247087326
-9.477078666842361
3.5656377314021612
-3.3045683188579993
4.241785486620757
-6.871114710368082
32.31268667255069
-6.554924001509037
13.893628417328603
-4.321236237373155
-10.420339270823222
-0.013182499174584613
-7.103427906405452E-5
-0.020467396547933486
0.014729253422942823
5.4911450568480475
-0.14716153791048128
0.011106499787796804
-0.00915678968414557
0.017003201337627994
-0.014756006684799308
-9.578917031171637
-0.015852718042331418
0.03030957997181116
-0.00685475370783533
-0.16417072562891252
0.09097488576151293
7.567148245464527E-4
0.1665557932331083
-0.1048016086315882
17.153337851772594
0.5245729211965533
-0.07870836032461101
0.06358734917136745
-0.1322543252930531
0.10126604543960452
11.15750684280211
0.11188416955648985
-0.5840258456190622
0.04774303024702485
0.5769738311212185
-9.046283511113604
0.1986758335743829
0.39513537160350676
-0.2923763629014883
-0.22110850198327903
0.15730315282150842
-0.4865810494881523
-0.02698910641995489
0.2542046160488336
0.2315450886323973
0.06679385784592429
0.10156029295324054
0.03251906397513382
0.4676913868077369
0.06816439624114268
-0.08701053975840545
-3.31031303837309
-2.9988794084534165
3.115779076931167
3.1955119522738658
-3.21217648745019
-2.9621303380586745
2.92932682567504
-3.3412960905738034
3.251185001871242
-2.830120708703831
3.2434224409508943
3.2862443457277246
2.92670280557489
-3.3391530240903107
-3.2449844391130256
-3.9629412267817514
-4.1612861093235125
4.097702067623985
4.071174243938272
-4.0550955551563
-4.240444379942373
4.180448841516898
-4.093302768224591
3.989102998510649
-4.09359937319249
4.290389565449332
3.979486574143964
3.900040058190852
-4.101213990311177
-4.195619446950477
-5.40743147675015
-5.2744104514885395
5.193531384170563
5.0038744436707265
-4.82507535266087
-5.222063684971308
5.019211756871635
-5.325539008767957
5.456744967198946
-5.309952220090219
5.310135294453269
5.34017264199462
4.978498241069716
-5.398905801838921
-5.525199892363958
-3.6568245299684126
-3.924771004855876
3.6202611437292047
3.670597877969996
-3.4575929655591864
-3.7327432458905734
3.386910883050769
-3.6618824981764515
3.713943523322069
-3.8600819975692566
3.958745859678668
3.5821527304813934
3.6022309301568227
-3.8140009337283676
-3.7125230920749153
-0.005205197189349359
-0.0051997218595791666
0.005242652844018628
0.005261463105079022
-0.005316200083117936
-0.005223366968055975
0.005306435807360205
-0.005198418258093535
0.005193622108505177
-0.005225776481481867
0.0051545302857267565
0.0052239062464863725
0.005321104346759787
-0.005170038071538566
-0.005160949781723208
0.12364209181513074
0.12358791348549028
-0.1232137180968637
-0.12296597064474078
0.12240361478643931
0.12337800639579156
-0.1225568448421723
0.12369360212761416
-0.12375287179812094
0.12333088335888989
-0.12405747863808436
-0.12345561028677053
-0.12233637577581485
0.12395862026381307
0.12409357382845927
-2.3849737889501044
-0.08409364938552111
0.13258647117048683
-0.083690185824837
-0.09165182918477166
-7.839498831505587E-4
0.012302759285657605
0.1597044672977681
-0.17929874888840347
-0.06562844945577662
0.15742320141734323
0.45681950920789005
0.07528943216042794
-0.39286276103863504
0.09626032954807695
-0.18967778609010733
-1.457027626065107
-2.125693017829197
-2.0032507740690204
2.198149600933227
-1.530988396243838
2.1468993526080946
-1.7018646775636934
-2.235864330675147
-2.043379731460223
-1.6972221056700847
-2.277236546398704
-2.0396978223983115
-2.175014241554829
1.6213504252739401
2.0481959688271827
-2.350325785482006
-2.4995593328100028
-2.567295316854063
2.804226750948273
-2.0471711589336548
3.208143292825434
-2.444632635161754
-2.583729736343179
-2.5108804121437105
-2.2622034952843664
-2.8816383554932403
-2.7443944588182703
-2.5661726885132703
2.3247307154928634
2.5252563409919517
-2.920985482319376
-3.344040127183407
-2.652802137451596
3.3106898385226375
-2.843172808702073
3.8242965260730903
-2.846822740808252
-3.552147090442589
-3.302865204430019
-2.8787026079854
-3.299452917245238
-3.336737368157131
-2.897458126986571
3.340194650271049
3.643230818566266
-2.4583505082989463
-2.359466270075709
-2.234592801610351
2.3906021626278213
-2.390577917733084
2.9973227837530407
-2.580134616521576
-2.903945977558321
-2.848787357830305
-1.9593179183862517
-2.4913954435264327
-2.9464633421131987
-2.919839603496097
2.397174148844733
3.08668823859259
5.533511688904243E-4
0.0013288802315173647
5.957062794953848E-4
-0.0015679309958883663
2.3246087294165546E-4
-0.002594147789671028
7.887940390433877E-4
0.001995233819654859
0.0016123981995496632
1.800312088077109E-4
0.0017204173035161063
0.0018594687746746835
0.0014164772137349809
-9.56462353414924E-4
-0.0020552069722373613
0.1422166621823815
0.14788137433241721
0.14250409231331357
-0.14940512291738162
0.13983755542996965
-0.15573279858100264
0.14391002268566863
0.15213200759889853
0.14963806372738567
0.1395367002454852
0.15036076072483148
0.15118498976080638
0.1481799310938808
-0.14529270726431964
-0.15248242077214214
-3.204881660478263
0.3983727337912664
-0.4784976255456021
-0.4259560527063169
0.49287229987363895
-0.3301086111611539
-0.339683681401856
-0.28196412455397635
0.3826811346824462
-0.31887724622803965
-0.07896805136632004
-0.09343733958798021
0.4559366196750496
-0.29498301418229883
0.3210821993826172
0.31201462534601154
0.9453472305177536
2.2371309968492867
5.216479523845979
0.5410410983413788
10.86415839977599
5.438951126421009
-4.2718385733005775
-0.001612758157084845
-0.34376789377326533
4.4842118029253015
5.302079584607087
-0.9135528497846837
-0.3485574882737228
6.156222762918543
-2.3332583239982467
1.190595346289621
-0.9887881172278724
-3.7339404623442976
-1.0921586237906893
-5.361228164633208
-0.39635647525968315
0.2279540724284148
0.8369836320577191
0.23594336666470558
-0.5050065298994186
-0.32528289743871536
-0.0061526343080380115
-1.984479536378971
-6.367074543462824
0.9280327159116588
-16.4300109021237
-5.819316567842771
-14.28789200814174
-4.63546223122106
6.299865471021969
-8.885384386566068
9.83104785346586
4.236148028596585
-2.226004534857449
-7.960927696311778
-8.355411345362496
-3.505673767505227
-17.55470584266404
26.972262777398793
5.594312513680528
-13.384539144488448
-9.348951935515585
-7.3010010771276965
-8.556321409812927
29.902884630259354
-12.142043661645056
10.938383055981376
8.552942988244855
-5.57597836132835
-10.835213044261556
-11.395577699816997
-9.221268581346399
-16.069858350019427
-31.56774409528611
8.755220792519285
12.78176904396118
4.978742685660441
-6.058535638935046
4.253606132773157
-6.417730509101599
6.493203970408716
-6.3810061172175345
-3.7946461090210084
1.8167662141396619
5.927540936986199
6.1329908481863065
2.826845373293641
5.93701384861126
-0.14225306529958923
-4.731313706919655
-7.1423324070142815
-2.5404729402206176
-9.215847916160776
-1.8832428237136394
10.975365357319307
-4.179547786134345
4.177681046297788
1.6787973082088699
-0.8251612030950185
-3.8501346125385054
-4.017332044011221
-1.4574165048190786
-1.9668518818941434
-17.55900195884775
2.4894408855142185
4.114386039526899
-0.2478784702100627
-0.4876887717371261
0.25280723198023014
0.15108796169142102
0.23904116319523117
-0.011312264655930604
0.2985809268340982
-0.38079496728392304
-0.10515607206713518
0.29126871823493994
-0.24413301394208842
0.35867761924721087
0.4881266996449416
0.45366539135524264
0.21609864576661508
9.330087470633435
-9.145131645164918
9.181523288390315
9.095847230118073
9.308747486979481
9.296119886413997
-9.149318717257687
9.216755531564033
9.257230720711377
9.219572483273014
-9.28373046286513
9.148071947259384
9.191914081565876
-14.928554644047232
9.275202120730668
0.9876225544279122
-0.9880506697494368
0.987963566123349
0.9881709424854958
0.9876701285886771
0.9876984990918012
-0.9880405747077624
0.9878805964027769
0.9877869057027344
0.9878740198108485
-0.9877264938948632
0.9880435786730862
0.9879389583165739
-49.19112088050016
0.9877458564701299
-0.5687160884242498
0.568652503915724
-0.5686655606278286
-0.5686343729373283
-0.5687090951043992
-0.568704916147699
0.5686540203240177
-0.5686779402917918
-0.5686918527949877
-0.5686789191825825
0.5687007862576594
-0.568653569176047
-0.5686692381067365
12.833631670769332
-0.5686979261702096
0.8119189845041885
-0.8112771636317191
0.8114081969301175
0.8110958502744673
0.8118479344194837
0.8118055321204992
-0.8112923618712004
0.811532796561118
0.8116732459748512
0.8115426640171857
-0.811763667771743
0.8112878396817697
0.8114451734702249
-15.760672083309387
0.8117346986197338
0.07010528450227639
-0.07004055215924523
0.07005376345215249
0.07002227514995893
0.07009811593367954
0.07009383808461635
-0.0700420843901256
0.07006632816379164
0.0700804936123231
0.07006732329158828
-0.07008961473766182
0.07004162847637173
0.0700574919795699
-0.49445242701671777
0.07008669241391079
-0.07504467862658343
0.07497458620237822
-0.07498889135586052
-0.0749547959765855
-0.07503691642298557
-0.07503228432770666
0.07497624529574175
-0.07500249643312203
-0.07501783483603394
-0.0750035739597651
0.07502771125219333
-0.07497575163412123
-0.07499292860348541
0.3932939420530049
-0.07502454693807091
-1.2455547758256058
-0.028539424518566545
0.3857729430373427
0.4931288246640035
-0.4385982586959385
0.45328100917315484
-0.1822553659913281
0.2187096099037976
-0.48991586803548354
0.33622696010783165
-0.033316898173221574
0.005368780551356977
-0.05904586607161851
-0.27462342326933536
-0.31805941121456915
-0.06390594116779169
-4.394137413810529
-0.02507582812377966
-4.355711352228659
3.8451459035694695
-11.965339812171642
-5.455806812472846
3.555089254044273
-2.190269585928912
3.762702612513924
-4.7670947326769975
-3.8787435448061696
-4.1136414316357355
7.857991565148007
-2.196060314643968
-5.891764986298553
0.4313783850012063
-0.7192050508538954
-2.9437407212672575
0.6260030057788921
-9.763432591897883
11.507066143109292
0.7317472232902296
-0.46633054637300203
2.31753753961027
0.25085134969282685
-0.9660113971987749
-0.512459267239866
10.820428323106515
0.9009914374474808
13.420149834125633
6.176231241319687E-4
0.5313796446234317
2.7132725293254696
-0.7750317539462653
17.233505891742254
-3.845720414597249
-0.7220390826389956
0.4823226222271638
-2.1078399356616915
0.18747538594539803
-13.658027512751723
0.745184328359243
-9.30451408568956
-0.5368494157659625
-4.998534709175437
-6.443228332443401
0.94392879700341
-4.879584025334163
5.7901281961250435
-21.551321478742373
-9.477077002086238
3.565637734241111
-3.304568321199421
4.241785489813945
-6.871114714425865
32.31268577692938
-6.554924006284525
13.893628420710316
-4.321236212150853
-10.420337913214114
-0.013182606931789484
-7.105086136902059E-5
-0.020467395596463798
0.014729335334933577
5.491144781123485
-0.14716271664418124
0.011106534904356237
-0.009156912091407107
0.017003201913617507
-0.014756073915231817
-9.578916620601037
-0.015852768818002922
0.030309583993682762
-0.006855248278069553
-0.16417124196662247
0.09088045114574424
6.960133743298136E-4
0.16646009960951977
-0.10480244425380042
17.153242194293266
0.5245797362605541
-0.07870881439319377
0.06349367292949396
-0.132254330950131
0.10117106713822832
11.157506818523329
0.11178897455278904
-0.5840258535021696
0.04766019393909758
0.5769857277593856
-9.046379201874649
0.1986758335743829
0.39513537160350676
-0.2923763629014883
-0.22110850198327903
0.15730315282150842
-0.4865810494881523
-0.02698910641995489
0.2542046160488336
0.2315450886323973
0.06679385784592429
0.10156029295324054
0.03251906397513382
0.4676913868077369
0.06816439624114268
-0.08701053975840545
-3.31031303837309
-2.9988794084534165
3.115779076931167
3.1955119522738658
-3.21217648745019
-2.9621303380586745
2.92932682567504
-3.3412960905738034
3.251185001871242
-2.830120708703831
3.2434224409508943
3.2862443457277246
2.92670280557489
-3.3391530240903107
-3.2449844391130256
-3.9629412267817514
-4.1612861093235125
4.097702067623985
4.071174243938272
-4.0550955551563
-4.240444379942373
4.180448841516898
-4.093302768224591
3.989102998510649
-4.09359937319249
4.290389565449332
3.979486574143964
3.900040058190852
-4.101213990311177
-4.195619446950477
-5.40743147675015
-5.2744104514885395
5.193531384170563
5.0038744436707265
-4.82507535266087
-5.222063684971308
5.019211756871635
-5.325539008767957
5.456744967198946
-5.309952220090219
5.310135294453269
5.34017264199462
4.978498241069716
-5.398905801838921
-5.525199892363958
-3.6568245299684126
-3.924771004855876
3.6202611437292047
3.670597877969996
-3.4575929655591864
-3.7327432458905734
3.386910883050769
-3.6618824981764515
3.713943523322069
-3.8600819975692566
3.958745859678668
3.5821527304813934
3.6022309301568227
-3.8140009337283676
-3.7125230920749153
-0.005205197189349359
-0.0051997218595791666
0.005242652844018628
0.005261463105079022
-0.005316200083117936
-0.005223366968055975
0.005306435807360205
-0.005198418258093535
0.005193622108505177
-0.005225776481481867
0.0051545302857267565
0.0052239062464863725
0.005321104346759787
-0.005170038071538566
-0.005160949781723208
0.12364209181513074
0.12358791348549028
-0.1232137180968637
-0.12296597064474078
0.12240361478643931
0.12337800639579156
-0.1225568448421723
0.12369360212761416
-0.12375287179812094
0.12333088335888989
-0.12405747863808436
-0.12345561028677053
-0.12233637577581485
0.12395862026381307
0.12409357382845927
-2.3849737889501044
-0.08409364938552111
0.13258647117048683
-0.083690185824837
-0.09165182918477166
-7.839498831505587E-4
0.012302759285657605
0.1597044672977681
-0.17929874888840347
-0.06562844945577662
0.15742320141734323
0.45681950920789005
0.07528943216042794
-0.39286276103863504
0.09626032954807695
-0.18967778609010733
-1.457027626065107
-2.125693017829197
-2.0032507740690204
2.198149600933227
-1.530988396243838
2.1468993526080946
-1.7018646775636934
-2.235864330675147
-2.043379731460223
-1.6972221056700847
-2.277236546398704
-2.0396978223983115
-2.175014241554829
1.6213504252739401
2.0481959688271827
-2.350325785482006
-2.4995593328100028
-2.567295316854063
2.804226750948273
-2.0471711589336548
3.208143292825434
-2.444632635161754
-2.583729736343179
-2.5108804121437105
-2.2622034952843664
-2.8816383554932403
-2.7443944588182703
-2.5661726885132703
2.3247307154928634
2.5252563409919517
-2.920985482319376
-3.344040127183407
-2.652802137451596
3.3106898385226375
-2.843172808702073
3.8242965260730903
-2.846822740808252
-3.552147090442589
-3.302865204430019
-2.8787026079854
-3.299452917245238
-3.336737368157131
-2.897458126986571
3.340194650271049
3.643230818566266
-2.4583505082989463
-2.359466270075709
-2.234592801610351
2.3906021626278213
-2.390577917733084
2.9973227837530407
-2.580134616521576
-2.903945977558321
-2.848787357830305
-1.9593179183862517
-2.4913954435264327
-2.9464633421131987
-2.919839603496097
2.397174148844733
3.08668823859259
5.533511688904243E-4
0.0013288802315173647
5.957062794953848E-4
-0.0015679309958883663
2.3246087294165546E-4
-0.002594147789671028
7.887940390433877E-4
0.001995233819654859
0.0016123981995496632
1.800312088077109E-4
0.0017204173035161063
0.0018594687746746835
0.0014164772137349809
-9.56462353414924E-4
-0.0020552069722373613
0.1422166621823815
0.14788137433241721
0.14250409231331357
-0.14940512291738162
0.13983755542996965
-0.15573279858100264
0.14391002268566863
0.15213200759889853
0.14963806372738567
0.1395367002454852
0.15036076072483148
0.15118498976080638
0.1481799310938808
-0.14529270726431964
-0.15248242077214214
-3.204881660478263
0.39837276428685325
-0.47849457237346127
-0.4259559260070772
0.4928746879497707
-0.3301086128626697
-0.33968325172550057
-0.28196623809663124
0.38267882544534654
-0.3188764985431706
-0.07896715645664645
-0.09343699237767199
0.45593708056369614
-0.2949827854741568
0.3210821993826172
0.31201183871159216
0.9453472610133399
2.237134050021427
5.216479650545217
0.5410434864175107
10.864158398074473
5.438951556097364
-4.271840686843231
-0.0016150673941845023
-0.34376714608839626
4.484212697834974
5.302079931817396
-0.9135523888960365
-0.34855725956558076
6.156222762918543
-2.333261110632666
1.1905953765304504
-0.9887850902860573
-3.7339403367362807
-1.092156256211925
-5.361228166319965
-0.39635604929077156
0.22795197710355702
0.8369813426070082
0.23594410793246076
-0.5050056427054095
-0.3252825532233971
-0.006152177388293434
-1.9844793095388478
-6.367074543462824
0.9280299532216023
-16.430010886970226
-5.81931499762761
-14.287891942874431
-4.635461003382043
6.299865470145332
-8.885384165292317
9.831046765270475
4.236146841818539
-2.2260041504666526
-7.960927235564983
-8.355411166573376
-3.505673530371274
-17.55470572666692
26.972262777398793
5.594311080461338
-13.384539170946478
-9.34895452738686
-7.301001184591045
-8.556323437570217
29.90288463170109
-12.142044026019093
10.938384848682531
8.552944949907811
-5.575978996249224
-10.835213803301608
-11.395577994279487
-9.221268972410606
-16.069858546967193
-31.56774409528611
8.755223158034974
12.781769013465587
4.978739632488301
-6.058535765634285
4.253603744697022
-6.4177305074000826
6.493203540732361
-6.381004003674881
-3.794643799783908
1.816765466454793
5.927540042076527
6.132990500975998
2.826844912404995
5.937013619903117
-0.14225306529958756
-4.731310920285237
-7.142326869516567
-2.540471162449888
-9.215847902377659
-1.8832408404655148
10.975370898936559
-4.179547681302507
4.177686023482256
1.6788001986857037
-0.8251600602444279
-3.8501343692178858
-4.017331956161732
-1.4574161678565871
-1.9668464647391213
-17.55900195884775
2.4894448608767443
4.114391581299207
0.3983727673593577
-0.4784945715621761
-0.4259559260032803
0.49287468886855956
-0.3301086128626949
-0.33968325170139185
-0.2819662382281711
0.38267882415520627
-0.3188764981294588
-0.07896715638372785
-0.09343699235436882
0.45593708067530725
-0.29498278338702055
0.3210821993826172
0.31201183796786347
0.9453472640858445
2.2371340508327124
5.2164796505490125
0.5410434873362993
10.86415839807445
5.438951556121471
-4.271840686974773
-0.0016150686843247645
-0.34376714567468447
4.4842126979078945
5.302079931840698
-0.9135523887844256
-0.3485572574784445
6.156222762918543
-2.3332611113763955
1.1905953795754307
-0.9887850894799125
-3.7339403367325064
-1.0921562552990338
-5.36122816631999
-0.39635604926681217
0.2279519769728279
0.8369813413252151
0.2359441083434471
-0.5050056426329443
-0.32528255320023874
-0.0061521772774044145
-1.9844793074643885
-6.367074543462824
0.9280299524825922
-16.43001088595567
-5.81931499737486
-14.287891942873255
-4.6354610030953065
6.299865470145325
-8.88538416528482
9.831046765229633
4.2361468414155095
-2.226004150337089
-7.96092723554231
-8.355411166566135
-3.5056735303363693
-17.554705726020547
26.972262777398793
5.594311080229621
-13.384539173908344
-9.3489545281603
-7.301001184594662
-8.556323438446665
29.902884631701117
-12.142044026042043
10.93838484880776
8.552944951139013
-5.575978996644321
-10.835213803371051
-11.395577994301673
-9.221268972517024
-16.069858548954596
-31.56774409528611
8.75522315874413
12.781769010393079
4.978739631677016
-6.05853576563808
4.253603743778234
-6.417730507400056
6.4932035407082545
-6.381004003543339
-3.794643798493769
1.8167654660410812
5.927540042003606
6.132990500952696
2.8268449122933847
5.937013617815982
-0.1422530652995888
-4.731310919541509
-7.142326863398964
-2.5404711621126688
-9.215847902377236
-1.8832408399333451
10.975370905442656
-4.17954768129673
4.177686029956694
1.6788002042988341
-0.825160059696576
-3.8501343691988943
-4.017331956155916
-1.4574161677790565
-1.9668464633735687
-17.55900195884775
2.4894448670686096
4.114391587805302
0.3983726126797947
-0.4789710486901845
-0.4264618092552325
0.49251376661645535
-0.3301082259834914
-0.3399991342259911
-0.2811686704498235
0.38297171375673833
-0.3190052866592448
-0.07943448374252945
-0.09367771432212413
0.45583197151901217
-0.2949838634746621
0.3210821993826172
0.3124938408902092
0.9453471094062812
2.2366575737047016
5.2159737672970605
0.5406825650841951
10.864158784953652
5.438635673596876
-4.271043119196426
-0.0013221790827929283
-0.3438959342044705
4.48374537054909
5.301839209872945
-0.9136574979407209
-0.34855833756608606
6.156222762918543
-2.332779108454049
1.190595223960926
-0.9892647765639415
-3.734449665333461
-1.0925196098900523
-5.3612277766820675
-0.39667408649681035
0.22875493163244737
0.8372761992828708
0.2358144475871664
-0.5054761487963966
-0.3255249171246184
-0.006258003333639538
-1.9844803939486095
-6.367074543462824
0.9285152069797636
-16.430010991491827
-5.819679033444163
-14.288287099955896
-4.6357368954693206
6.299865764172676
-8.885628711378939
9.831659250706394
4.23637038842968
-2.2261027966215394
-7.961288090780837
-8.355597504832856
-3.5057541969695327
-17.554706455984288
26.972262777398793
5.594679770300618
-13.38453903723367
-9.348533211708364
-7.300552365497053
-8.5560042687273
29.90288429148238
-12.141764335925215
10.93767933104553
8.552685936716975
-5.575865110560111
-10.834800153603984
-11.395364853810829
-9.221176049737396
-16.069857594653314
-31.56774409528611
8.75479692446878
12.781769165072642
4.9792161088050255
-6.058029882386128
4.253964666030341
-6.4177308942792575
6.49351942323285
-6.381801571321686
-3.7949366880953006
1.8168942545708668
5.928007369362411
6.133231222920449
2.826950021449679
5.937014697903623
-0.14225306529958923
-4.731792922463854
-7.14311626207816
-2.5409429841753397
-9.21590800742459
-1.8836936254338867
10.974581520449187
-4.179632959694478
4.177274373958862
1.678536634173476
-0.8253746467136118
-3.8502860330905997
-4.017397610019663
-1.4574965617316136
-1.9676353214220743
-17.55900195884775
2.4890856079931662
4.113602167559328
-0.2478784702100627
-0.4876887717371261
0.25280723198023014
0.15108796169142102
0.23904116319523117
-0.011312264655930604
0.2985809268340982
-0.38079496728392304
-0.10515607206713518
0.29126871823493994
-0.24413301394208842
0.35867761924721087
0.4881266996449416
0.45366539135524264
0.21609864576661508
9.330087470633435
-9.145131645164918
9.181523288390315
9.095847230118073
9.308747486979481
9.296119886413997
-9.149318717257687
9.216755531564033
9.257230720711377
9.219572483273014
-9.28373046286513
9.148071947259384
9.191914081565876
-14.928554644047232
9.275202120730668
0.9876225544279122
-0.9880506697494368
0.987963566123349
0.9881709424854958
0.9876701285886771
0.9876984990918012
-0.9880405747077624
0.9878805964027769
0.9877869057027344
0.9878740198108485
-0.9877264938948632
0.9880435786730862
0.9879389583165739
-49.19112088050016
0.9877458564701299
-0.5687160884242498
0.568652503915724
-0.5686655606278286
-0.5686343729373283
-0.5687090951043992
-0.568704916147699
0.5686540203240177
-0.5686779402917918
-0.5686918527949877
-0.5686789191825825
0.5687007862576594
-0.568653569176047
-0.5686692381067365
12.833631670769332
-0.5686979261702096
0.8119189845041885
-0.8112771636317191
0.8114081969301175
0.8110958502744673
0.8118479344194837
0.8118055321204992
-0.8112923618712004
0.811532796561118
0.8116732459748512
0.8115426640171857
-0.811763667771743
0.8112878396817697
0.8114451734702249
-15.760672083309387
0.8117346986197338
0.07010528450227639
-0.07004055215924523
0.07005376345215249
0.07002227514995893
0.07009811593367954
0.07009383808461635
-0.0700420843901256
0.07006632816379164
0.0700804936123231
0.07006732329158828
-0.07008961473766182
0.07004162847637173
0.0700574919795699
-0.49445242701671777
0.07008669241391079
-0.07504467862658343
0.07497458620237822
-0.07498889135586052
-0.0749547959765855
-0.07503691642298557
-0.07503228432770666
0.07497624529574175
-0.07500249643312203
-0.07501783483603394
-0.0750035739597651
0.07502771125219333
-0.07497575163412123
-0.07499292860348541
0.3932939420530049
-0.07502454693807091
-1.2455547758256058
-0.02853790633768215
0.38576217045180294
0.4931299453133593
-0.438599711909678
0.4535024089640413
-0.18226340862100912
0.21871246371549205
-0.4899339218756968
0.3362332699039849
-0.03331497101815987
0.0053584509479949055
-0.059044010412067055
-0.2746295820037568
-0.31806283405284
-0.0639118192921748
-4.394136819841815
-0.02506489725544062
-4.355708220945786
3.8451448243758692
-11.965118799278313
-5.4558148922912
3.555084697291737
-2.1902500635546915
3.762693893351282
-4.7670939327608295
-3.8787542351150823
-4.113640179685874
7.857985366501949
-2.196058190344211
-5.8917708973351255
0.43137991604988857
-0.7192158838775088
-2.9437395836710136
0.6260015386413468
-9.763209260718348
11.507058099565572
0.7317500912855889
-0.4663487090734297
2.317543881180165
0.2508532934339332
-0.9660222855926495
-0.5124573941133072
10.820422110559688
0.9009879920825825
13.42014395855224
6.186715087602957E-4
0.531372570092519
2.713273004448195
-0.7750327589721129
17.233651503418603
-3.8457188741259825
-0.7220371941326524
0.4823110005987366
-2.107835637714503
0.18747661765868834
-13.658023490363604
0.7451855024754239
-9.304518133109827
-0.5368507797547962
-4.9985335967284925
-6.443228811503485
0.9439360753383421
-4.879583461937909
5.790128642405095
-21.551493145186534
-9.477082015770545
3.5656352480841154
-3.3045558027620103
4.24178040781762
-6.871115356430052
32.31268808912195
-6.554924667725844
13.893633194682481
-4.321234434557607
-10.420342325493808
-0.013184124303940198
-6.027814411980909E-5
-0.020468516225057142
0.01473078823552432
5.490923381314874
-0.14715465435646688
0.01110368066875773
-0.009138856433331108
0.01699689198815863
-0.014758000503589469
-9.57890589993033
-0.015854623957393996
0.030315742728470714
-0.0068518230746838025
-0.1641653368625629
0.09117901202392416
0.010860969755916935
0.1667304963747158
-0.089557324424618
17.153527858500603
0.524638898830545
-0.06348367577226231
0.06406418667167274
-0.11702315814473248
0.10146831610770596
11.172749396274602
0.11208230210949523
-0.5687236817931223
0.04799521899943918
0.5770300602189289
-9.030835292040921
0.1986758335743829
0.39513537160350676
-0.2923763629014883
-0.22110850198327903
0.15730315282150842
-0.4865810494881523
-0.02698910641995489
0.2542046160488336
0.2315450886323973
0.06679385784592429
0.10156029295324054
0.03251906397513382
0.4676913868077369
0.06816439624114268
-0.08701053975840545
-3.31031303837309
-2.9988794084534165
3.115779076931167
3.1955119522738658
-3.21217648745019
-2.9621303380586745
2.92932682567504
-3.3412960905738034
3.251185001871242
-2.830120708703831
3.2434224409508943
3.2862443457277246
2.92670280557489
-3.3391530240903107
-3.2449844391130256
-3.9629412267817514
-4.1612861093235125
4.097702067623985
4.071174243938272
-4.0550955551563
-4.240444379942373
4.180448841516898
-4.093302768224591
3.989102998510649
-4.09359937319249
4.290389565449332
3.979486574143964
3.900040058190852
-4.101213990311177
-4.195619446950477
-5.40743147675015
-5.2744104514885395
5.193531384170563
5.0038744436707265
-4.82507535266087
-5.222063684971308
5.019211756871635
-5.325539008767957
5.456744967198946
-5.309952220090219
5.310135294453269
5.34017264199462
4.978498241069716
-5.398905801838921
-5.525199892363958
-3.6568245299684126
-3.924771004855876
3.6202611437292047
3.670597877969996
-3.4575929655591864
-3.7327432458905734
3.386910883050769
-3.6618824981764515
3.713943523322069
-3.8600819975692566
3.958745859678668
3.5821527304813934
3.6022309301568227
-3.8140009337283676
-3.7125230920749153
-0.005205197189349359
-0.0051997218595791666
0.005242652844018628
0.005261463105079022
-0.005316200083117936
-0.005223366968055975
0.005306435807360205
-0.005198418258093535
0.005193622108505177
-0.005225776481481867
0.0051545302857267565
0.0052239062464863725
0.005321104346759787
-0.005170038071538566
-0.005160949781723208
0.12364209181513074
0.12358791348549028
-0.1232137180968637
-0.12296597064474078
0.12240361478643931
0.12337800639579156
-0.1225568448421723
0.12369360212761416
-0.12375287179812094
0.12333088335888989
-0.12405747863808436
-0.12345561028677053
-0.12233637577581485
0.12395862026381307
0.12409357382845927
-2.3849737889501044
-0.08409364938552111
0.13258647117048683
-0.083690185824837
-0.09165182918477166
-7.839498831505587E-4
0.012302759285657605
0.1597044672977681
-0.17929874888840347
-0.06562844945577662
0.15742320141734323
0.45681950920789005
0.07528943216042794
-0.39286276103863504
0.09626032954807695
-0.18967778609010733
-1.457027626065107
-2.125693017829197
-2.0032507740690204
2.198149600933227
-1.530988396243838
2.1468993526080946
-1.7018646775636934
-2.235864330675147
-2.043379731460223
-1.6972221056700847
-2.277236546398704
-2.0396978223983115
-2.175014241554829
1.6213504252739401
2.0481959688271827
-2.350325785482006
-2.4995593328100028
-2.567295316854063
2.804226750948273
-2.0471711589336548
3.208143292825434
-2.444632635161754
-2.583729736343179
-2.5108804121437105
-2.2622034952843664
-2.8816383554932403
-2.7443944588182703
-2.5661726885132703
2.3247307154928634
2.5252563409919517
-2.920985482319376
-3.344040127183407
-2.652802137451596
3.3106898385226375
-2.843172808702073
3.8242965260730903
-2.846822740808252
-3.552147090442589
-3.302865204430019
-2.8787026079854
-3.299452917245238
-3.336737368157131
-2.897458126986571
3.340194650271049
3.643230818566266
-2.4583505082989463
-2.359466270075709
-2.234592801610351
2.3906021626278213
-2.390577917733084
2.9973227837530407
-2.580134616521576
-2.903945977558321
-2.848787357830305
-1.9593179183862517
-2.4913954435264327
-2.9464633421131987
-2.919839603496097
2.397174148844733
3.08668823859259
5.533511688904243E-4
0.0013288802315173647
5.957062794953848E-4
-0.0015679309958883663
2.3246087294165546E-4
-0.002594147789671028
7.887940390433877E-4
0.001995233819654859
0.0016123981995496632
1.800312088077109E-4
0.0017204173035161063
0.0018594687746746835
0.0014164772137349809
-9.56462353414924E-4
-0.0020552069722373613
0.1422166621823815
0.14788137433241721
0.14250409231331357
-0.14940512291738162
0.13983755542996965
-0.15573279858100264
0.14391002268566863
0.15213200759889853
0.14963806372738567
0.1395367002454852
0.15036076072483148
0.15118498976080638
0.1481799310938808
-0.14529270726431964
-0.15248242077214214
-3.204881660478263
0.3983727679707909
-0.47849457154410646
-0.42595592600326015
0.49287468889417463
-0.3301086128626951
-0.3396832517010935
-0.2819662382295639
0.3826788241147647
-0.31887649811318486
-0.07896715638267005
-0.09343699235405412
0.4559370806787395
-0.29498278337699424
0.3210821993826172
0.31201183795080056
0.9453472646972776
2.237134050850782
5.216479650549033
0.5410434873619147
10.86415839807445
5.438951556121771
-4.271840686976165
-0.001615068724766351
-0.34376714565841054
4.484212697908951
5.302079931841014
-0.9135523887809934
-0.3485572574684182
6.156222762918543
-2.3332611113934583
1.1905953801930647
-0.9887850894616603
-3.733940336732487
-1.0921562552731596
-5.36122816631999
-0.39635604926651075
0.22795197697142094
0.8369813412843639
