0.40156287948529845	
0.30298221288469607	
0.042764554477178196	
-0.4211135730448712	
0.3090120288337309	
-0.22911584522070627	
0.4973068205261211	
0.1467498175789752	
0.21633562593764144	
-0.16509541634113256	
-0.05569867165970577	
-0.26124143815519396	
-0.28223933051792327	
-0.19677808661008656	
0.31925867938661556	
-0.16833849635966755	
0.17368984241821697	
0.705990587389328	
0.21203601515275336	
0.4600875347967816	
0.08618551486068758	
-0.5400223033439338	
0.8320925069120068	
0.3075007264733103	
0.30894584138626413	
0.7802316898384036	
0.7402592060261657	
0.44286770176727275	
-0.010661339203204823	
0.8486162565798732	
-0.9862243191763739	
0.8462820555749643	
0.3241965214142273	
0.8654479633436575	
-0.13570738468963983	
1.0747685894281882	
0.15396693141493095	
0.8680306785520173	
0.33648636453476444	
-0.5267502070396225	
0.8729057512693479	
0.5157734827089011	
0.2945616900840022	
-0.4152986407978497	
0.8261198716912277	
-1.107946764761084	
0.8212598285202398	
0.09708310249793896	
0.8471868990074164	
0.35985795719127456	
0.8202869554983396	
-0.7707056167265375	
0.8486381696824311	
0.694987836767635	
-0.386477042818375	
0.9385450195436637	
0.6632169643521529	
0.67188381434711	
0.5392574207107483	
0.3657507683587371	
-0.9165089759876212	
0.1095125904338798	
0.4659611205010692	
0.6127593770467659	
0.6177569416093378	
1.033692562856514	
-0.582232013198623	
0.9291361464596022	
0.08329807589334509	
0.3827707212876758	
0.1403208865775833	
0.7027968109946905	
0.8391793080391372	
0.48528173949349057	
0.8702855719523916	
-0.014678129017652015	
-0.4618160411969309	
-0.6148140829713246	
-0.12080404437664957	
-0.09433110556073313	
-0.5028023001603948	
-0.25670286898503447	
-0.4893209213630196	
-0.524231518211384	
-0.5387367919820298	
-0.3507131280380677	
-0.0943910606705339	
-0.15059308516276587	
-0.2922927653422688	
-0.3323447785906074	
1.6398015726880053	
-0.8760367667958596	
-0.5513955697687591	
-1.1791413199475556	
-0.45795466721495015	
-1.3448234007258957	
0.9282984716983447	
-1.4864847235304626	
-0.5920054642461402	
0.27437768613661917	
-1.018856007329235	
-1.0557685193319155	
-0.8313539736125648	
-0.16147146004616927	
-1.143806443228989	
-0.04291770676030302	
============================================
