-0.33649970778426685	
-0.47833539017005944	
0.4958093590389979	
-0.43376299370863447	
0.07462180758855985	
0.22521216142737033	
0.472746396211864	
0.28177958618054366	
-0.07311161622337403	
0.1303747240917068	
-0.33061832484679166	
-0.14358565223213593	
0.35862422026271157	
-0.42081773450929316	
0.2737854753516624	
3.328929724262385	
-3.3500128647779843	
0.21228517167020736	
2.4084823868471665	
0.8103922797102642	
-1.295105419508934	
2.655205017739053	
3.739181845811575	
1.2580176134402288	
-0.8211445795237842	
0.9048704918726437	
4.409055178558421	
-0.09116011652268553	
1.0677070227198355	
1.6184002507122688	
2.835804656183633	
-0.22661163699267536	
0.1544945952167863	
0.932467926593238	
-0.44813443724240987	
-1.7824181389217086	
0.47378372880343844	
-1.3361744661096393	
4.823185130715912	
-0.5439459927920016	
0.10402025656340262	
2.1281694265839914	
-0.3531757840769029	
0.19640999542500723	
0.41809485039333705	
-2.2621875322106293	
1.0283785589991028	
-0.4436755901874146	
-1.104217188096814	
0.2894969914303765	
-1.3027751322327106	
-1.0139511010574886	
-2.4027334824040123	
-2.429261684633722	
-0.6162032441121663	
0.3339902894890467	
-0.6907966671506093	
0.11427297582507845	
0.2944041490478939	
-0.5233129251736371	
-0.8962462794390944	
0.2954595570659901	
-0.24616838342695396	
0.30942956935248517	
0.6453163424771471	
-0.5357258496175739	
1.4858858787858642	
9.997378365044677	
-3.974884008845856	
-0.09590827265232137	
-0.7102107498165237	
-6.903849764964992	
-0.008862921037875535	
-1.1094345746399015	
-0.30476678770435156	
-1.8117419502542764	
-1.0186940744864241	
-1.5987905618660345	
-1.7900499640690233	
-1.7246008771760186	
-1.000303721511286	
-1.8348542523642242	
-5.016769982286242	
-1.4218764977875435	
-1.536070071831628	
-1.6279304199071103	
0.7366810905645028	
-1.6399607283086497	
-1.6626203487992484	
-1.6662210519084855	
-2.4128418615447864	
1.0154797239814246	
0.08907451465324295	
-1.0930427614063383	
-0.4653628244083432	
1.6818071433264092	
-1.2772769179149397	
-8.094296115839686	
-3.4602747774599005	
0.7624744671810257	
-0.5261705383355892	
-3.579209880055691	
0.08886043992950932	
-0.7505405193567506	
-0.6038570541220398	
1.203089447368395	
============================================
