-0.02853919950183882
0.38577295703922576
0.4931290114873165
-0.4385985217962035
0.45328048151634875
-0.18224521286777717
0.21870930233749195
-0.4899157761338831
0.33622682699215434
-0.03331659823472721
0.005369184062185189
-0.0590456391042743
-0.27462341590643824
-0.318059620846276
-0.06389638188879451
-4.394137901433112
-0.02507582193929557
-4.355711542008059
3.845146361999369
-11.96534033982846
-5.455796456049744
3.555089622569223
-2.1902698639007387
3.7627027500820973
-4.767095202430871
-3.8787435323626935
-4.113641787215331
7.857991572515325
-2.196060929036935
-5.891755330895363
0.43137860982813153
-0.7192050362141086
-2.943740532813307
0.6260027421865821
-9.76343311411023
11.50707670392784
0.7317469135847563
-0.46633045368765985
2.317537405435336
0.25085165081926797
-0.9660117537185424
-0.5124590394089055
10.82042833039341
0.9009912241426675
13.420159663150548
6.175273999160874E-4
0.5313796422987657
2.7132724603163587
-0.7750316614576929
17.23350564163839
-3.845723170986607
-0.7220389735682494
0.4823226180595121
-2.107839888518636
0.18747526319368682
-13.658022790019734
0.745184241654429
-9.304514082200107
-0.5368493075573905
-4.998537703135619
-6.4432280504920865
0.9439288133769232
-4.87958389260578
5.790127922464893
-21.551321031457753
-9.477069496121741
3.5656374707081837
-3.304568152486858
4.241785392828107
-6.871114419441957
32.31268776970695
-6.5549237967969605
13.893628414463056
-4.3212359836924445
-10.420329867185464
-0.013182831316971424
-7.106519773381044E-5
-0.020467582413317618
0.014729598228496224
5.491145308780239
-0.14717307361782056
0.011106842642151324
-0.009157005756151207
0.017003335027275003
-0.014756373377935042
-9.578916633044521
-0.015852995372570258
0.030309576630800437
-0.006855041381147055
-0.16418089744534267
0.09081413712100274
6.713141573098307E-4
0.16638742998454664
-0.1048069111245807
17.15316824180682
0.524549762567661
-0.07871618943502479
0.06342197012245393
-0.1322554191925705
0.10110460484724046
11.157506950087276
0.11171799918736577
-0.5840258392930966
0.04758275259842664
0.5769785325403958
-9.04645309831511
-0.028539291276155586
0.38577290272679843
0.49313006389845254
-0.43859865022061845
0.45328081975130075
-0.18226500451513522
0.2187092518014047
-0.48991561104858306
0.33622599295892847
-0.033316700692861696
0.005362815423335055
-0.05904524796786126
-0.2746234455850179
-0.31805979487296354
-0.06391380983497698
-4.394137769616673
-0.02507588254248768
-4.35571262185625
3.8451465508221543
-11.965340660156102
-5.455816470751821
3.5550897766134115
-2.1902703638991015
3.762703615972482
-4.7670950687271985
-3.878749901001799
-4.113642186312645
7.8579916019605776
-2.1960612758678346
-5.891772881961929
0.4313785170031098
-0.7192050915131619
-2.943739478169124
0.6260026142852978
-9.763432774828647
11.507056462676578
0.7317468649496611
-0.46633029170001045
2.3175365695519967
0.250851546660745
-0.9660178401031188
-0.5124586482925115
10.82042830061309
0.9009910463908568
13.420141927717644
6.176281425129939E-4
0.5313796438623527
2.7132725499347496
-0.7750317614356792
17.2335057337281
-3.845721326811268
-0.7220390889127654
0.48232264470903974
-2.1078399730361506
0.18747538964245422
-13.658026851414704
0.7451843364646967
-9.304514088958097
-0.5368493778822145
-4.998535929757818
-6.4432282454163285
0.9439287815295114
-4.879583547934824
5.790128003805603
-21.551320918804684
-9.477082257664296
3.5656375769563224
-3.304568173533351
4.241785119065824
-6.871114612816913
32.31268639964211
-6.554923742096721
13.893628403739543
-4.321236210777793
-10.420342718173764
-0.01318273936348879
-7.101041888791342E-5
-0.020468634809543747
0.01472972654470403
5.491144970545355
-0.14715305846215315
0.011106892581840796
-0.009157167258655638
0.017004168931900415
-0.014756270826704937
-9.578910264405662
-0.01585338639912531
0.030309606309363406
-0.0068548622535139605
-0.16416334631965118
0.09112909912251184
8.060312320340502E-4
0.16669746948343875
-0.10482761401990233
17.15346236984818
0.5246457738013828
-0.07873322656517297
0.0637259598172991
-0.13226710064795585
0.10142032386471726
11.157507580926994
0.11203268216673613
-0.5840258903571306
0.04788919261938398
0.5770370014659814
-9.046158990200846
-0.02856960493993013
0.38384061532748
0.49275705991481067
-0.43857121985450775
0.453188143065994
-0.18226880233318354
0.21873700906371157
-0.49103289794708604
0.3366728161300939
-0.033339850893211696
-0.2247689249666074
-0.05913296528457761
-0.27406493001000426
-0.31831170788607877
-0.06391704206991095
-4.394107659779546
-0.023129160667333323
-4.355336589924633
3.8451198325552625
-11.965247751244746
-5.4558202619754645
3.555063007738999
-2.189151618194724
3.76225732597038
-4.767072039639442
-3.6484502890938373
-4.113554396088475
7.857431686324132
-2.1958100981780477
-5.891776113334207
0.4313484385658473
-0.7211319366956085
-2.9441115449397937
0.6260293044702205
-9.76352472112627
11.507052663513269
0.7317733886224258
-0.4674375901823714
2.317977958604328
0.250828577749094
-1.1938254212899602
-0.5125456633311909
10.820982228876423
0.9007413307363502
13.420138699963132
6.034590917568382E-4
0.530476756437436
2.7130960120300123
-0.775018954429162
17.23346230633366
-3.8457215266474285
-0.7220246904132582
0.4817960345534178
-2.1076265531378984
0.18746459413582883
-13.767360414898526
0.7451431418867498
-9.304250375645577
-0.5369680564194452
-4.998536180073546
-6.443221306709373
0.9444026615207781
-4.87949558261636
5.790122374853807
-21.5512993313797
-9.477084367292967
3.565633303016247
-3.3043039747596885
4.241683727681294
-6.871109362831875
32.365753867050564
-6.554903561397082
13.89349741683357
-4.321177205523159
-10.420344813236323
-0.013152340812268603
0.0018757714882406205
-0.02009258154052683
0.014702736536272146
5.491237897420859
-0.14714926063804903
0.01107998549507744
-0.008037987210685252
0.016557851044519123
-0.014733058138090602
-9.348600168833922
-0.01576543968300462
0.029749690432272415
-0.006602463178425829
-0.16416011408375397
0.09160640738075694
0.10537065441956062
0.16912181999177167
0.07802990761035394
17.153647547148513
0.5246728280802049
0.10094889694632944
0.08130752112496516
0.043816471072070526
0.10179447689087305
11.316807881865216
0.11296587327744641
-0.4014795639997732
0.05319392821381773
0.5770578902499753
-8.862329907412493
-0.02856962860982841
0.3825579325989675
0.4926874425023854
-0.4385950966090993
0.4531678578080086
-0.18226884138581945
0.21861919251664
-0.491225472313104
0.3365258160708153
-0.033339738528315475
-0.18524778689026916
-0.05913573286107004
-0.2739995082258185
-0.3183267887258538
-0.06391706074480136
-4.394107740988012
-0.02186560183737147
-4.35527090426371
3.8451431142107393
-11.965227878022564
-5.4558203027664804
3.555179672742302
-2.188961424194216
3.76240353409349
-4.767072229073809
-3.6882099527097862
-4.11355191084446
7.857368168361407
-2.1957956188797088
-5.891776132289134
0.43134836711376556
-0.7223958785198
-2.944178684592628
0.6260063399339818
-9.763544926112525
11.507052625123523
0.731657772892868
-0.4676320913210725
2.3178352322874427
0.2508286503414696
-1.1554963043823527
-0.5125485697520804
10.82104818461241
0.9007256838817861
13.42013868160573
6.046467247299457E-4
0.5299785383768092
2.713080969147524
-0.7750305291523972
17.23345678812809
-3.8457215459233476
-0.7220788095649324
0.4817533926458737
-2.1077107942446816
0.18746555534293663
-13.740692545037628
0.7451453751080066
-9.30424328425566
-0.5369649167073358
-4.998536189321955
-6.4432203875097285
0.9447715700147561
-4.879467194846086
5.790127226361276
-21.5512911603528
-9.477084371601372
3.565660744056174
-3.3042215676689453
4.2417042622561265
-6.871108694120633
32.36348948308656
-6.5549001914317495
13.89346261387804
-4.3211657557003065
-10.420344815233264
-0.013152419392492265
0.0031393308127052964
-0.02002689445225033
0.014726013443639406
5.491257770644372
-0.14714922159217458
0.011196647767939098
-0.007847785937232546
0.016704057855710965
-0.014733245800415308
-9.388354198559593
-0.015762952069042022
0.029686172468840217
-0.006587971837116035
-0.16416009540992227
0.09160690697219688
0.1300293413086517
0.16951403231102727
0.11661788780071614
17.153650273565304
0.5246729066086264
0.13907136136380369
0.0836093271364812
0.08114609953785397
0.10179409758095093
11.361236696085
0.11298870069121529
-0.3630470424218237
0.0534305727711145
0.5770579233199951
-8.82369886236248
-0.028539487677203764
0.38577293998441015
0.4931288260212897
-0.4385982192553402
0.45328066137999923
-0.18225522989981324
0.21870962170367422
-0.4899159120470634
0.3362269585120051
-0.03331693807608137
0.005369563011573184
-0.059045893098134815
-0.2746234182497417
-0.31805966102038863
-0.06390561794195077
-4.394137477753323
-0.02507583082036345
-4.355711350881749
3.8451459432983532
-11.965340159964777
-5.45580662442523
3.55508926600926
-2.190269630225932
3.7627026109622266
-4.767094773135513
-3.878743153413316
-4.113641459163113
7.85799157016761
-2.196060565712564
-5.8917646001803785
0.43137832015870775
-0.7192050537011592
-2.9437407199207746
0.626003046226621
-9.763432936488424
11.507066323392168
0.7317472355729366
-0.4663305917399632
2.3175375380858387
0.2508513086705703
-0.9660110279293667
-0.5124592952013769
10.820428328079405
0.9009911827401149
13.420150213619417
6.176547660181865E-4
0.5313796561711535
2.71327253149477
-0.775031787004936
17.23350571509758
-3.8457186656413938
-0.7220391024860772
0.4823226865981394
-2.1078399393772385
0.1874754053783936
-13.658025974386973
0.7451843459684713
-9.304514083157038
-0.5368492496481054
-4.998533233869377
-6.443228325514514
0.9439287985749374
-4.87958402185453
5.7901281871982535
-21.55132118767704
-9.47707753510761
3.5656377289162813
-3.3045683087975277
4.241785486801723
-6.8711147090463
32.312686424960276
-6.5549240005439255
13.893628416502956
-4.321236207696825
-10.420338272439157
-0.013182542988996524
-7.104816478530372E-5
-0.02046739694338658
0.014729295606047466
5.491145128916655
-0.14716290469178653
0.011106522939368214
-0.009156867794389692
0.017003203465314386
-0.014756033456724
-9.578917011993912
-0.015852741290628584
0.03030957897408805
-0.006854997209478611
-0.16417162808479324
0.09089611189181693
7.159346904753658E-4
0.16647654156982353
-0.10480200804167729
17.153258590569447
0.5245536156454651
-0.07870865587181201
0.06350935846833784
-0.1322543410549532
0.1011870495514559
11.15750685792124
0.11180511671858077
-0.5840258436843583
0.04766966092993082
0.5769578299009062
-9.046362764480701
-0.02856572155348452
0.38177638751387233
0.49249188772632463
-0.43859835169226935
0.45223373251462295
-0.18226838725680494
0.21857363500772828
-0.49133303012509005
0.33649059607818377
-0.033337046961253246
-0.3153098816608072
-0.05913373871693868
-0.2727614977328702
-0.31829160242433713
-0.06391643912479751
-4.394111477019476
-0.02103183261752939
-4.355061521338836
3.845148334918695
-11.964270736976326
-5.455819851514499
3.5552290286040336
-2.1888484843008458
3.762443352770419
-4.767074791310669
-3.556118722384391
-4.113553342841807
7.8561090727157525
-2.1958298503057123
-5.891775511051204
0.4313516094386734
-0.7232994030257097
-2.9443986549330363
0.6260010754449792
-9.76451594868014
11.507053079189852
0.7316060050806228
-0.4677702049977846
2.317800032514503
0.25083083552183566
-1.2926268161759409
-0.5125487400206018
10.822334175234408
0.9007555306225483
13.42013930303584
6.098992082211359E-4
0.5303927140738434
2.713090502423249
-0.7750284039127286
17.233249832250547
-3.845721363813433
-0.7220569322497352
0.48192053039662913
-2.1077137374250747
0.18746945598212722
-13.753916614379902
0.7451585083872497
-9.30399597227258
-0.5369172306157965
-4.99853594182366
-6.443220418759238
0.9452163345947018
-4.879383434071612
5.790129992401215
-21.550978698747535
-9.47708408787354
3.5656864227666953
-3.30413072180969
4.241719858231203
-6.871108639340958
32.40930501185429
-6.554897230615194
13.893047605496797
-4.321165904449591
-10.420344417410549
-0.013156156209721333
0.003973095866484275
-0.019817512598290725
0.014731235523144112
5.492214811853789
-0.14714967571790363
0.011246005855735326
-0.007734852593171099
0.016743877479909373
-0.014735808698526101
-9.256262968442151
-0.015764384893926744
0.028427078133985893
-0.006622210426148929
-0.16416071702955548
0.09155573097814299
0.1567340886249683
0.17076826023789052
0.1481804923846877
17.153695800301687
0.5246637790520164
0.17017722341189914
0.08513306355718624
0.109629397786012
0.10175860154680388
11.377578909979121
0.11296558897896611
-0.3344339094540908
0.05274320516149236
0.5770493381141765
-8.792124926093347
-0.02853966446690317
0.3857728750109459
0.49312880236297746
-0.4385980167863946
0.4532804814867676
-0.18226589793146564
0.21870974565071968
-0.4899162977160863
0.33622698782109356
-0.033317049439284166
0.005356832525529358
-0.05904600171864056
-0.274623415900193
-0.3180605975717717
-0.06391444852211867
-4.3941376545695725
-0.025075896282113225
-4.355711374551067
3.8451461457939207
-11.96534033985801
-5.4558173640712075
3.555089390216105
-2.1902700174291696
3.7627026403578037
-4.76709488451195
-3.878755883899358
-4.113641567805407
7.857991572517155
-2.196061503367339
-5.891773520632666
0.4313781417993378
-0.7192051194450804
-2.943740743770287
0.6260032504856194
-9.763433114139875
11.507055546969449
0.7317473607394139
-0.46633098187847677
2.3175375677097416
0.2508511963175902
-0.9660239046077939
-0.5124594047981232
10.820428330399665
0.9009902376155836
13.420141280166483
6.176564361267887E-4
0.5313796470202765
2.713272530771402
-0.7750317880052662
17.23350564163341
-3.8457210972765856
-0.7220390991836271
0.4823226745985163
-2.1078399385184916
0.1874754065476925
-13.658025471043358
0.7451843469083892
-9.304514082200246
-0.5368492617759344
-4.9985359233965765
-6.443228336401309
0.9439287744357705
-4.87958402377569
5.790128203526114
-21.551321031434583
-9.477082859087636
3.5656377480441646
-3.304568374579847
4.241785490606099
-6.871114714649967
32.31268735269147
-6.554924006795882
13.893628414462087
-4.321236332236708
-10.420343264022302
-0.013182366172741204
-7.098270303545663E-5
-0.02046737327406867
0.01472909311048023
5.491145308809887
-0.14715216504582274
0.011106398732525983
-0.009156480591152196
0.017003174069735585
-0.014755922080282388
-9.578904281507857
-0.015852632648346087
0.030309576624538887
-0.0068540595547058585
-0.16416270763250937
0.09123383304186305
8.797833747892839E-4
0.16681612816623803
-0.10480001506538765
17.15359830637146
0.52466056564226
-0.07870706241182979
0.06384281773888972
-0.13225411755647476
0.10152563566210568
11.157508187321815
0.1121438365921663
-0.584025839282312
0.04798693110400713
0.5770503289224109
-9.046023033748526
-0.028539490509130974
0.3857729282763383
0.4931299944064839
-0.43859841418040235
0.45328260160999195
-0.1822469131703292
0.21870934345942147
-0.4899156145241249
0.3362259186905094
-0.03331688154548721
0.005371179508608553
-0.05904554875066635
-0.2746236165919007
-0.31806010667977735
-0.06389456080386195
-4.394137737657129
-0.025075858624863768
-4.3557125215107915
3.845146394005108
-11.965342459944855
-5.45579837932831
3.5550896676602775
-2.1902703255808778
3.7627036622553987
-4.767094995046739
-3.878741537148183
-4.113641950359832
7.857991773198326
-2.1960613946218257
-5.891753632916458
0.4313783150931012
-0.7192050662886222
-2.94373956165179
0.6260028550470798
-9.763431016663471
11.50707449096153
0.7317469611740345
-0.46633030438712453
2.317536508583472
0.25085136379108197
-0.9660096876260762
-0.5124589538461742
10.820428131918407
0.9009907247438746
13.4201611858869
6.176545348026735E-4
0.531379660444849
2.7132724113358706
-0.7750317795281899
17.233505405867223
-3.8457141293571353
-0.7220390860910457
0.4823226914446519
-2.107839832983898
0.18747539886928194
-13.658018583848254
0.7451843124348143
-9.30451405988447
-0.536849185990269
-4.998529263347732
-6.443228285866427
0.9439287991413027
-4.8795837540518665
5.790128088694101
-21.55132105278492
-9.477073608543497
3.565637641498858
-3.3045682081441288
4.241785281475254
-6.871114662951689
32.31268935886326
-6.554923873097676
13.893628412349525
-4.321236193577784
-10.420332319764071
-0.013182540130778065
-7.103596844308846E-5
-0.02046856531760087
0.014729490504637238
5.491143188686664
-0.14717114980712087
0.011106800924032234
-0.009157163783883237
0.01700424320043965
-0.01475608997427261
-9.57891862854679
-0.015853085616554487
0.030309777316245807
-0.0068545504476503144
-0.16418259535083013
0.09100110044670541
7.615661339415911E-4
0.1665721776985368
-0.10483247113250571
17.153331261092898
0.5245388408958818
-0.0787380249704647
0.06360092385376215
-0.13227283356192301
0.10129271924937752
11.157506730849331
0.11190754996274074
-0.5840261934650929
0.047757114798914924
0.5769540699542004
-9.046290204435412
-0.02853945425582211
0.38577294254445604
0.49312881930922253
-0.43859823129011
0.4532805009900718
-0.18225523235642105
0.21870962176495223
-0.4899158985844107
0.3362269646073332
-0.03331691882719059
0.00536742284252222
-0.059045883922836495
-0.27462341620198766
-0.3180594790434051
-0.06390613183667078
-4.394137444348627
-0.02507582832580054
-4.355711357601384
3.845145931280461
-11.9653403203547
-5.455806665628044
3.555089266196609
-2.1902696174420795
3.7627026171113904
-4.767094753895386
-3.8787452935823694
-4.113641450002484
7.857991572215362
-2.1960603842220032
-5.891765160829618
0.4313783544538311
-0.7192050509543753
-2.9437407265936946
0.6260030334290787
-9.763433094774896
11.507066306733213
0.7317472353409733
-0.46633057757242957
2.3175375441712855
0.2508513284645412
-0.96601315074381
-0.512459285587935
10.820428330100041
0.9009913686313491
13.420149672211991
6.176286560866893E-4
0.5313796413030966
2.7132725278207777
-0.7750317577750122
17.233505647663925
-3.845721426632438
-0.7220390818295394
0.48232262015293037
-2.107839934733564
0.1874753893388073
-13.6580268042366
0.7451843307100717
-9.30451408229286
-0.53684941053396
-4.99853561061426
-6.443228327411406
0.9439287979800266
-4.8795840227708815
5.790128191782802
-21.551321049218362
-9.47707656853204
3.5656377321793093
-3.3045683168045485
4.2417854883945
-6.871114710437306
32.312686178073136
-6.554924002576668
13.893628414736082
-4.321236194332548
-10.42033766388182
-0.013182576393692445
-7.105065934813752E-5
-0.020467390223757292
0.014729307623934148
5.4911452893065835
-0.14716286348898433
0.011106522752019597
-0.009156880578246032
0.017003197316147505
-0.014756052696857319
-9.57891487182486
-0.015852750451263553
0.030309576926333796
-0.006855178700039239
-0.1641710674355561
0.0908827283879564
6.963612910401826E-4
0.16646276587370526
-0.10480210092424286
17.153244843337063
0.5245862359475998
-0.07870865109918164
0.06349582770064184
-0.13225429367002636
0.10117348191903049
11.157507107377016
0.11179144057989081
-0.5840258398324326
0.047660689575711325
0.5769936394726318
-9.046376498146856
-0.02853964449539124
0.3857729166775493
0.4931288234784189
-0.4385980648807521
0.4532804816207642
-0.18224728670392748
0.21870969571717325
-0.4899161492402197
0.33622696624191345
-0.03331703706470929
0.005368107350238289
-0.05904598165389811
-0.2746234159109299
-0.3180604142797268
-0.06389394363812755
-4.394137634592865
-0.02507585436044955
-4.355711353434339
3.845146097695059
-11.96534033972403
-5.455798731650111
3.55508934022453
-2.190269868570025
3.7627026187662755
-4.767094872134816
-3.8787446084202566
-4.1136415477369335
7.857991572506428
-2.1960613197719216
-5.891752985321057
0.43137816152608477
-0.7192050775576848
-2.9437407228719095
0.6260032029217317
-9.763433114004707
11.507074106452395
0.7317473111790874
-0.46633083420902255
2.317537546331587
0.2508512085355261
-0.9660127333113202
-0.512459384967463
10.820428330388882
0.9009904196120108
13.420161789272424
6.176710336356876E-4
0.5313796654286723
2.7132725425458832
-0.7750318184719278
17.233505641653267
-3.845712503666286
-0.722039127097853
0.4823227566879485
-2.107839950486782
0.1874754157119983
-13.658018680128547
0.7451843603154558
-9.304514082203054
-0.5368491498247447
-4.998527200074289
-6.443228328360431
0.9439287972618849
-4.879584017018202
5.790128186196497
-21.551321031552565
-9.477074187464135
3.5656377283888823
-3.304568313577061
4.241785483223844
-6.871114709818684
32.31268950482189
-6.554923999642055
13.89362841446805
-4.321236253239211
-10.420332596795197
-0.013182386149447422
-7.102462469911105E-5
-0.0204673943907956
0.014729141209345695
5.491145308675892
-0.1471707974669134
0.01110644872409973
-0.009156629450295021
0.017003195661264413
-0.01475593445742037
-9.578915556986978
-0.015852652716818932
0.030309576635276395
-0.006854243150117946
-0.16418324294412306
0.09102698804491474
7.960228903556875E-4
0.16660918872669334
-0.10480047754171255
17.15339124008392
0.5245318950654076
-0.07870770077605033
0.0636381268823348
-0.13225428108809
0.1013186933118562
11.157507032780794
0.11193695127275971
-0.5840258393008013
0.047783758891770306
0.5769442516349503
-9.046230100044085
