0.43878779864839823	
-0.3425080261808986	
0.41017059379931775	
-0.11062245092133594	
0.4045198004280077	
0.13154000354381457	
-0.36644976524466855	
0.34158480653557655	
-0.17431539768008164	
-0.20839804409207496	
0.2344667118267243	
0.3780364853824889	
-0.24616523019625047	
0.432518386880516	
-0.4408653440301591	
-0.8852683985284024	
-8.486225667034157	
0.8572343409482236	
-0.012647281230751437	
0.8476155853217178	
0.48585127212796164	
-2.302521934071571	
-0.06844291382700973	
-9.604990977362725	
9.711322071725093	
-0.1800639575806787	
-0.16142813325601876	
-2.049109586592083	
-0.6766767074462422	
0.44999186543686426	
-0.5962349032634823	
4.473239325570591	
8.755235012164807	
-0.44347478879942187	
-0.49245937618727526	
0.49592121902937003	
-3.5804119034154196	
-0.529023511493741	
-15.928089081152109	
12.2099459867468	
-0.41191095998816046	
-0.056358115272139936	
-2.00618896864596	
-0.45854431350827557	
0.012483551581563786	
-0.326445749558017	
5.864148249850358	
-1.6114278984741852	
-0.23642281113727548	
-0.08801199806990558	
0.18219096873822724	
-2.1754049915044797	
0.14104565675787098	
-2.7521350951163406	
1.8551493727609316	
-0.42991987734789805	
0.10224385945888602	
-0.345897991887792	
-0.5458598810133224	
-0.715687451860303	
1.0469903752584004	
8.601922194958282	
-22.44580523504979	
-0.012691798446770253	
-2.172011049331223	
3.438170457770446	
3.4064165440474032	
-0.016114639677093895	
9.531926470305672	
-0.7668059117857999	
1.7449690075847575	
-0.6332110456917135	
1.4717356496239256	
1.2166970144492875	
-3.6628485508144286	
-3.210800609093336	
-6.195192768123378	
-4.80523306333123	
-3.281029282930024	
-3.663413463323047	
-2.3520518807413664	
-3.5550909868043172	
-3.3053507768725243	
3.8047849598819345	
-6.344972711103695	
-2.9930076014315126	
-3.341191092709296	
-3.601929843220778	
-3.2011380167418784	
-4.262893029520737	
0.5191116195913202	
-11.15614440973472	
15.22023536532274	
0.2880095011611701	
-0.1695385350891525	
2.2562555728127958	
-1.7000049833192679	
0.29308496456494937	
-10.577105054083317	
-10.040912431171497	
0.9511709136730789	
-0.015473108065386307	
-0.3750662094018136	
0.5667592679986531	
0.8117955712467558	
8.30844471509986	
============================================
