-0.3123856334369989	
0.19164418404155592	
0.3983307105564733	
0.41141087468623816	
-0.2703229852158914	
-0.18223793996561766	
-0.1549056129164974	
0.33878476398632096	
0.09350886992864615	
-0.29083132216599383	
-0.03338132202845834	
0.24790873712389827	
0.4556318000154508	
0.3903290986790362	
-0.3566853275357482	
1.3740921205402048	
0.4877910509551021	
1.0700019794597522	
1.1777051570970662	
2.425263367543817	
-1.193594815559326	
2.7305608683455054	
-1.1450436958534065	
0.8236672341292157	
0.10364718173363113	
2.0235635374908143	
0.21344160761213277	
-2.367077581701904	
-0.5938350527971685	
-0.1631162996289307	
2.878937559966653	
0.9771710913988977	
0.44423131617480993	
2.1278992479286183	
3.371764003181502	
-0.19101800532927862	
0.7898104849330353	
-0.24400934560369814	
0.5066678654668352	
-0.26290359434927885	
1.2848027956622559	
-0.32495853341331066	
1.273711711404997	
0.03621239711066285	
-0.2831624840926896	
-4.474472668394178	
0.7613156009199054	
0.15066787929535344	
-2.145569958191134	
2.9489182026638914	
-0.4016736569471643	
0.0769588758497118	
-1.3383740412503236	
1.1682518130362531	
-1.1400543879828873	
0.5078616385241802	
-0.5002211655888589	
6.117394275881304	
-0.5151789225844327	
-0.5926219593026159	
6.547450221283606	
-1.3371817046542258	
-0.5392105635995365	
2.500109626962134	
-5.3742120585223345	
1.0108669607106795	
-2.403231977714327	
0.060370804944478974	
-1.11089000038252	
-0.7751840349347321	
-0.6284546455237555	
-0.4987236659366658	
5.338949138928525	
0.07166059889793369	
0.5498171758691447	
-3.1661956016483184	
-0.6118701537904886	
-0.13369620185357634	
-2.218174028131682	
-0.5569527586778468	
-1.0069456025182362	
0.6901067229243991	
-0.005179323323205855	
-0.8645270405671358	
-0.27935239328730205	
-1.0933774267553076	
-0.6256375874399427	
-9.335120867355776	
-0.5438468752214056	
-0.5353719974673188	
-5.731150930046107	
-1.0321860719441323	
-0.5372768220730231	
-2.3237153879796315	
-5.3697402776966765	
1.4464723495786396	
-2.314745309464573	
1.6105443988126074	
-1.3534400829315034	
0.98513711941058	
-1.556364406798997	
0.39924017732944755	
8.218977359326264	
0.8439950541282565	
0.8065975872276703	
0.31350342706529966	
============================================
