-0.2478784702100627
-0.4876887717371261
0.25280723198023014
0.15108796169142102
0.23904116319523117
-0.011312264655930604
0.2985809268340982
-0.38079496728392304
-0.10515607206713518
0.29126871823493994
-0.24413301394208842
0.35867761924721087
0.4881266996449416
0.45366539135524264
0.21609864576661508
9.330087470633435
-9.145131645164918
9.181523288390315
9.095847230118073
9.308747486979481
9.296119886413997
-9.149318717257687
9.216755531564033
9.257230720711377
9.219572483273014
-9.28373046286513
9.148071947259384
9.191914081565876
-14.928554644047232
9.275202120730668
0.9876225544279122
-0.9880506697494368
0.987963566123349
0.9881709424854958
0.9876701285886771
0.9876984990918012
-0.9880405747077624
0.9878805964027769
0.9877869057027344
0.9878740198108485
-0.9877264938948632
0.9880435786730862
0.9879389583165739
-49.19112088050016
0.9877458564701299
-0.5687160884242498
0.568652503915724
-0.5686655606278286
-0.5686343729373283
-0.5687090951043992
-0.568704916147699
0.5686540203240177
-0.5686779402917918
-0.5686918527949877
-0.5686789191825825
0.5687007862576594
-0.568653569176047
-0.5686692381067365
12.833631670769332
-0.5686979261702096
0.8119189845041885
-0.8112771636317191
0.8114081969301175
0.8110958502744673
0.8118479344194837
0.8118055321204992
-0.8112923618712004
0.811532796561118
0.8116732459748512
0.8115426640171857
-0.811763667771743
0.8112878396817697
0.8114451734702249
-15.760672083309387
0.8117346986197338
0.07010528450227639
-0.07004055215924523
0.07005376345215249
0.07002227514995893
0.07009811593367954
0.07009383808461635
-0.0700420843901256
0.07006632816379164
0.0700804936123231
0.07006732329158828
-0.07008961473766182
0.07004162847637173
0.0700574919795699
-0.49445242701671777
0.07008669241391079
-0.07504467862658343
0.07497458620237822
-0.07498889135586052
-0.0749547959765855
-0.07503691642298557
-0.07503228432770666
0.07497624529574175
-0.07500249643312203
-0.07501783483603394
-0.0750035739597651
0.07502771125219333
-0.07497575163412123
-0.07499292860348541
0.3932939420530049
-0.07502454693807091
-1.2455547758256058
-0.2478784702100627
-0.4876887717371261
0.25280723198023014
0.15108796169142102
0.23904116319523117
-0.011312264655930604
0.2985809268340982
-0.38079496728392304
-0.10515607206713518
0.29126871823493994
-0.24413301394208842
0.35867761924721087
0.4881266996449416
0.45366539135524264
0.21609864576661508
9.330087470633435
-9.145131645164918
9.181523288390315
9.095847230118073
9.308747486979481
9.296119886413997
-9.149318717257687
9.216755531564033
9.257230720711377
9.219572483273014
-9.28373046286513
9.148071947259384
9.191914081565876
-14.928554644047232
9.275202120730668
0.9876225544279122
-0.9880506697494368
0.987963566123349
0.9881709424854958
0.9876701285886771
0.9876984990918012
-0.9880405747077624
0.9878805964027769
0.9877869057027344
0.9878740198108485
-0.9877264938948632
0.9880435786730862
0.9879389583165739
-49.19112088050016
0.9877458564701299
-0.5687160884242498
0.568652503915724
-0.5686655606278286
-0.5686343729373283
-0.5687090951043992
-0.568704916147699
0.5686540203240177
-0.5686779402917918
-0.5686918527949877
-0.5686789191825825
0.5687007862576594
-0.568653569176047
-0.5686692381067365
12.833631670769332
-0.5686979261702096
0.8119189845041885
-0.8112771636317191
0.8114081969301175
0.8110958502744673
0.8118479344194837
0.8118055321204992
-0.8112923618712004
0.811532796561118
0.8116732459748512
0.8115426640171857
-0.811763667771743
0.8112878396817697
0.8114451734702249
-15.760672083309387
0.8117346986197338
0.07010528450227639
-0.07004055215924523
0.07005376345215249
0.07002227514995893
0.07009811593367954
0.07009383808461635
-0.0700420843901256
0.07006632816379164
0.0700804936123231
0.07006732329158828
-0.07008961473766182
0.07004162847637173
0.0700574919795699
-0.49445242701671777
0.07008669241391079
-0.07504467862658343
0.07497458620237822
-0.07498889135586052
-0.0749547959765855
-0.07503691642298557
-0.07503228432770666
0.07497624529574175
-0.07500249643312203
-0.07501783483603394
-0.0750035739597651
0.07502771125219333
-0.07497575163412123
-0.07499292860348541
0.3932939420530049
-0.07502454693807091
-1.2455547758256058
-0.2478784702100627
-0.4876887717371261
0.25280723198023014
0.15108796169142102
0.23904116319523117
-0.011312264655930604
0.2985809268340982
-0.38079496728392304
-0.10515607206713518
0.29126871823493994
-0.24413301394208842
0.35867761924721087
0.4881266996449416
0.45366539135524264
0.21609864576661508
9.330087470633435
-9.145131645164918
9.181523288390315
9.095847230118073
9.308747486979481
9.296119886413997
-9.149318717257687
9.216755531564033
9.257230720711377
9.219572483273014
-9.28373046286513
9.148071947259384
9.191914081565876
-14.928554644047232
9.275202120730668
0.9876225544279122
-0.9880506697494368
0.987963566123349
0.9881709424854958
0.9876701285886771
0.9876984990918012
-0.9880405747077624
0.9878805964027769
0.9877869057027344
0.9878740198108485
-0.9877264938948632
0.9880435786730862
0.9879389583165739
-49.19112088050016
0.9877458564701299
-0.5687160884242498
0.568652503915724
-0.5686655606278286
-0.5686343729373283
-0.5687090951043992
-0.568704916147699
0.5686540203240177
-0.5686779402917918
-0.5686918527949877
-0.5686789191825825
0.5687007862576594
-0.568653569176047
-0.5686692381067365
12.833631670769332
-0.5686979261702096
0.8119189845041885
-0.8112771636317191
0.8114081969301175
0.8110958502744673
0.8118479344194837
0.8118055321204992
-0.8112923618712004
0.811532796561118
0.8116732459748512
0.8115426640171857
-0.811763667771743
0.8112878396817697
0.8114451734702249
-15.760672083309387
0.8117346986197338
0.07010528450227639
-0.07004055215924523
0.07005376345215249
0.07002227514995893
0.07009811593367954
0.07009383808461635
-0.0700420843901256
0.07006632816379164
0.0700804936123231
0.07006732329158828
-0.07008961473766182
0.07004162847637173
0.0700574919795699
-0.49445242701671777
0.07008669241391079
-0.07504467862658343
0.07497458620237822
-0.07498889135586052
-0.0749547959765855
-0.07503691642298557
-0.07503228432770666
0.07497624529574175
-0.07500249643312203
-0.07501783483603394
-0.0750035739597651
0.07502771125219333
-0.07497575163412123
-0.07499292860348541
0.3932939420530049
-0.07502454693807091
-1.2455547758256058
-0.2478784702100627
-0.4876887717371261
0.25280723198023014
0.15108796169142102
0.23904116319523117
-0.011312264655930604
0.2985809268340982
-0.38079496728392304
-0.10515607206713518
0.29126871823493994
-0.24413301394208842
0.35867761924721087
0.4881266996449416
0.45366539135524264
0.21609864576661508
9.330087470633435
-9.145131645164918
9.181523288390315
9.095847230118073
9.308747486979481
9.296119886413997
-9.149318717257687
9.216755531564033
9.257230720711377
9.219572483273014
-9.28373046286513
9.148071947259384
9.191914081565876
-14.928554644047232
9.275202120730668
0.9876225544279122
-0.9880506697494368
0.987963566123349
0.9881709424854958
0.9876701285886771
0.9876984990918012
-0.9880405747077624
0.9878805964027769
0.9877869057027344
0.9878740198108485
-0.9877264938948632
0.9880435786730862
0.9879389583165739
-49.19112088050016
0.9877458564701299
-0.5687160884242498
0.568652503915724
-0.5686655606278286
-0.5686343729373283
-0.5687090951043992
-0.568704916147699
0.5686540203240177
-0.5686779402917918
-0.5686918527949877
-0.5686789191825825
0.5687007862576594
-0.568653569176047
-0.5686692381067365
12.833631670769332
-0.5686979261702096
0.8119189845041885
-0.8112771636317191
0.8114081969301175
0.8110958502744673
0.8118479344194837
0.8118055321204992
-0.8112923618712004
0.811532796561118
0.8116732459748512
0.8115426640171857
-0.811763667771743
0.8112878396817697
0.8114451734702249
-15.760672083309387
0.8117346986197338
0.07010528450227639
-0.07004055215924523
0.07005376345215249
0.07002227514995893
0.07009811593367954
0.07009383808461635
-0.0700420843901256
0.07006632816379164
0.0700804936123231
0.07006732329158828
-0.07008961473766182
0.07004162847637173
0.0700574919795699
-0.49445242701671777
0.07008669241391079
-0.07504467862658343
0.07497458620237822
-0.07498889135586052
-0.0749547959765855
-0.07503691642298557
-0.07503228432770666
0.07497624529574175
-0.07500249643312203
-0.07501783483603394
-0.0750035739597651
0.07502771125219333
-0.07497575163412123
-0.07499292860348541
0.3932939420530049
-0.07502454693807091
-1.2455547758256058
-0.2478784702100627
-0.4876887717371261
0.25280723198023014
0.15108796169142102
0.23904116319523117
-0.011312264655930604
0.2985809268340982
-0.38079496728392304
-0.10515607206713518
0.29126871823493994
-0.24413301394208842
0.35867761924721087
0.4881266996449416
0.45366539135524264
0.21609864576661508
9.330087470633435
-9.145131645164918
9.181523288390315
9.095847230118073
9.308747486979481
9.296119886413997
-9.149318717257687
9.216755531564033
9.257230720711377
9.219572483273014
-9.28373046286513
9.148071947259384
9.191914081565876
-14.928554644047232
9.275202120730668
0.9876225544279122
-0.9880506697494368
0.987963566123349
0.9881709424854958
0.9876701285886771
0.9876984990918012
-0.9880405747077624
0.9878805964027769
0.9877869057027344
0.9878740198108485
-0.9877264938948632
0.9880435786730862
0.9879389583165739
-49.19112088050016
0.9877458564701299
-0.5687160884242498
0.568652503915724
-0.5686655606278286
-0.5686343729373283
-0.5687090951043992
-0.568704916147699
0.5686540203240177
-0.5686779402917918
-0.5686918527949877
-0.5686789191825825
0.5687007862576594
-0.568653569176047
-0.5686692381067365
12.833631670769332
-0.5686979261702096
0.8119189845041885
-0.8112771636317191
0.8114081969301175
0.8110958502744673
0.8118479344194837
0.8118055321204992
-0.8112923618712004
0.811532796561118
0.8116732459748512
0.8115426640171857
-0.811763667771743
0.8112878396817697
0.8114451734702249
-15.760672083309387
0.8117346986197338
0.07010528450227639
-0.07004055215924523
0.07005376345215249
0.07002227514995893
0.07009811593367954
0.07009383808461635
-0.0700420843901256
0.07006632816379164
0.0700804936123231
0.07006732329158828
-0.07008961473766182
0.07004162847637173
0.0700574919795699
-0.49445242701671777
0.07008669241391079
-0.07504467862658343
0.07497458620237822
-0.07498889135586052
-0.0749547959765855
-0.07503691642298557
-0.07503228432770666
0.07497624529574175
-0.07500249643312203
-0.07501783483603394
-0.0750035739597651
0.07502771125219333
-0.07497575163412123
-0.07499292860348541
0.3932939420530049
-0.07502454693807091
-1.2455547758256058
-0.24787846166568453
-0.4876887934612027
0.25280724832832535
0.151087977777468
0.23904117739678588
-0.011312253458425644
0.2985809169760374
-0.3807949589064772
-0.10515606146875547
0.2912687345906356
-0.2441330287718085
0.3586776380371053
0.48812672011456876
0.4536653913552394
0.21609866011885628
9.330087462089057
-9.145131623440841
9.18152327204222
9.095847214032027
9.308747472777926
9.296119875216492
-9.149318707399626
9.216755523186587
9.257230710112998
9.219572466917318
-9.28373044803541
9.14807192846949
9.191914061096249
-14.928554644047228
9.275202106378426
0.9876225630758948
-0.9880506917369274
0.9879635826696721
0.9881709587665931
0.9876701429624319
0.9876985104250808
-0.9880405846853566
0.987880604881803
0.9877869164296241
0.9878740363648643
-0.9877265089044002
0.9880435976908164
0.9879389790344043
-49.19112088050016
0.9877458709963983
-0.5687160857496154
0.5686524971154675
-0.5686655555104079
-0.5686343679019362
-0.5687090906589068
-0.5687049126425602
0.5686540172381631
-0.5686779376694119
-0.5686918494773922
-0.5686789140627826
0.5687007816155334
-0.5686535632942734
-0.5686692316991585
12.83363167076933
-0.5686979216775482
0.8119189821293058
-0.8112771575935811
0.8114081923862164
0.8110958458034017
0.8118479304722067
0.8118055290081884
-0.8112923591311837
0.8115327942326336
0.8116732430290653
0.8115426594711721
-0.8117636636498695
0.8112878344591783
0.8114451677807571
-15.760672083309386
0.811734694630574
0.07010527595789821
-0.07004053043516864
0.07005374710405729
0.07002225906391196
0.07009810173212482
0.07009382688711138
-0.0700420745320648
0.07006631978634578
0.0700804830139434
0.0700673069358926
-0.07008959990794172
0.07004160968647734
0.07005747150994272
-0.49445242701671455
0.07008667806166959
-0.07405963291865206
0.07497487603906622
-0.07400395122078499
-0.07396985239917717
-0.07405194714556516
-0.07404727447891063
0.07497637679551883
-0.0740174485351253
-0.07403281692166036
-0.07401863388357903
0.07502790894791526
-0.07399084455548409
-0.07400804417465523
0.39427910314604003
-0.07403957972870957
-1.2445696147325624
-0.2478784702100627
-0.4876887717371261
0.25280723198023014
0.15108796169142102
0.23904116319523117
-0.011312264655930604
0.2985809268340982
-0.38079496728392304
-0.10515607206713518
0.29126871823493994
-0.24413301394208842
0.35867761924721087
0.4881266996449416
0.45366539135524264
0.21609864576661508
9.330087470633435
-9.145131645164918
9.181523288390315
9.095847230118073
9.308747486979481
9.296119886413997
-9.149318717257687
9.216755531564033
9.257230720711377
9.219572483273014
-9.28373046286513
9.148071947259384
9.191914081565876
-14.928554644047232
9.275202120730668
0.9876225544279122
-0.9880506697494368
0.987963566123349
0.9881709424854958
0.9876701285886771
0.9876984990918012
-0.9880405747077624
0.9878805964027769
0.9877869057027344
0.9878740198108485
-0.9877264938948632
0.9880435786730862
0.9879389583165739
-49.19112088050016
0.9877458564701299
-0.5687160884242498
0.568652503915724
-0.5686655606278286
-0.5686343729373283
-0.5687090951043992
-0.568704916147699
0.5686540203240177
-0.5686779402917918
-0.5686918527949877
-0.5686789191825825
0.5687007862576594
-0.568653569176047
-0.5686692381067365
12.833631670769332
-0.5686979261702096
0.8119189845041885
-0.8112771636317191
0.8114081969301175
0.8110958502744673
0.8118479344194837
0.8118055321204992
-0.8112923618712004
0.811532796561118
0.8116732459748512
0.8115426640171857
-0.811763667771743
0.8112878396817697
0.8114451734702249
-15.760672083309387
0.8117346986197338
0.07010528450227639
-0.07004055215924523
0.07005376345215249
0.07002227514995893
0.07009811593367954
0.07009383808461635
-0.0700420843901256
0.07006632816379164
0.0700804936123231
0.07006732329158828
-0.07008961473766182
0.07004162847637173
0.0700574919795699
-0.49445242701671777
0.07008669241391079
-0.07504467862658343
0.07497458620237822
-0.07498889135586052
-0.0749547959765855
-0.07503691642298557
-0.07503228432770666
0.07497624529574175
-0.07500249643312203
-0.07501783483603394
-0.0750035739597651
0.07502771125219333
-0.07497575163412123
-0.07499292860348541
0.3932939420530049
-0.07502454693807091
-1.2455547758256058
-0.2478784702100627
-0.4876887717371261
0.25280723198023014
0.15108796169142102
0.23904116319523117
-0.011312264655930604
0.2985809268340982
-0.38079496728392304
-0.10515607206713518
0.29126871823493994
-0.24413301394208842
0.35867761924721087
0.4881266996449416
0.45366539135524264
0.21609864576661508
9.330087470633435
-9.145131645164918
9.181523288390315
9.095847230118073
9.308747486979481
9.296119886413997
-9.149318717257687
9.216755531564033
9.257230720711377
9.219572483273014
-9.28373046286513
9.148071947259384
9.191914081565876
-14.928554644047232
9.275202120730668
0.9876225544279122
-0.9880506697494368
0.987963566123349
0.9881709424854958
0.9876701285886771
0.9876984990918012
-0.9880405747077624
0.9878805964027769
0.9877869057027344
0.9878740198108485
-0.9877264938948632
0.9880435786730862
0.9879389583165739
-49.19112088050016
0.9877458564701299
-0.5687160884242498
0.568652503915724
-0.5686655606278286
-0.5686343729373283
-0.5687090951043992
-0.568704916147699
0.5686540203240177
-0.5686779402917918
-0.5686918527949877
-0.5686789191825825
0.5687007862576594
-0.568653569176047
-0.5686692381067365
12.833631670769332
-0.5686979261702096
0.8119189845041885
-0.8112771636317191
0.8114081969301175
0.8110958502744673
0.8118479344194837
0.8118055321204992
-0.8112923618712004
0.811532796561118
0.8116732459748512
0.8115426640171857
-0.811763667771743
0.8112878396817697
0.8114451734702249
-15.760672083309387
0.8117346986197338
0.07010528450227639
-0.07004055215924523
0.07005376345215249
0.07002227514995893
0.07009811593367954
0.07009383808461635
-0.0700420843901256
0.07006632816379164
0.0700804936123231
0.07006732329158828
-0.07008961473766182
0.07004162847637173
0.0700574919795699
-0.49445242701671777
0.07008669241391079
-0.07504467862658343
0.07497458620237822
-0.07498889135586052
-0.0749547959765855
-0.07503691642298557
-0.07503228432770666
0.07497624529574175
-0.07500249643312203
-0.07501783483603394
-0.0750035739597651
0.07502771125219333
-0.07497575163412123
-0.07499292860348541
0.3932939420530049
-0.07502454693807091
-1.2455547758256058
-0.2478784702100627
-0.4876887717371261
0.25280723198023014
0.15108796169142102
0.23904116319523117
-0.011312264655930604
0.2985809268340982
-0.38079496728392304
-0.10515607206713518
0.29126871823493994
-0.24413301394208842
0.35867761924721087
0.4881266996449416
0.45366539135524264
0.21609864576661508
9.330087470633435
-9.145131645164918
9.181523288390315
9.095847230118073
9.308747486979481
9.296119886413997
-9.149318717257687
9.216755531564033
9.257230720711377
9.219572483273014
-9.28373046286513
9.148071947259384
9.191914081565876
-14.928554644047232
9.275202120730668
0.9876225544279122
-0.9880506697494368
0.987963566123349
0.9881709424854958
0.9876701285886771
0.9876984990918012
-0.9880405747077624
0.9878805964027769
0.9877869057027344
0.9878740198108485
-0.9877264938948632
0.9880435786730862
0.9879389583165739
-49.19112088050016
0.9877458564701299
-0.5687160884242498
0.568652503915724
-0.5686655606278286
-0.5686343729373283
-0.5687090951043992
-0.568704916147699
0.5686540203240177
-0.5686779402917918
-0.5686918527949877
-0.5686789191825825
0.5687007862576594
-0.568653569176047
-0.5686692381067365
12.833631670769332
-0.5686979261702096
0.8119189845041885
-0.8112771636317191
0.8114081969301175
0.8110958502744673
0.8118479344194837
0.8118055321204992
-0.8112923618712004
0.811532796561118
0.8116732459748512
0.8115426640171857
-0.811763667771743
0.8112878396817697
0.8114451734702249
-15.760672083309387
0.8117346986197338
0.07010528450227639
-0.07004055215924523
0.07005376345215249
0.07002227514995893
0.07009811593367954
0.07009383808461635
-0.0700420843901256
0.07006632816379164
0.0700804936123231
0.07006732329158828
-0.07008961473766182
0.07004162847637173
0.0700574919795699
-0.49445242701671777
0.07008669241391079
-0.07504467862658343
0.07497458620237822
-0.07498889135586052
-0.0749547959765855
-0.07503691642298557
-0.07503228432770666
0.07497624529574175
-0.07500249643312203
-0.07501783483603394
-0.0750035739597651
0.07502771125219333
-0.07497575163412123
-0.07499292860348541
0.3932939420530049
-0.07502454693807091
-1.2455547758256058
-0.2478784702100627
-0.4876887717371261
0.25280723198023014
0.15108796169142102
0.23904116319523117
-0.011312264655930604
0.2985809268340982
-0.38079496728392304
-0.10515607206713518
0.29126871823493994
-0.24413301394208842
0.35867761924721087
0.4881266996449416
0.45366539135524264
0.21609864576661508
9.330087470633435
-9.145131645164918
9.181523288390315
9.095847230118073
9.308747486979481
9.296119886413997
-9.149318717257687
9.216755531564033
9.257230720711377
9.219572483273014
-9.28373046286513
9.148071947259384
9.191914081565876
-14.928554644047232
9.275202120730668
0.9876225544279122
-0.9880506697494368
0.987963566123349
0.9881709424854958
0.9876701285886771
0.9876984990918012
-0.9880405747077624
0.9878805964027769
0.9877869057027344
0.9878740198108485
-0.9877264938948632
0.9880435786730862
0.9879389583165739
-49.19112088050016
0.9877458564701299
-0.5687160884242498
0.568652503915724
-0.5686655606278286
-0.5686343729373283
-0.5687090951043992
-0.568704916147699
0.5686540203240177
-0.5686779402917918
-0.5686918527949877
-0.5686789191825825
0.5687007862576594
-0.568653569176047
-0.5686692381067365
12.833631670769332
-0.5686979261702096
0.8119189845041885
-0.8112771636317191
0.8114081969301175
0.8110958502744673
0.8118479344194837
0.8118055321204992
-0.8112923618712004
0.811532796561118
0.8116732459748512
0.8115426640171857
-0.811763667771743
0.8112878396817697
0.8114451734702249
-15.760672083309387
0.8117346986197338
0.07010528450227639
-0.07004055215924523
0.07005376345215249
0.07002227514995893
0.07009811593367954
0.07009383808461635
-0.0700420843901256
0.07006632816379164
0.0700804936123231
0.07006732329158828
-0.07008961473766182
0.07004162847637173
0.0700574919795699
-0.49445242701671777
0.07008669241391079
-0.07504467862658343
0.07497458620237822
-0.07498889135586052
-0.0749547959765855
-0.07503691642298557
-0.07503228432770666
0.07497624529574175
-0.07500249643312203
-0.07501783483603394
-0.0750035739597651
0.07502771125219333
-0.07497575163412123
-0.07499292860348541
0.3932939420530049
-0.07502454693807091
-1.2455547758256058
